encog,BasicNetwork,java,3.3.0,1,63634099754501
[BASIC]
[BASIC:PARAMS]
[BASIC:NETWORK]
beginTraining=0
connectionLimit=0
contextTargetOffset=0,0,0,0,0
contextTargetSize=0,0,0,0,0
endTraining=4
hasContext=f
inputCount=2
layerCounts=2,26,26,26,3
layerFeedCounts=1,25,25,25,2
layerContextCount=0,0,0,0,0
layerIndex=0,2,28,54,80
output=0,1,0,0,0,0,0,0,0,0,0,0,0,0,0,0,0,0,0,0,0,0,0,0,0,0,0,1,0,0,0,0,0,0,0,0,0,0,0,0,0,0,0,0,0,0,0,0,0,0,0,0,0,1,0,0,0,0,0,0,0,0,0,0,0,0,0,0,0,0,0,0,0,0,0,0,0,0,0,1,0,0,1
outputCount=1
weightIndex=0,26,676,1326,1401
weights=0.0767949914477933,-0.0218315323022605,0.0702451579470876,-0.0610005288645428,0.105518256118633,-0.0574043267986045,-0.0788254895815624,0.270758562136463,0.057241056675316,-0.236319832128335,-0.66157921075041,-0.415357190715505,-0.102087057374975,-1.03791122860962,0.0663466332400483,0.140957750092808,-0.0388165510713508,0.0333678152192104,0.101111140486274,1.39875577809206,0.142392601159419,0.976067827451003,-1.61621046568134,-0.557275926722822,0.301237127702795,-0.551163391635565,0.136816803543434,-0.245984960133841,0.101383219968798,-0.0177752878288049,0.0499667486202476,0.0818939294069804,0.188605014363196,-0.126571041849422,0.140699786636813,-0.215745457967471,-0.160831148131354,0.0108322755068797,-0.0937564433249178,0.12124625367535,-0.0668263690198385,-0.111913878408241,-0.0110077812373964,0.209240063247108,-0.210914673915917,0.00172975451629393,-0.0476710417751838,-0.0590998878924205,0.000293897073392205,-0.162176334962574,-0.0332387057772681,-0.456927300922986,-0.10154690994372,0.125772001362204,-0.0115580804642164,-0.0374142092363467,-0.121478568680227,0.19367991720291,-0.0448642196698886,0.000550612468570796,0.00793623703933428,-0.195224044584307,-0.19625992820665,0.258715856595333,0.038841645570407,0.117990510830519,0.18760686840801,0.123758030783823,0.0164547040482701,0.303484678239694,0.0405792229009892,-0.153255191049169,-0.074565241184137,-0.213269120080638,0.267695742831387,-0.0447067200955803,0.128284872851098,0.102883802979404,-0.075283998199832,-0.103531449384386,0.0999757450735743,0.05622826363908,0.136036444662924,0.267444754246525,0.00529442454043377,0.253501873750446,-0.123066749170359,0.00764335831117579,0.140015218175244,0.128321118289245,0.238777091267963,0.105560606179846,0.0877322934401424,-0.105934782033265,-0.0588293212120527,0.35223971375058,-0.0505068019860319,0.187723047165633,-0.0171152898307531,-0.103909416047911,0.370758551100541,0.0612166551060992,0.151007795358877,0.096281468689694,0.0783297912241729,-0.000201842753898388,0.027305682921819,0.0409697900503615,0.13960746989993,-0.195701152890389,0.012455570595274,0.206871211149267,0.110355799268353,0.324686021343597,-0.194217660282545,-0.15439698847884,0.0802051995417154,0.0664480575377502,0.04784145447038,0.0941311347740139,0.286016183113923,-0.139768968328325,0.0558806111333958,0.0520357396282468,0.0364677110957547,-0.0196005588417979,-0.216858661742103,0.0691166878131942,0.286985464717907,-0.404437565534243,-0.0106564089783593,-0.653464740616427,-0.00909744650120254,-0.110404520023189,-0.1156079925405,-0.433814434536207,-0.17590831288224,0.0287300109488021,-0.0106623731344623,0.191270281240144,0.16288387708998,-0.289858801648454,0.0723218398812724,0.0897499546378989,-0.167575836832797,0.251458483755026,-0.0768987890885799,-0.342334108688172,-0.120640085210007,-0.12395733772832,0.0117172172623409,0.207000911926689,-0.423003568020487,0.221598933981373,-0.0618296854043692,-0.135579399134715,0.00396163985356169,0.225407923298739,-0.0646313064960497,0.0333311793644299,0.0161922670262966,0.350513608998439,0.146439464856837,0.172271012974531,0.229539857919081,0.0548392274175514,0.0817868333289495,0.157875035943769,0.353218520989828,0.299069426259606,0.160501170668811,-0.0388853039621962,-0.0536104382275612,0.33049670296924,0.202583973819213,-0.0183686867772163,0.0942962034910602,0.233357384356025,0.210514628323449,0.0482682201542714,0.322133668410632,0.176387546399606,-0.397923881027057,0.231465124300707,-0.2606477450332,-0.329341722881353,-0.478840998532452,0.0538854873097647,0.245706400026418,-0.345701358615312,-0.107195050922418,-0.379427075393385,0.0593722574780062,-0.0912360770109499,0.104580352205493,-0.402591357964436,0.0313017068493599,-0.384995562938005,-0.15069703821424,-0.0329016549040387,-0.236196271590728,-0.189915640229325,-0.356273634713464,-0.430908371313968,0.133094771811084,1.55090605351232,-0.189599178395634,0.087650967725362,-0.264205519817966,-0.501491643202565,0.194888817732051,0.052407941433372,0.420390980808629,0.216057307292042,1.24771236146098,0.243535348295564,0.291733208417903,-3.19709674859702,8.11335803085683,-0.131333613119182,0.173796011415722,21.5825886239285,0.132337144401239,0.305324688111574,0.455885044872784,-18.3564752532224,0.32364391774959,-26.1767107002103,0.156540645099097,0.389785644520875,0.23312874382987,-5.09476669656556,0.129141818264057,-0.232058639419296,0.138449392121721,-0.0382759371529034,0.0499017476851121,-0.0523626133839078,-0.0377229555706799,-0.282696128083454,-0.134014294128616,0.153836628908106,-0.0436440342802733,0.467956776406129,0.0160920024609163,-0.171410320850366,0.0978357176985718,0.154485167434328,-0.0578581537368131,-0.0573149531300537,-0.00993877835416624,0.000717344630524662,-0.0510144055347749,0.0887772073444395,0.232033678171797,0.141816063202845,-0.26821674708857,0.159819501776007,-0.0722079070437291,-0.626474423509986,-0.0661272829558964,0.214613071699994,-0.305884115358644,-0.171783879932165,-0.215689933911157,-0.0515927742175971,0.083208846036155,-0.0560780939408627,-0.319237156093242,-0.329981862901163,0.0978959702018215,0.04170956647979,-0.100358977539301,1.39372600696695,0.154205720044471,-0.0461152506049283,-0.0486192869058616,0.144706530696088,-0.103496591163307,-0.146471587959675,-0.095547830354555,0.0375158155609914,-0.0561760101395999,-1.24942182888186,-0.128268651670237,-0.0561058393951442,0.10224587019467,0.178336364269895,-0.17101359168879,0.113230532613762,0.0840079880939136,0.232418312671425,-0.0398865560856733,-0.0227843313489941,-0.0572843352570069,0.0613131057996868,0.00794583108688461,0.298161324526222,0.0761242315873589,0.0590320853821951,-0.0518559803691391,0.0171699497559711,-0.0176945937492613,0.235437152046568,-0.210067976667106,0.0876652194842801,-0.0583239956869934,-0.128839707853961,0.28313778086499,-0.274106823216877,0.0989325050056207,0.258086680871015,-0.357395930178452,0.221538386682395,-0.0156824257236855,-0.172548616896695,-0.107533473901762,-0.101023380553465,0.24416596719536,-0.243033030178153,-0.325458997225434,-0.511624509354518,-0.237277848903573,-0.0898972346298564,-0.161078756085939,-0.917838810003134,0.0150545700311612,-0.147985171654407,-0.306461769796164,0.122533099152878,-0.367026278577805,-0.0575152057444168,-0.33764904110045,-0.113042393801775,0.0617595128926753,2.02757154030797,-0.297354539330969,-0.0393174809507962,0.269838474108848,0.183620538582063,0.0862878668224612,0.154303295548117,0.152578498157706,0.0519949790478151,5.6831264839414,0.0777519998145674,0.193978548563873,11.8619543552979,2.10304009272439,-0.383088066048455,0.380162300779098,17.8201142991089,0.376888247384295,-0.00658439328124882,0.209702635267268,15.3150135597018,0.0781827943888546,-40.785430644712,0.174590634244206,0.313713309353009,0.254168827515117,2.45182880443182,-0.0168751427857452,-0.0454583730713552,-0.0289212762505682,0.0758883337285715,0.105283842153156,0.0951727157994592,0.0338454754800354,0.0484889967162467,0.18341044258764,0.0590376580042005,0.000891669374252068,-0.74622199563797,-0.0394875496983902,0.245602261205809,0.218777483288263,0.0602925828343502,0.0038865858062362,0.264800215478363,0.194509901948133,0.374169022999231,0.316089981885241,-6.60561518618977,0.323772083007227,0.125329112434028,0.00341159225088572,-0.29164551561102,-0.038169108346496,0.323928474604129,0.0669263734426226,0.149765098262467,0.206400542354648,0.234928870320976,0.248867624284321,0.153777670530002,0.161709175579154,0.103901047612011,-0.133925693279143,0.258877772745348,0.248458531293122,0.0652759253170412,0.015185809268324,0.0838557989733586,0.137758287020342,0.12638751636123,0.0378679584984332,0.244843994327351,-0.11753671320005,-0.119699181147187,-0.0183986514540436,-0.133596577512137,0.232214340578863,0.158293874115431,-0.0309331497256846,0.0156258562958982,0.298981244486487,0.0850689476502665,0.284513677591658,0.158805337595372,-0.0730629153146314,-0.0677950021518287,-0.0930973509919693,0.199585133542925,0.155472570025555,0.216919273404618,0.0913544059395544,-0.120665397714678,-0.000583552624479917,-0.0728469802685103,-0.14824032586804,0.308576474194041,0.0360512441385216,-0.200357172861568,0.283376824837864,0.0828761926361231,0.248132407241772,0.0731989734595044,-0.206359134491773,0.407388315067351,-0.0713262458769724,-0.0964779159805278,0.240835916018,-0.29409100688152,-0.0636547342646713,0.0465821072311754,-0.137939943787542,0.0379087520841233,0.250259013456987,-0.0281866500625092,0.0224431881635735,0.104844848115303,0.354097057188883,0.0657664150728254,0.312494588610562,0.0500591427474318,0.330145241885199,0.00385236847257313,0.224443530493992,0.18213394704505,-0.0664757110515896,-0.0694268735107816,-0.0514386702461,0.00488029952828932,0.327307443930566,-0.0385437806603809,0.128260119137739,-0.0857668161510464,0.16013906708299,-0.218807580118625,0.16545183906413,0.0659792411450307,0.119554941060467,-0.290084492197827,-0.307402340985501,0.0865216938539656,-0.00317385527903534,-0.0118453329299462,0.00506287153603298,-0.498042007713928,-0.0127063536694997,-0.0359825070278632,-0.313651083314589,-0.152677267102303,-0.0774988556093279,-0.291816589799505,-0.036482137726142,0.204064677531196,-0.139118024883615,0.00307580092875978,-0.307006865445682,0.0173984935071787,0.0176044373466446,-0.462423939943135,-0.125357322810088,-0.221008434936496,-0.0989715238286245,0.0741296693983972,-0.0967268466094228,-0.171698795594323,-0.220273220990238,0.0192090269567465,-0.0277572232972112,0.18691511000857,0.0107906079990987,-0.187308379779298,0.0772791587143247,-0.13390124307592,-0.207451976942636,-0.0227132258867636,-0.11038117196306,-0.26427675448115,0.203184301814067,0.183244432372071,0.156222607151825,0.204051641542177,-0.275464467535806,-0.0561568017699676,-0.0829680972805901,-0.556651312939533,-0.220193640165553,-0.287993418240431,-0.00253118863782348,-0.063499428940329,-0.119775196663576,0.0675707745474614,-0.0357806125094559,-0.127348832201493,-0.0062354210944887,2.71528850992076,-0.0621257961947498,0.227047480284298,-0.318420366781447,0.0100219319882823,0.0396910062831313,-0.0911767894443142,0.17108219293808,0.212530421651197,-0.011935075061351,-0.0873514718087941,-0.0213185886697826,-0.118575982161257,-0.0522737928227177,0.0726037464475553,-0.107317635006257,-0.181434168572526,0.126586267027118,0.0280913176744146,0.186349959272003,-0.0141434782111971,-0.020166037509508,0.142840911941226,-0.0631570795586346,0.22653867432333,0.278678117522716,0.310683537087547,0.276331308806493,0.153283140502696,0.109623813726891,-0.0334569904295194,0.0815701949225296,0.220137137247709,0.125955593697604,-0.178773469926222,0.264635338970742,0.0429686174492485,0.0745070795233514,0.0508877778860734,-0.00386087953413844,0.12712985117136,0.289411271231957,-0.601177333549476,0.140946911035462,-0.295004548704386,0.203040290217571,0.152254085614708,0.141434863185111,-0.172749971204915,-0.460761920795046,-0.0586110563892998,0.189978053771764,0.0814678430871656,0.0609165829575089,-0.429470240577637,-0.0546497134379218,0.0741382191679208,-0.340687412930034,0.000500098777473926,0.11314789082946,-0.376265024834048,0.0147725317819926,-0.132412288349622,-0.101343449932783,0.00852822162734997,-0.276560240581708,0.147550430570987,0.139103019863249,-0.153955088869873,-0.0724364617037325,0.334886655117925,-0.155503984833833,-0.328711499411176,-0.381374227234606,-0.0312606401978791,-0.018686656059883,-0.314145676539385,-0.328440369652815,-0.587317583823423,-0.0482336851191787,-0.0434574034005626,0.902271319456913,-0.377730528310516,0.216152506144883,-0.254293950202423,-0.293765616710656,-3.13281626147669,-0.315142719756183,-0.177304952391897,-0.213979678603764,-0.274348469832729,0.248291475678521,-0.396000516607847,-0.130720572692983,-0.505131430671188,-0.155524741440509,0.303330228148377,0.138730911291904,-0.0537015336352419,-0.0717602268634242,0.0214520722715466,-0.0550206024665719,0.0981229654628403,-0.331139640401502,-0.802984171967573,-0.153921462083744,0.163997683033958,0.128677587803166,-1.32695334734815,0.00731632975651536,-0.0401798049993561,-0.0416559503720081,-0.374004144870844,0.000216825041334244,1.97333513470745,-0.166916591957525,-0.0556540204018623,0.0446663995944818,0.876123495414091,-0.136987339533127,-0.258952980426689,0.00822564830263665,0.599125576618619,-0.176746065652809,0.0431415480514268,-0.365241336196785,0.0650939982365557,12.3725410266714,-0.0589947834401071,-0.411378225412384,-8.61833246441534,-13.108713477327,1.49493588463729,-0.125794625845811,18.9498443362041,-0.144139854524143,-0.172699597715771,-0.35618635100046,8.4542310448808,-0.106614548952459,-154.943780669115,-0.0866029016259101,-0.0386401545733212,-0.150411347875255,-0.243902417361614,0.175597355169011,-0.298813803801233,-0.165169557408311,0.0347099373494314,0.163245500021841,-0.161648500195725,-0.0408534285394311,-0.133345510720364,-0.00226849856405025,-0.0559758375676257,0.06650474757034,-0.126026566192313,-0.000515597107811012,0.105492395404344,0.0727910624015844,0.0773155507800804,-0.174968953499039,-0.141417833186575,0.0706340803044231,-0.156393809053031,-0.0838330139678241,-0.11915027628661,-0.118919028526886,-0.193323854718393,0.136603186113333,0.0396175618359672,0.0935086570586981,0.128760926026423,-0.195627125421949,-0.0835262935358342,0.0517123276005951,0.0546311871699915,-0.453781981482951,0.133105126648661,-0.123846187521299,0.132724469685538,-0.148406175854495,0.0633099173757579,-0.0125176911491806,0.115745811540542,0.161861016160749,0.196104873094862,-0.0848856415385241,0.11974600760232,-0.125571258703785,0.141617585391083,0.0987463351910613,-0.125981001684256,-0.0709761010074699,0.0583999623299557,-0.124080847064183,-0.157028446963372,-0.190973113870437,-0.179056717231308,0.122570658477281,-0.00506355761800302,0.16890681854246,-0.0698096415678883,-0.168665128932908,0.0256639993079038,0.0449729154822169,-0.0778425245276002,0.0213664069623428,0.00833382694248575,0.217481878417091,0.159136391866966,0.121979402524369,0.11654931982884,0.156414614896344,0.265236636301359,0.152713151411828,0.0868911727105153,0.196269901547919,0.280058312349193,0.00691521837153276,0.147073342765358,0.317478714271314,0.0865050074561055,0.257417447570705,-0.185760210893355,-0.136632212755704,-0.256107792272265,-0.423098428167407,-0.356570498001186,-11.6287802761363,-0.291896647299925,-0.255033120823463,-0.372710707789601,-1.4373116307782,-0.113378470025276,-0.428872200593512,-0.396201778829747,-0.279926288166335,-0.520871542193675,-0.321916955678264,-0.152986311048241,-0.287783811556748,-0.485909320217599,-0.49042572255136,-0.279303490692731,-0.373051668869875,-0.485492836374368,-0.36500787984836,-0.330808577430808,-0.487003040818462,-0.363299350002188,0.0807012016407771,-0.0370318760675622,-0.0217723190397343,0.301549295736689,0.069633984821467,0.0103597794965107,-0.00117510911382618,0.106846230970084,0.0863937808712612,0.224459204793326,0.268634400678652,0.269306641712319,0.0523532300728904,-0.0553369888587489,-0.0605460018853362,0.0199745957382051,0.0989891888182849,0.193171581960465,0.219393322319105,0.0741994156658094,0.290195957915695,0.152425929165829,0.143016562822482,0.0832800264586183,-0.0398583602536588,0.237307179471227,0.121891934111292,0.0816821423672613,0.0877649758338884,0.296495310708416,-0.00718706746147143,0.253438847967763,0.0780672299070237,-0.0260904084757607,-0.0168388857889005,0.158228832607895,0.0252916886139287,0.0906194096765065,0.232768593768983,0.397592108888387,-0.0187965923521249,-0.0105424417726229,0.257777837682282,0.227947928506814,-0.0453906343630969,0.217233635709338,0.236061538687916,0.249235355285795,0.156808106204291,-0.016796187244285,0.189842063785752,0.29782316761295,0.41480768500809,0.403807128273732,0.527897816316259,0.464689466958903,0.0854647449252711,0.431361848985603,0.479727838859692,0.264397993574435,27.6214972726143,0.473233661682459,0.177078156685134,0.345270311557588,0.413937754822202,0.248192454259832,0.349236313354233,0.23644054009759,0.189027684267096,0.337316078670317,0.152679808673215,0.166366680690717,0.516493901355028,0.440392126594269,3.55199048347728,0.458735301237255,0.450739004647097,0.45327889770596,0.175625295492471,0.187956650322368,0.1129923104619,0.298028506431276,0.622100689160157,0.131839079069338,0.133931162913824,0.0897292288104769,0.0527963232354905,0.290317525018668,0.0620691985933552,0.155000184849562,0.402163691028569,0.119987263013698,0.226948994202185,0.186334011965312,0.10849676211038,0.124027169350787,0.0303428133130068,0.130470937895453,0.0319735854553758,0.397474334762448,0.0904095894929758,0.21758441036109,0.278171082789465,0.263349014854716,-0.0716751741344179,0.121276204878118,0.283561982358017,0.279624896031907,0.0345290663270014,-0.0237221589175166,-0.0789342116847112,0.221929164474369,0.0753568937744488,0.0878442476626269,-0.0525212577621657,-0.0573966887572057,-0.0802747606088729,0.164406148355706,0.00741220776906461,0.120281585137026,-0.0873290613452995,0.253085859075474,-0.0295555993704648,0.228194570157445,0.129319458381662,0.136859616399427,0.152041328233308,0.126232948515018,0.127968423609192,-0.469294674279767,0.24036617812227,0.132241756949666,0.23540284285107,0.0992609294208386,0.0283427360019041,0.216517868791622,-0.0571266192819864,0.234477516835989,0.0460628908177184,0.213602336738837,0.00711462515558508,-0.02208294259835,0.0332413473968422,0.211738736214002,0.0367877636227941,-0.0169121063572833,-0.0389689825162147,-0.0580418863719207,0.0417086368159991,-0.031253182043894,0.00715529704818101,-0.00811595633956964,-1.20310475852804,0.11263937902148,0.287656763196257,-0.443231107862611,-0.0252905352920137,0.175639979223059,0.0344639298662269,0.0372912660448776,0.120389353450484,0.00506107880711709,-0.00061148261316683,-0.01537720966693,0.214774620015881,0.050550719017065,-0.149841002339867,0.214275370849038,-0.0735349495732422,0.0826875610976554,-0.136637393438386,-0.0530255897934201,0.0966712041002631,0.0555365586816698,-0.0232003639817268,0.196480568904493,0.0834771877154715,-0.0545676479330238,0.264921071578341,0.00986424077577758,0.039461274952475,-0.328749373295873,-0.0617943995962104,0.0129028943578572,0.167658802612585,0.0862627920938905,-0.492276431870935,-0.0394558785383587,0.0474788354712343,0.227064288765844,-10.6345930855798,-0.0721758413704731,-0.037489667510275,0.129667111381971,0.140675589645011,0.252644303483041,0.139119297149389,0.209209314198344,0.0515971311223087,0.146827801740301,-0.104574358497453,-0.0926535962306799,0.176083820335895,0.209611832852917,-7.07521288485413,0.220771643976174,0.0558035966947415,-0.145258804636395,-0.0995607099835141,-0.144224258694948,0.113038624665938,-0.130839428233622,-0.418012063710944,-0.135516851784183,0.235807461832381,0.0181416437165708,-0.114470691839434,0.214511706436893,0.0449900711284007,0.139401641925681,0.234466485058172,0.207640959606406,-0.00327139282889085,-0.0725731549311721,0.216408494901972,0.163564531340002,0.212490161124771,0.195030176126206,0.142887052444574,0.0421814159431482,-0.0979573908023141,0.102293956925042,0.121861304352583,-0.171839276417721,-0.336638580875084,-0.31896230896516,-0.173807669232405,-0.314438013650771,-0.0165488858813877,-0.0961446225652326,-0.410666597417103,-0.427981771117255,9.58992104817222,-0.247319897156754,-0.324997327223029,-0.303878413485716,-0.0735887768557421,-0.415995807049028,-0.147069330158736,-0.316489045394495,-0.17316623803653,-0.11632138899583,-0.274803748252993,-0.128733490511699,-0.128567663026197,-0.263144297812186,10.8871898921771,-0.19036601605587,-0.0477256417573803,-0.246511194203404,-0.100570621810336,0.150015327521406,0.177321150176109,0.145396979532892,-0.473734135887053,-0.10021023841416,0.0344383728733487,0.1113852969974,0.173485153739347,0.162805612700864,0.198079166466909,0.217355417365337,0.118651403713067,0.222264547211566,0.158104081246108,0.270484098078753,0.10459496138751,0.250178357845799,0.258554025809793,0.128322750291011,0.243283161713677,0.161521810077122,0.0868443831774601,0.0674119397423926,0.221477507497611,-0.300022440404903,0.815832453236414,1.08742355453727,1.10163418693828,1.04434372855171,0.198242885759565,0.736302346823465,0.85112563972122,0.760252698761021,0.556676885906301,0.887326973337297,0.842705976982443,0.923693758865134,0.945067497902856,0.244183797852328,1.10969211191674,0.864940812808055,0.899761508617945,0.740039943801598,0.933440686414403,1.05748724287394,0.8149420939523,1.02594060281125,0.514245314903391,1.04895713717086,1.08026963907611,0.563048972819846,0.19325325122966,0.0680308894323192,0.0622775772477698,0.0499099745466657,0.0821885555252468,0.0238176052532283,0.235921878469404,0.159785311973538,-0.16645167426958,0.0897161309252577,0.152452422648295,0.305609166646294,-0.0217739720841319,0.138884120618013,0.110837078618686,0.103006005926615,0.235624973894444,0.0153844088833785,0.172385422070877,-0.0744914965030548,0.0497181609175089,0.178033528932032,0.155225536392255,0.122949649880192,0.00636760243374481,0.211365097844694,0.130748070252342,0.160767081548022,-0.206514702580385,-0.0440302388055369,-0.388886535207241,-0.179339051077889,0.130152000244896,0.0277454392089667,-0.921446305473984,0.143337055877711,0.0582174271020622,-0.0334207946661645,0.133780904773452,-0.128963334296586,0.0480141859845412,0.145524491518128,-0.0412885174974668,-0.0178757250343143,0.0727306957485701,-0.0456053524395468,0.122056221474539,0.087298871385201,-0.515878969456162,0.0721783936144957,0.150557934505614,-0.54852149137648,-0.0183337364733398,0.259855684005842,0.122895744829064,-0.0738501240952064,0.196755947254529,0.248352092589353,-0.0455274742799144,0.0700158223985841,0.0758517102981172,0.23825446647833,0.131305672496262,0.0356945176864818,0.160485661693639,0.0217971316685232,-0.0595371756562546,0.113580258263852,0.0680983773777375,0.130599692297923,0.207888248381502,0.0340514265029482,0.0447031736668756,0.156354414309801,0.0339124175891503,0.0672933389563302,-0.0156722956281617,0.192738766900824,0.133061347743937,0.134815348485608,-0.0845111225009884,-0.125877923470327,0.108414870007238,-0.0499262069177392,0.0341787159659891,0.213161816456886,0.217986763441111,-0.15608455164594,-0.121531173505089,-0.0492393426071702,-0.0987669156979256,0.106578478242326,-0.0142741882712424,0.0373842144898776,0.0965806048751979,0.181472863235829,-0.0121620488631252,-0.10336390306894,0.193351757001664,-0.0504473038049449,0.0811198222179801,-0.0179049046743033,-0.00718037387752827,-0.500854773286196,-0.0803374314413615,0.171878931328312,0.118604461267592,0.135832029704636,0.116717718593997,-0.0319714252540978,0.252342352020735,0.183935938623713,-0.0120215649257575,0.0499200817776216,-0.0133041621718933,0.0142160209566964,-0.0122181415742335,-0.0615992276574646,0.231778706263637,0.177586749779898,0.116352207086598,-0.0712837310817803,0.0672803246974753,-0.0504933870865584,0.0615355009243829,0.256572674682322,0.293367972906706,0.237581863720142,0.29003671397775,0.152810221255798,0.311070650007372,-0.0787871419859143,-0.0175231608736467,0.0972871780668221,0.0425059118667861,0.245266320305865,0.193174988539751,0.244602129452497,0.042697331990825,0.255925613980865,0.0900891729178712,0.0704076171490107,0.105853411887588,0.229066081092196,0.0920441347152842,0.110922975021548,0.229650658196952,-0.0686624523202862,0.0462201943903484,0.0778964016470789,0.18922282253864,-0.0300310034770826,0.0472425205679837,0.011296824950344,0.226826318451645,-0.130399766089669,0.395513353297893,0.125917584264087,0.170980979791825,0.0620351853353477,0.0648657323526136,0.279967889006485,0.244740607185919,0.0431551172774114,0.047711991911842,0.333333131495845,0.203662736986553,0.250470108810936,0.389174811209596,0.258481866281201,0.221338681520748,0.143477378077072,0.387755379194142,0.37615074138658,0.0897012143512192,0.0481482274267798,0.223160506134434,0.163511892709082,0.253232239809823,0.350910175006642,0.029125653974561,-0.116066776521923,0.309346442723076,0.330125085723952,0.416239990845923,0.457734069232965,0.619053132399096,0.485906441539131,0.385187286978299,0.123308831278273,53.1420007318952,0.270962573350654,0.277326318735662,0.167613025991845,0.16739507958585,0.328885201684625,0.427466190652693,0.266403463685167,0.450515676324853,0.360510183909045,0.509059418724605,0.182885718461014,0.143961917159725,0.506292208453913,324.674215105329,0.249450613536561,0.184012798018383,0.415745062698688,-0.216273728834471,0.0408087515912697,0.091430670188654,0.00705936782873128,0.157614859709013,-0.00677727636027715,-0.192032561399288,0.115933013197729,0.0339251444836225,-0.194545435394019,-0.0841518188098852,-0.111545440632006,-0.153283890726741,-0.0833106497939522,0.154215876591259,0.156705023075337,-0.0208919263129076,-0.158784848685892,0.155084114100034,0.110981396346311,0.0995947049447433,-0.0332861954911466,0.0474179542382033,-0.152403914406718,0.00192927114285456,-0.288037617244439,1.21269816507711,0.85753707581085,-0.839365037665407,1.27409685986307,1.56962545417232,-1.690076526925,1.21091325579254,0.440987771465903,-0.861541747633154,1.22170948282429,1.06996082378084,0.658741534412253,0.494374328775528,1.02433407844201,-1.42432805637952,0.935816982614723,0.476716355642637,-1.57984935065259,1.17863075303781,0.858883536471465,-0.726934251131925,0.611381770047071,0.024519331182595,0.916570747581576,0.201276358351315,-1.25025748937722,-8.99257647023461,0.760156644280142,1.3122852423984,-0.436144567414254,0.61946605582231,0.989601289965027,0.180814255928069,0.806853491373758,0.847412589051487,0.228999808188062,1.29439459091257,1.21693867920755,0.703205740988816,0.488645525859589,0.99274928027477,-0.342740686702738,1.19354837757701,0.0416504744401437,0.338223116513445,1.11243094008529,1.14193008718636,1.26333791157852,1.74097307188947,0.786754160088838,1.05329910377194,1.35648223029286,1.26061199466261,-0.74167437012851,0.872032107376508,0.601316395030039,1.05852784207488,1.71864058588102,0.889187142899813,-0.0839645107434899,1.53730140989055,0.450756611512395,1.74724948592356,0.452130755379308,0.701993770201985,0.108563662391002,0.142703691935237,1.16637137186002,-5.81874413482625,0.608472454179298,1.39142239170215,-0.022698629541648,1.61618321778541,0.899857227178224,0.269555352870168
biasActivation=1,1,1,1,1
[BASIC:ACTIVATION]
"ActivationTANH"
"ActivationTANH"
"ActivationTANH"
"ActivationTANH"
"ActivationTANH"
