encog,BasicNetwork,java,3.3.0,1,63634442128583
[BASIC]
[BASIC:PARAMS]
[BASIC:NETWORK]
beginTraining=0
connectionLimit=0
contextTargetOffset=0,0,0,0,0
contextTargetSize=0,0,0,0,0
endTraining=4
hasContext=f
inputCount=6
layerCounts=3,81,81,81,7
layerFeedCounts=2,80,80,80,6
layerContextCount=0,0,0,0,0
layerIndex=0,3,84,165,246
output=0,0,1,0,0,0,0,0,0,0,0,0,0,0,0,0,0,0,0,0,0,0,0,0,0,0,0,0,0,0,0,0,0,0,0,0,0,0,0,0,0,0,0,0,0,0,0,0,0,0,0,0,0,0,0,0,0,0,0,0,0,0,0,0,0,0,0,0,0,0,0,0,0,0,0,0,0,0,0,0,0,0,0,1,0,0,0,0,0,0,0,0,0,0,0,0,0,0,0,0,0,0,0,0,0,0,0,0,0,0,0,0,0,0,0,0,0,0,0,0,0,0,0,0,0,0,0,0,0,0,0,0,0,0,0,0,0,0,0,0,0,0,0,0,0,0,0,0,0,0,0,0,0,0,0,0,0,0,0,0,0,0,0,0,1,0,0,0,0,0,0,0,0,0,0,0,0,0,0,0,0,0,0,0,0,0,0,0,0,0,0,0,0,0,0,0,0,0,0,0,0,0,0,0,0,0,0,0,0,0,0,0,0,0,0,0,0,0,0,0,0,0,0,0,0,0,0,0,0,0,0,0,0,0,0,0,0,0,0,0,0,0,0,0,0,1,0,0,0,0,0,0,1
outputCount=2
weightIndex=0,162,6642,13122,13682
weights=##0
##double#13682
   -498544.694105927,1.8893048095,-498544.691768901,-498544.620309656,-498544.501866953,0.221519479,-498544.803783395,-498544.579253629,-498544.636616552,-498544.462135336,-497964.305403133,-498544.716511614,0.7920634767,-498544.489683702,-498544.467740059,0.0552291602,-498544.611454558,-498544.544917949,-498544.689206199,-498544.51689727,0.5865760218,0.7631753124,-498544.724540068,-498544.575741447,0.6805259871,-498544.557511905,-498544.791205913,-498544.640690564,-498544.61017551,0.590487258,-498544.202946063,-498544.667311652,1.2152242847,-498544.492033411,-498544.202295537,0.5898388357,-498544.794680132,-498544.653846994,-498544.832065628,-498544.601366026,-498544.777952125,-498544.700505842,-498544.552595164,-498544.700971699,0.5895573048,-498544.621751098,0.7950814566,-498544.484790757,13.7020361362,0.6386995377,0.4529784018,0.6191323688,-498544.761456175,0.5820449663,0.5235540278,-498544.551861851,0.4010281432,0.6235039343,-498544.561304255,-498544.778469625,0.6566279276,0.5764385571,-498544.803192696,-498544.487572421,1.4556142559,-498544.5994384,-498544.40921315,-498544.583460267,0.3858787623,0.7454244958,0.5896884384,-498544.791722141,-498544.546966899,-498544.215863361,-498544.573059722,-497964.271610221,-498544.551786678,0.8818510196,0.7113552141,0.6340505082,-498544.834399191,0.1378062729,0.0252693543,0.1665809583,-0.1243611034,-0.216393814,0.5088026202,-0.2457940012,0.2961885674,0.0876963544,-0.169353152,-0.10640806,0.3516786897,0.4144953861,0.053782053,-0.042614676,-0.7047508192,-0.016314978,-0.2650514725,-0.044108832,-0.1638301838,0.0391745795,0.3807119855,-0.1114662919,-0.0059611361,0.1211459657,-0.3588389337,-0.1013713848,-0.1402078481,-0.2070279453,0.4500162162,-0.199962651,-0.1838332393,0.3421792029,0.1751337761,-0.4338719289,0.7502753284,0.0466923923,-0.0528366595,0.13955601,-0.1213383053,0.1469555095,0.1368172127,-0.1927330506,-0.2038039358,0.1447865388,-0.1269347842,0.0847436811,0.0407292435,7.388581354,0.0765851599,0.0913506415,0.0341908681,0.0323961269,0.0067804567,0.3675168473,0.2071856761,0.2417078672,0.2271198186,0.2045843196,-0.20436078,-0.0007426632,0.3445052356,0.2413465531,0.0877715268,0.1571872233,-0.1844447803,-0.1925005131,-0.0463783092,0.2487619882,-0.0551166464,0.2442158904,0.1701653863,0.435127611,-1.2630433637,-0.1771419885,-0.2532499858,-0.0898085474,0.1649153681,-0.0053640509,0.0042107903,-0.3184961389,497674.61640895,497674.150587022,497964.334327506,497674.471251898,497964.508347363,497674.187557381,497964.54171658,497964.814748084,497384.399083132,497964.481339228,497674.53136647,497964.218611406,497384.786645911,497964.846370591,497384.266944693,497384.583909251,497964.251876937,497964.335449644,497964.780525736,497674.370393194,497384.594971803,497964.497543854,497674.25405682,497674.174052982,497964.742309291,497674.570423781,497964.173186676,497964.500430609,497964.301494967,497674.502005398,497384.292516155,497964.804700467,497674.536270695,497384.535644011,497964.230684477,497964.534648114,497964.729502861,497384.184757639,497384.515047486,497384.158231459,497674.540607909,497964.804260826,497964.349693017,497964.255868159,497964.692692586,497384.459491764,497964.20204971,497674.597386993,497674.293596361,497964.811356697,497674.143989789,497964.661932649,497384.758017461,497384.306576065,497384.85144795,497964.451980464,497384.759634679,497964.884335915,497674.627237132,497964.661984972,497384.312296026,497384.164978159,497964.672135351,497674.482096038,497384.277325214,497674.624960527,497384.371212054,497964.409884134,497384.739378302,497384.630591104,497964.787890961,497384.155621439,497964.683506635,497964.745986464,497964.728079809,497964.724195549,497964.306733071,497674.157070895,497964.553888054,497384.371319667,497384.303526072,-498254.959696155,-497964.67428112,-498254.871124434,-497964.348866625,-498254.695489152,-497964.695389275,-498254.731937277,-498254.677066643,-497384.126575884,-498254.621439317,-497964.122302999,-498254.942785285,-497673.85818425,-498254.515327271,-497384.19481935,-497384.512566713,-498254.667898859,-498254.417909806,-498254.467763779,-498255.012395284,-497384.113114322,-498254.364210927,-497964.1654216,-497964.683416498,-498254.973263558,-497963.98904393,-498255.053453951,-498254.747576403,-498254.938232547,-497964.561634842,-497384.18117149,-498254.770227133,-497964.311921683,-497383.944784364,-498255.053049996,-498255.091990138,-498254.816972438,-497384.50526086,-497384.156832714,-497384.01587372,-497964.088687795,-498254.533869156,-498255.003105184,-498255.073011756,-498255.056245504,-497384.031240356,-497964.391987515,-497964.705125728,-498255.046150257,-498254.667487155,-497964.252395243,-498254.871606098,-497383.963185294,-497384.485344418,-497384.633662849,-498254.956747933,-497384.414139417,-498254.89459017,-497964.476278062,-498254.673915166,-497383.941007982,-497384.629053062,-498254.839509091,-498254.727806084,-497384.758577207,-497964.45275086,-497384.142350739,-498254.433505677,-497384.106969463,-497384.138704207,-498254.512839786,-497384.35134738,-498254.90576928,-498255.096582246,-498254.891177434,-498254.396490678,-498254.461780737,-497964.193084839,-498254.382226459,-497384.391320292,-497384.298890069,497674.030113638,497674.283222955,497964.627549133,497674.414821792,497964.393334035,497674.553002359,497674.220261882,497964.847760719,497384.766802414,497674.502193477,497674.062266832,497964.807121679,497384.184791833,497964.823428786,497384.726247502,497384.429332123,497674.44876229,497964.170830493,497964.688592641,497674.095759483,497384.832306999,497964.362328306,497674.272598148,497674.569414022,497964.320024418,497674.018812282,497964.65629638,497674.673911599,497674.030906413,497674.229094195,497384.579859852,497964.385930813,497674.701293668,497384.468985551,497674.642868768,497674.441126662,497964.69079353,497384.805800697,497384.644367657,497384.548882594,497674.251377768,497964.876585357,497964.792907023,497964.886738128,497674.494866577,497384.508209841,497964.292688303,497674.063607587,497674.331003638,497964.557426616,497674.159430168,497674.486498238,497384.312430317,497384.2659537,497384.235956131,497674.566079856,497384.134316995,497964.782196501,497674.253679608,497964.359170854,497384.1946313,497384.409454761,497674.627270273,497674.383314233,497384.1850689,497674.574630543,497384.794699355,497674.439867673,497384.130019072,497384.269769941,497674.497790031,497384.645109157,497674.215334179,497674.089169101,497964.74267624,497964.889206214,497674.293482674,497674.284154544,497674.059196546,497384.639729008,497383.547212828,498255.187130654,498255.111582956,498255.155800215,498254.838339021,498255.462405812,498254.806985444,498255.34305805,498255.001704414,498254.845463907,498255.214527748,498255.416684313,498255.181752997,498255.089061845,498255.122926289,498255.489053379,498254.843756945,498255.004034651,498255.435154176,498255.428323318,498255.22159777,498255.186674781,498254.841306597,498254.968951779,498255.393490736,498255.161451382,498255.039839053,498254.852893124,498255.066554791,498254.890027249,498255.041272177,498255.219206648,498255.317441816,498255.261080972,498255.068606501,498255.160570738,498255.450941896,498255.024170947,498255.0976761,498254.875733179,498255.320345988,498254.865299107,498254.990864148,498255.437625257,498255.208312284,498255.373218897,498254.877013962,498255.418385513,498255.258355991,498255.371502906,498255.423917024,498254.842148912,498255.141113546,498254.922986406,498254.83178904,498254.990444611,498255.114499052,498254.911306172,498255.270396764,498255.184974924,498255.191241753,498255.462179605,498255.045178253,498254.88035216,498255.312279014,498255.503408385,498254.867917492,498255.42875931,498254.789130339,498255.470442835,498254.806786477,498255.327673283,498255.414445835,498255.328095992,498254.876652325,498255.124973658,498254.964485628,498254.911768624,498255.268726779,498254.788946834,498255.053112415,498255.30880151,498255.102624418,498255.203139169,497964.514404749,498254.967798259,498254.846768097,498255.163130405,498255.197966927,498254.846836884,498254.814746681,498255.308310719,497964.802068707,498255.420788461,497964.73278595,498255.366253668,498255.328208138,497964.419394222,498254.894021237,498255.212991184,498255.2739764,498254.956341937,498255.397930169,498255.29600044,498255.333391424,498254.864918736,498254.935790362,498255.321104839,498254.815009076,497964.755109906,498254.794633978,498254.971405422,498255.150666678,498255.250124925,498254.900537503,498254.830375923,498255.128230182,497964.890333608,498255.414241935,497964.65336299,498255.425315283,498255.212874371,498254.999467377,498255.450380739,498255.424371149,498255.006563043,498254.83448681,498255.501744659,498254.904192276,497964.558693182,498255.304852805,498254.853973641,498254.786422382,497964.36461783,498255.023057719,498254.865445472,498255.239697941,498255.314711262,498255.37783503,497964.418161008,498254.800682892,497964.573957782,498255.116796324,498255.491151545,498254.820877901,498255.351428543,498254.926319036,498254.780411536,498255.288925952,498255.130877782,498255.006698481,498255.486169054,498254.973032331,498255.288952772,498255.295763186,498254.829777023,498255.464961844,497964.995843954,498255.379716576,498255.095503376,498254.79910692,498254.942132987,498254.750994366,-496804.601097973,-497384.060030036,-497094.533803433,-496804.952050356,-496804.810777308,-496804.909966189,-496805.101941365,-496514.195888059,-496513.964882321,-496804.425329768,-496804.600745229,-496804.824560538,-496514.126248789,-497095.117798013,-496514.270085408,-496513.888310692,-496805.06409079,-497384.62924818,-497095.159800786,-496804.924214689,-496514.005086747,-496805.125245934,-496804.578937356,-497384.089138588,-497384.472610288,-497384.441432493,-497095.020595364,-497384.56959627,-496514.000172014,-496804.462626419,-496514.235481876,-497384.630645339,-496513.925683336,-496513.930238257,-496513.960383335,-496805.064018997,-496514.414435762,-496514.120043022,-496513.947013287,-496513.993731906,-496804.651874469,-497384.677379672,-497384.284987621,-497095.208085629,-496804.729551936,-496514.310008611,-496514.38229008,-496513.81920926,-496514.069254803,-497095.156417179,-496804.59893442,-496514.277061156,-496223.354275815,-496513.817761955,-496513.874215461,-496804.612885434,-496514.426447419,-497384.64977316,-496513.8361321,-497384.651295795,-496514.484027019,-496513.883205127,-496513.971784485,-496804.519096873,-496514.088441557,-497384.252050869,-496514.063890577,-496804.593631639,-496514.233921389,-496514.343099807,-496804.619073126,-496514.103229143,-496514.274789477,-496804.867627456,-496514.05074146,-497094.733261792,-496514.191118345,-496804.584727787,-496804.924161256,-496514.48873655,-496514.423400694,498255.146931709,498255.349424475,498255.38468963,498255.054982996,498254.954422275,498255.021165192,498255.555997903,498255.602064489,498254.946125229,498255.639735572,498254.970498536,498255.368344362,498255.431278845,498255.408970108,498255.508637808,498255.144170755,498255.464655329,498255.234505742,498255.608127426,498255.411969251,498255.250208978,498255.339219124,498255.192519999,498255.197585896,498255.042189583,498255.655815605,498255.365037996,498255.1516545,498255.081658796,498255.116127771,498255.197147787,498255.504934173,498255.577111445,498255.583747433,498255.463617081,498255.122533917,498254.998689404,498255.400303516,498255.312299688,498255.273626116,498255.474687329,498255.518099547,498255.175116902,498255.11174043,498255.384811723,498255.623002304,498255.394339488,498255.43719811,498255.535196542,498255.173793502,498255.438802136,498255.155149856,498255.181506993,498255.193870008,498255.459089546,498255.46579987,498255.07557947,498255.105778728,498254.931468407,498254.956693955,498255.31421448,498255.323018398,498255.439080687,498255.488084742,498255.361262779,498255.123651647,498255.449320202,498255.505618697,498255.603440312,498255.304778885,498255.064156346,498254.983026807,498255.580293339,498255.253176305,498255.595369207,498255.390196715,498255.082777217,498254.999454564,498255.470861458,498255.077274564,498254.444335193,497384.790944364,497384.479562436,497384.770969772,497384.540430113,497384.165690119,497384.447119367,497384.506933625,497384.248350075,497674.365478601,497384.170646634,497674.616972067,497384.592527297,497384.479297921,497674.683473026,497384.275361119,497384.202711048,497384.550136637,497674.474539041,497384.384852263,497384.29737429,497384.751825269,497384.696862276,497384.354109844,497384.233329344,497384.579467516,497384.437960995,497384.791435166,497384.461605279,497384.192585019,497384.506714841,497384.199817094,497384.498021748,497384.717298321,497384.63964732,497384.591391787,497384.172165342,497384.736232586,497384.276364009,497384.524282041,497384.74465395,497384.271095958,497384.585978002,497674.671597207,497384.462841631,497384.376262863,497384.45862118,497384.429704798,497384.498781863,497384.648717469,497384.516195048,497384.60076225,497384.453994106,497673.919275488,497384.848021944,497384.496447514,497384.217774275,497384.24914478,497384.661332616,497384.824067075,497384.590833602,497384.51878868,497384.169020533,497384.179457244,497384.477899035,497384.833934018,497384.381685593,497384.738333454,497384.702755079,497384.354816513,497384.226887964,497384.329582939,497384.397464816,497384.212992275,497384.503302791,497384.14997052,497384.289539454,497384.749326459,497384.754372691,497384.720170958,497384.244538523,497383.907232133,497964.451535537,497674.536949201,497964.574684495,497964.804247116,497964.644117513,497964.242185407,497964.767570901,497964.30208204,497384.4973097,497964.821315087,497674.059549071,497964.350591459,497384.796552916,497964.384747505,497674.086724525,497384.530212946,497964.491623494,497964.527202138,497964.892871794,497964.618582251,497384.590054197,497964.302847584,497964.580711739,497674.171261209,497964.362179669,497674.225650932,497964.809710309,497964.856933659,497964.365790295,497674.192509207,497384.357876567,497964.839456182,497674.564177652,497384.582577406,497964.261325423,497964.39132277,497964.53825732,497384.571946443,497384.34869874,497384.29838242,497673.990601701,497964.59474532,497964.755801338,497964.339057449,497964.289873016,497384.205755591,497964.314733884,497674.138394433,497964.822497432,497964.657621033,497964.451775246,497964.421242834,497384.725593689,497384.524250797,497384.404998665,497964.307570188,497384.254162783,497964.388072386,497674.426716548,497964.403115682,497384.295579576,497384.773741719,497964.83458627,497964.32463964,497674.430897574,497674.118387414,497674.336242064,497964.372857744,497384.24711427,497384.732739367,497964.186027907,497384.747591481,497964.302195586,497964.718181561,497964.612629651,497964.189381158,497964.44534077,497674.226303391,497964.214503562,497384.244926218,497383.400792291,498254.869757737,498254.623111222,498254.820256546,498255.027054379,498255.299911064,498254.451347441,498254.551644936,498254.766253735,498255.28184252,498254.474644934,498254.522859929,498254.378861803,498255.09286039,498254.375477839,498254.467990353,498254.872246335,498255.019836692,498254.864014026,498255.109339753,498254.842557724,498255.053963424,498254.618998245,498254.643243012,498255.060268121,498254.781081003,498254.491722243,498254.415277169,498255.058898478,498254.839482549,498254.974316702,498255.00090359,498254.546243819,498254.909508411,498254.53175826,498255.00289193,498254.988288299,498254.816797478,498254.623465306,498254.829099688,498254.643740862,498254.545298017,498254.409071764,498254.542341841,498254.879752235,498254.989048023,498254.99038748,498254.535215241,498254.929171477,498254.731107052,498254.643014868,498255.183384123,498254.862402544,498254.647043854,498254.763438586,498254.515949037,498254.839434487,498255.091955494,498255.08807571,498254.61864837,498254.964863816,498254.624745267,498254.604833743,498255.038858471,498254.464200813,498254.585828629,498255.088703394,498254.797440677,498254.933777124,498254.700673194,498254.807789339,498254.644123851,498254.55304638,498254.407589332,498255.054273886,498254.669934702,498255.017566655,498254.972743688,498254.875578062,498254.967307383,498255.118780808,498253.803563068,497674.048167082,497674.150440526,497674.542529072,497673.82958168,497673.961150147,497673.937849066,497674.492131216,497673.838458324,497674.671518834,497674.458394195,497674.074783159,497673.827466037,497674.426297263,497673.841644696,497674.502525664,497673.932274683,497673.900790129,497674.116572707,497674.462406019,497674.015595904,497674.163499507,497674.051147384,497673.961966814,497674.560952407,497674.236986843,497674.277462313,497673.938831358,497673.916152985,497674.060443773,497674.42875219,497674.255026532,497673.943417428,497674.277928954,497674.45833092,497674.372613681,497674.466428714,497674.508364896,497673.90724234,497673.897301688,497674.423477535,497674.317344958,497674.367942007,497674.203189857,497674.145430641,497673.841963899,497673.99820355,497673.993327566,497674.485252397,497674.179444535,497674.357915178,497674.344576766,497674.555040853,497674.67893686,497674.15980811,497674.177717986,497674.559081089,497674.011122813,497674.543638056,497674.154656227,497674.245749225,497674.723079098,497674.398627332,497674.340075942,497673.903415745,497674.026016763,497673.954014831,497674.111598474,497674.530027734,497674.031092406,497674.020746051,497673.985971178,497674.55560918,497674.041920119,497673.861577585,497674.260312337,497674.357618891,497674.410018918,497674.378597563,497674.541637609,497674.061432394,497674.475075395,497384.316683439,497384.599812927,497384.565633072,497384.207867611,497384.563090158,497384.289585046,497384.241813031,497384.404305122,497384.676637069,497384.578998089,497674.688788231,497384.615690591,497384.514656941,497674.586459827,497384.781822103,497384.151558252,497384.4234663,497674.104062979,497384.751053545,497384.749709554,497673.989361223,497384.577852179,497384.444390672,497384.495636188,497384.652072064,497384.636812921,497384.779051462,497384.76260025,497384.683203572,497384.272754359,497384.495629727,497384.125692634,497384.216916021,497384.262657565,497384.669130934,497384.223549679,497384.199178145,497384.859695698,497384.62707417,497384.82857735,497384.294520717,497384.550457886,497674.379559814,497384.443895526,497384.322287424,497384.364653863,497384.691410743,497384.300222236,497384.642637799,497384.630795914,497384.411287892,497384.560226772,497384.215319338,497384.475870404,497384.205114812,497384.601935738,497384.279114443,497384.193689072,497384.418900025,497384.789381714,497384.373638061,497384.342317258,497384.584206027,497384.527574898,497384.20706055,497384.825830871,497384.522466758,497384.375691563,497384.180064168,497384.681964612,497384.815484585,497384.42687508,497384.479136373,497384.785580672,497384.578881024,497384.639050901,497384.182941466,497384.124187334,497384.297040951,497384.411110388,497383.952549391,-498544.35528535,-498544.714152125,-498544.781706919,-498544.23323582,-498544.159299332,-498544.184328991,-498544.353656671,-498544.776571824,-498544.766919381,-498544.150267051,-498544.828625505,-498544.393318904,-498544.257009831,-498544.379175288,-498544.142498828,-498544.128450428,-498544.103674284,-498544.597279601,-498544.598245734,-498544.252515181,-498544.518395398,-498544.713956509,-498544.1340291,-498544.279390959,-498544.110289474,-498544.753024178,-498544.664963622,-498544.197712907,-498544.528638376,-498544.415120305,-498544.679187468,-498544.198054166,-498544.826324941,-498544.113827229,-498544.323585641,-498544.735451958,-498544.426008396,-498544.291698334,-498544.68614917,-498544.78176148,-498544.176385623,-498544.639657955,-498544.105525503,-498544.220277389,-498544.147811252,-498544.232315068,-498544.316362848,-498544.627165382,-498544.331129199,-498544.285007723,-498544.765893302,-498544.331042118,-498544.157222367,-498544.388883482,-498544.465019288,-498544.475443418,-498544.674825312,-498544.597018247,-498544.217648633,-498544.240389731,-498544.353479946,-498544.250646051,-498544.342635735,-498544.446501363,-498544.30519416,-498544.725273625,-498544.40110854,-498544.237884889,-498544.150291934,-498544.241161447,-498544.536556609,-498544.646090527,-498544.745245008,-498544.650598831,-498544.170831845,-498544.71285202,-498544.703133294,-498544.747866288,-498544.226281994,-498544.712088983,-498544.20389793,497964.860496285,497674.118065392,497964.654663871,497964.509655232,497964.550149174,497964.857462725,497964.460853066,497964.510074293,497384.275549965,497964.837667879,497674.155658952,497964.824244824,497384.417345039,497964.47001299,497674.058909528,497384.566082258,497964.499858095,497964.243799006,497964.736344608,497964.327675706,497384.784626519,497964.421421077,497964.808326773,497674.236197987,497964.778491749,497674.398851991,497964.652258699,497964.680242887,497964.406714967,497674.212338976,497384.196733163,497964.527558271,497964.653322585,497384.414666074,497964.677315105,497964.608934469,497964.89399173,497384.160532404,497384.261345664,497384.273364939,497674.115684306,497964.403919864,497964.6908471,497964.81246201,497964.285430351,497384.385765938,497964.693511242,497964.770679515,497964.747904539,497964.577167011,497964.688299947,497964.160213752,497384.154062398,497384.8163366,497384.504921106,497964.597957443,497384.347076231,497964.403114985,497964.629458007,497964.875358574,497384.328896214,497384.643714656,497964.262241561,497964.822462427,497674.608393769,497674.526395206,497674.15557134,497964.1615612,497384.655802363,497384.48731267,497964.605575099,497384.427827832,497964.845557819,497964.586671857,497964.196640501,497964.574778936,497964.628868501,497674.719926153,497964.283883004,497384.481227952,497383.989781817,498254.993666469,498255.260425633,498254.941635241,498254.810359447,498254.660384453,498254.710980821,498254.913883223,498255.237832252,498254.668032657,498254.599343186,498254.86355174,498254.678351729,498254.533264422,498255.056556009,498254.723100021,498254.514353298,498255.196471958,498254.420510102,498254.696889296,498254.463826507,498254.904625036,498254.6683621,498254.814076817,498255.299679196,498254.597957063,498254.426743218,498254.930667873,498255.02756114,498255.293419501,498255.297176226,498254.600194276,498254.491906975,498254.701715003,498254.470165161,498254.912299837,498254.960359115,498254.862486365,498254.598570734,498254.906710205,498254.792115274,498254.741801296,498254.465608993,498254.825427507,498254.509627286,498255.067903404,498255.110546194,498254.898761152,498254.855995892,498255.015420524,498254.646893393,498255.190276588,498255.06011694,498255.128873753,498254.639059247,498254.459711126,498254.913979364,498254.819023811,498254.97004333,498254.585077379,498254.39031623,498255.324400233,498254.998409367,498255.056500036,498254.482943716,498255.111236195,498254.96031976,498254.781311721,498254.435774256,498254.732931167,498255.090828191,498254.979954218,498254.754576219,498254.625887182,498254.493449017,498254.834112496,498254.811691038,498254.739021878,498254.677124525,498254.388450786,498254.815498154,498254.871235051,-497094.61579179,-497094.985735444,-497094.783349952,-497095.106976422,-497094.934386434,-497094.895430549,-497094.627808014,-497095.203422025,-496804.559572633,-497095.072540756,-497094.798020735,-497095.200382705,-496804.620639421,-497095.006748729,-496804.630901177,-496804.932784149,-497094.871392269,-497095.076072678,-497094.890292415,-497094.668641586,-496804.6183185,-497095.090811335,-497094.549871437,-497094.807524594,-497094.994175691,-497094.779646302,-497094.794451324,-497094.669517019,-497094.826443682,-497095.038918574,-496804.72340611,-497094.632283517,-497094.488884545,-496804.591646226,-496804.999392428,-497094.816282304,-497094.960577126,-496805.077936313,-496804.622233822,-496805.028106142,-497094.86789509,-497095.161230834,-497384.131556488,-497094.853058168,-497095.022452162,-496804.712897527,-496804.637474894,-497094.560817078,-496804.418987824,-497094.923381263,-497095.190012968,-497094.523817621,-496804.487700959,-496804.660304421,-496804.537485647,-497094.738856515,-496804.777757113,-497095.189701418,-497094.587264501,-497094.629203902,-496804.442872331,-496805.039596391,-496804.774599449,-497094.867100783,-496804.558457087,-497094.640200988,-496514.4785594,-497095.187141255,-496805.011819033,-496804.996094933,-497094.579241457,-496804.742190688,-497094.795731962,-497094.943491669,-496804.937779893,-497094.80353439,-496804.85249208,-497094.910689329,-497094.998948492,-496804.490600605,-496805.285928975,497964.664660279,497674.55037486,497964.255819815,497964.309976628,497964.566135372,497964.308870341,497964.462872774,497964.844133945,497674.030282814,497964.252927708,497674.213773392,497964.275052049,497384.737503894,497964.313060713,497674.288921067,497384.553315757,497964.390042657,497964.736264108,497964.516043351,497964.499375973,497674.236144797,497964.742454853,497964.791717343,497674.379921584,497964.583042909,497674.256563441,497964.32010228,497964.380629706,497964.292360314,497674.175127329,497384.124053739,497964.707541599,497964.194789003,497384.750365089,497964.291537255,497964.374277769,497964.424378601,497384.319373071,497384.239287359,497384.547379152,497674.447984981,497964.23977762,497964.565747174,497964.889459514,497964.564392546,497384.346637081,497964.702626916,497964.275088147,497964.793276062,497964.879012625,497964.212263128,497964.624099382,497674.225427842,497384.37390324,497384.371608037,497964.82049995,497384.795995128,497964.599959622,497964.625228244,497964.294221031,497384.851872539,497673.868892169,497964.710655865,497964.370437719,497674.096333023,497674.404526318,497384.203955234,497964.885433329,497384.145215645,497384.212568618,497964.323009438,497384.159171727,497964.620668937,497964.831768676,497964.775452382,497964.527482546,497964.335589914,497674.62631922,497964.888056696,497384.324907969,497384.77910299,498254.633689127,498254.915440929,498254.741434973,498254.72577233,498254.863231688,498255.279567908,498255.113783,498254.967432047,498254.799124589,498254.871179879,498255.152506264,498255.057422158,498255.30834366,498255.023593898,498254.969767807,498254.857209039,498254.78398445,498255.225568352,498255.313720379,498254.731356842,498255.145280872,498254.68335745,498255.134192391,498255.144678182,498254.606576349,498254.59210544,498255.252379584,498254.96172819,498255.207402823,498255.073585031,498254.619307816,498255.03999021,498254.853805223,498254.995844132,498255.271841214,498255.083564418,498254.987688647,498254.663133144,498255.147214514,498255.057071588,498254.883242325,498254.936469037,498255.139161148,498255.134458831,498254.928383219,498254.89481966,498255.070205322,498254.826642533,498254.824152329,498254.688741262,498255.309485509,498254.593451757,498254.592804072,498254.647208928,498255.239063357,498255.278418962,498255.109335823,498254.924844075,498254.707870975,498254.859801243,498254.615863318,498254.740729805,498255.088116508,498255.053626843,498254.840547058,498254.701191048,498254.79229193,498254.901174522,498255.079839968,498255.214290674,498255.197607676,498254.7095263,498254.667028833,498254.845323785,498255.176201801,498254.797486829,498254.872283587,498255.327820845,498254.804969958,498255.039843974,498254.784426603,498255.194412046,498254.906250855,498255.287336556,498255.272186806,498254.794531053,498255.215861133,498254.975271289,498255.26486806,498255.501509537,498255.48231588,498254.831519567,498255.463349454,498255.056088266,498255.209883265,498254.911187515,498255.356439814,498254.854209299,498255.062586768,498254.995867165,498254.871202725,498254.937705794,498255.25488985,498255.11794894,498254.99922087,498255.368634204,498255.434510209,498255.255567571,498254.979094412,498255.210251523,498255.17481037,498255.289602263,498254.888549111,498255.176114286,498254.778488835,498255.109538557,498254.783153944,498255.488867237,498255.469527322,498254.994690999,498255.1734172,498255.505107925,498255.324393747,498255.266417716,498255.420062079,498255.314763104,498254.934264131,498255.299027852,498255.323527805,498255.213689281,498255.1291343,498254.966749282,498255.213909071,498255.497190078,498255.117316244,498254.860956603,498255.44760948,498255.2963892,498255.056790681,498255.411639887,498254.868108129,498255.468380846,498255.504264162,498254.823291532,498255.095374162,497964.501595851,498255.45105774,498255.055910163,498255.046274426,498254.869019702,498254.896708565,498255.375659861,498254.892769262,498254.836570763,498255.33053725,498254.874182084,498255.121399331,498255.496559418,498255.205974145,498255.19254505,498255.203045068,498254.55188752,498255.260127051,498255.093492415,498254.669792217,498254.796736082,498254.664368186,498254.719446318,498254.647473037,498255.245619516,498254.774016362,498254.814852029,498255.020751551,498254.646562429,498254.715257865,498255.033123639,498254.589518757,498255.08977721,498254.759718549,498255.047348463,498255.191792649,498255.206441252,498254.841428421,498254.827183098,498254.90565571,498255.081561723,498254.662655015,498254.966013302,498254.755327823,498254.831809154,498255.067644556,498255.279137347,498254.679090049,498255.192332915,498254.797269814,498255.292038062,498254.61692879,498254.819446742,498255.301586599,498254.707313074,498254.70569542,498255.140286416,498254.817112121,498254.948742194,498255.027090625,498255.229943821,498254.763583305,498254.654881827,498255.269400184,498254.706088605,498254.693338321,498255.179709406,498255.145515864,498255.306712967,498254.932839686,498255.1446911,498255.210816216,498254.805618947,498254.7765117,498254.916317779,498254.722756061,498255.026442169,498255.07620578,498255.143751167,498254.766649955,498255.0389663,498254.724436975,498255.156505921,498255.1773799,498254.751307087,498255.004869844,498255.0981593,498255.116277896,498254.641080469,498254.930328037,498254.640181228,498254.978004126,498255.220773511,498254.604767467,498255.003799174,498254.906653413,498254.596448183,498254.120227419,-497674.501409883,-497674.412178268,-497673.92330166,-497674.417027618,-497674.438859729,-497674.507155871,-497674.158658097,-497674.469427255,-496804.572703263,-497674.507714059,-497674.16538028,-497673.826679797,-497384.290826646,-497673.963156175,-496804.710652152,-496804.941333157,-497673.823112485,-497674.045142255,-497674.204159426,-497674.333734884,-496804.6053323,-497674.110018049,-497384.374900877,-497674.487217591,-497674.046213706,-497674.174264171,-497674.041990643,-497674.383962127,-497383.980037193,-497674.34979762,-496804.61130058,-497674.540984735,-497384.583184309,-496805.121683631,-497384.055200619,-497384.292886848,-497674.260609291,-496804.806755573,-496805.099452787,-496804.599087699,-497384.512778286,-497674.469238854,-497673.945764094,-497674.084099837,-497674.40831502,-496805.055576934,-496804.461025604,-497384.50606659,-497383.99352401,-497674.100642823,-497384.68152404,-497384.060462564,-496804.412524362,-496804.593154134,-496804.466080793,-497674.202628645,-496804.580133584,-497673.98673317,-497384.34089381,-497674.075832369,-496804.849178335,-496804.898121365,-497384.618313046,-497674.200778448,-496804.85320288,-497674.175044646,-497094.616214635,-497674.133725324,-496804.450811748,-496804.387845202,-497673.919184382,-496804.712558603,-497384.22795795,-497673.989084833,-497384.689291872,-497674.113966252,-497384.134333853,-497673.943194764,-497673.890139382,-496804.686838463,-496804.990786868,-498544.528881716,-498544.643983492,-498544.55466586,-498544.661231244,-498544.231607095,-498544.795938955,-498544.498665671,-498544.750305125,-498544.527843465,-498544.221388759,-498544.368578408,-498544.146630843,-498544.54554641,-498544.584023942,-498544.123292416,-498544.104471181,-498544.579100223,-498544.637787829,-498544.327972661,-498544.624515251,-498544.588638562,-498544.563890337,-498544.114314303,-498544.276160728,-498544.477600933,-498544.666619191,-498544.684777811,-498544.324043631,-498544.613452823,-498544.321840166,-498544.158864813,-498544.191296075,-498544.162690842,-498544.812695274,-498544.125688087,-498544.798941632,-498544.282971863,-498544.657127258,-498544.426987254,-498544.496685744,-498544.571902058,-498544.501000253,-498544.467772041,-498544.711260202,-498544.668186027,-498544.371319229,-498544.641148507,-498544.522640944,-498544.785324133,-498544.387662834,-498544.513970596,-498544.422986989,-498544.679746775,-498544.607126971,-498544.626193164,-498544.799105956,-498544.624371476,-498544.373207419,-498544.278332599,-498544.399102481,-498544.205863431,-498544.269324327,-498544.231554589,-498544.300705586,-498544.157226233,-498544.27198462,-498544.818054578,-498544.566965713,-498544.553038142,-498544.158465361,-498544.655613896,-498544.756087542,-498544.305502862,-498544.665401493,-498544.147315479,-498544.182340596,-498544.190820583,-498544.237168678,-498544.442089278,-498544.200983991,-498544.66673201,498255.345950418,498255.229955497,498255.282297295,498254.960805425,498255.032797171,498255.257125694,498255.213111123,498255.321585174,498255.442092864,498255.333517129,498254.858910551,498255.129292625,498255.480202512,498255.217264972,498255.205509553,498255.238641621,498255.341020829,498254.954053316,498255.111885877,498255.215410343,498255.433904491,498254.799072193,498254.881228513,498255.036626056,498255.010791941,498255.390603158,498255.493742003,498255.048275793,498255.064234717,498254.899801912,498255.120884486,498254.837556854,498255.430738677,498255.229157774,498254.819650717,498254.872184743,498254.857612682,498255.109953555,498255.181441163,498254.842354253,498255.079711156,498255.222325969,498255.11574585,498254.879482077,498254.85694012,498255.225496689,498255.325171482,498255.228210391,498255.018639534,498254.95048235,498254.839623154,498255.180242573,498254.817489411,498254.955070232,498254.817387105,498255.31555322,498255.117401978,498255.014346233,498255.458100769,498255.150281297,498255.271470975,498254.933510325,498255.026025452,498255.310965947,498254.981307637,498254.790028692,498255.206641233,498255.019719733,498255.166289249,498255.101999805,498255.149703933,498254.999742269,498255.280699438,498255.038206619,498254.904374182,498254.980253516,498255.191413627,498254.770421431,498254.948360931,498255.293382536,498255.457145918,497964.424413846,497674.01428536,497964.272634601,497674.044827858,497964.838936438,497674.004716543,497964.634550679,497964.570652903,497383.991721975,497964.653077289,497674.56732784,497964.550147311,497384.154852053,497964.469177802,497094.744396891,497094.794496577,497964.703074427,497964.796468964,497964.225793662,497964.17773769,497094.903647809,497964.220803377,497674.640701119
   497674.524839808,497964.73817541,497674.623604526,497964.677577317,497964.209578284,497964.735428113,497674.108788693,497094.945176607,497964.224867536,497674.149367333,497094.914370686,497964.396146603,497964.294081305,497964.302480325,497095.080308255,497094.870186789,497094.599482315,497674.686359184,497964.737568594,497964.312986702,497964.73742428,497964.696644724,497095.177410548,497674.562137678,497674.683297447,497964.887792881,497964.174160239,497674.602607831,497964.262454231,497383.860986697,497095.104048146,497095.097588278,497964.362492704,497094.711192591,497964.471856184,497674.204946973,497964.199981012,497094.838980709,497095.023168455,497964.733519314,497674.104019295,497094.745410568,497674.501342538,497384.350239031,497964.613279764,497094.671227259,497094.609197821,497964.21158466,497094.660276058,497964.524478235,497964.224507407,497964.215439896,497964.625059913,497964.806111199,497674.062159074,497964.161310453,497094.598274747,497093.989647123,-498544.274655551,-498544.772916884,-498544.272846703,-498544.588521425,-498544.590706027,-498544.141491494,-498544.435836141,-498544.277919879,-498544.800460678,-498544.811912037,-498544.264078146,-498544.572300254,-498544.603222625,-498544.334200681,-498544.557376889,-498544.830065297,-498544.799380304,-498544.40278704,-498544.813045525,-498544.481446933,-498544.807647529,-498544.20849743,-498544.116205691,-498544.132126708,-498544.278235844,-498544.356726291,-498544.78696524,-498544.384820153,-498544.800900038,-498544.538320782,-498544.798628019,-498544.523568846,-498544.613895392,-498544.211694357,-498544.413376664,-498544.470339875,-498544.820745372,-498544.220925245,-498544.190896329,-498544.270631933,-498544.26643388,-498544.196499456,-498544.794737277,-498544.105903067,-498544.612036292,-498544.294436612,-498544.699410528,-498544.528991011,-498544.314882314,-498544.371986178,-498544.221619885,-498544.448519852,-498544.113343121,-498544.447291245,-498544.702490777,-498544.160860408,-498544.75141348,-498544.235422282,-498544.404987868,-498544.328682024,-498544.188640832,-498544.145718275,-498544.311134417,-498544.356842183,-498544.107986305,-498544.574623878,-498544.79251944,-498544.486230555,-498544.754938594,-498544.181739301,-498544.104022213,-498544.673157347,-498544.306592998,-498544.637115879,-498544.30971534,-498544.70585036,-498544.24787473,-498544.105004912,-498544.354204993,-498544.817913809,-498545.257345171,498255.070113055,498255.258149446,498254.899173424,498255.011386387,498254.977979117,498254.91786156,498255.161483137,498255.079471414,498255.075571028,498254.8697486,498254.742764195,498254.772737618,498254.72646069,498255.246096184,498255.20737168,498254.703309956,498254.890192191,498254.590758233,498255.29067487,498255.086757822,498255.114907311,498254.814622578,498255.194944272,498255.060123319,498255.040212457,498255.186160431,498255.112447753,498255.19051138,498254.592034578,498254.675689316,498254.681678716,498254.707457706,498255.001600936,498254.75142331,498254.752710679,498254.607596846,498254.801156724,498254.643235996,498254.925499145,498255.258391419,498254.79687428,498255.185174887,498254.920367234,498254.959976665,498255.164678159,498255.304981892,498254.978410878,498254.867664793,498255.233789837,498254.60230425,498254.873397646,498255.315701422,498255.105996993,498254.846205226,498255.144539206,498254.844165472,498254.651880168,498255.16713739,498255.299261215,498255.119905971,498255.133501092,498255.299059042,498255.076111831,498254.988556707,498254.776744879,498254.623981484,498255.099223967,498255.303124665,498255.082060499,498255.188449829,498255.230240516,498254.835631189,498254.993346373,498254.620958446,498254.878558537,498255.257819709,498255.222342629,498254.823642601,498255.223532445,498255.06331785,498254.534631181,498255.163457954,498255.614808828,498255.647817613,498255.460378955,498255.024064579,498255.259547998,498255.074070705,498255.264971389,498255.566632492,498255.613803962,498255.292106619,498255.002062065,498255.463680459,498255.043565322,498255.155902522,498255.02773805,498255.589897812,498255.101906781,498255.45937167,498255.124432919,498255.333373498,498255.443691579,498254.964015002,498255.030151018,498254.956441451,498255.241030044,498255.403713541,498255.625733973,498255.544806782,498255.279910128,498255.486324851,498255.60169223,498255.15461836,498255.242156418,498255.218718132,498254.932925209,498255.416381503,498255.516265036,498255.001355295,498255.352520771,498255.273828257,498255.286828271,498255.503515292,498255.562733152,498255.186808892,498255.082244118,498255.517753199,498255.565480409,498254.971331009,498255.478756653,498255.620532102,498254.970410815,498255.01283577,498255.187559925,498255.451138334,498255.37785366,498255.56946882,498255.536341589,498255.422612498,498255.44112182,498255.513921741,498255.106424016,498255.378251891,498255.205397359,498255.046154105,498255.348501674,498255.50553099,498255.140199035,498255.482934474,498255.141652308,498255.269443832,498254.99230777,498255.019226481,498255.025525893,498255.508691947,498254.965220222,498255.598263572,498255.059369136,498255.50142941,498255.532284618,498254.59476181,498255.346320417,498255.423077959,498254.834725123,498255.167465311,498255.284589031,498255.357531455,498255.475145719,498255.299105369,498255.348951756,498254.871543674,498255.388127199,498254.862327532,498255.06832076,498255.346686315,498254.936079236,498255.416663664,498255.066792928,498255.285254041,498255.346394503,498255.084800413,498255.146229158,498254.851220929,498255.337765986,498254.977987816,498255.396899326,498255.459271619,498255.495397161,498255.186955263,498255.254593106,498255.287677373,498255.278774679,498254.803587174,498255.398415166,498254.828432685,498254.786276318,498255.041433342,498255.162201763,498255.396019333,498255.119652359,498255.349057503,498255.388472555,498255.199180951,498255.492070003,498254.888783629,498255.239403917,498255.488067523,498255.308993006,498255.036926863,498255.191287706,498254.906643842,498255.150145639,498255.132202379,498254.773709902,498255.066159199,498254.853809966,498255.263774482,498254.853986967,498255.364824591,498255.278653269,498255.333404697,498255.370221578,498255.056865451,498254.813187258,498254.829949378,498255.100856279,498255.35321502,498254.971999651,498255.00856307,498255.329084991,498255.402733179,498255.023136896,498255.178860879,498254.934276677,498255.505424284,498255.204415142,498255.455135492,498254.867238211,498255.217657352,498255.246671184,498255.416919088,498254.954640974,498255.227145293,498255.503754841,498255.116624258,498254.906206728,498254.915247294,498254.798552266,498255.100930961,498255.482710003,498255.030589121,498254.956121369,498255.305464457,498254.886041058,498255.294334946,498255.48692321,498255.100282099,498255.154668688,498255.430795619,498255.296014634,498255.394276182,498255.284742866,498255.069104931,498255.215929157,498255.296641812,498255.391594231,498255.479372044,498254.966600697,498254.776372902,498255.369831341,498254.906761759,498255.165211265,498255.1444169,498254.886828402,498255.369821466,498255.183126084,498254.91175128,498255.061197895,498255.204650284,498255.431829935,498254.95428398,498255.323337748,498255.379155975,498255.033940351,498255.067170865,498255.215286804,498255.225759724,498255.061494816,498255.148029015,498254.787176069,498254.872808038,498255.069141799,498254.944529877,498255.429730003,498255.360482286,498254.900851217,498255.357935962,498254.779891131,498254.975788024,498255.233117312,498254.934921969,498255.456733882,498254.790854359,498255.239186905,498255.344623239,498255.37346514,498255.319791754,498255.187311049,498255.024306877,498254.879883857,498255.343846924,498254.807759199,498255.458105689,498255.507052969,498255.110405649,498254.839613429,498255.413674176,498254.803839574,498254.917433287,498254.850030002,498254.934509502,498255.186552223,498254.329819931,-498544.105505455,-498544.337091274,-498544.257082327,-498544.613433189,-498544.38001539,-498544.568356171,-498544.365144329,-498544.269512165,-498544.702254428,-498544.748704706,-498544.123169315,-498544.337206611,-498544.59715219,-498544.301631188,-498544.694145507,-498544.405385175,-498544.400996563,-498544.199207236,-498544.795665902,-498544.796926639,-498544.565969419,-498544.651373142,-498544.769065737,-498544.483666177,-498544.657225378,-498544.514790223,-498544.31324572,-498544.607525246,-498544.28001819,-498544.232244443,-498544.708356556,-498544.535506768,-498544.346332542,-498544.704039661,-498544.801132045,-498544.12121368,-498544.095786293,-498544.450005819,-498544.737097005,-498544.681236929,-498544.308040653,-498544.548095837,-498544.390802797,-498544.141027954,-498544.116216855,-498544.592644569,-498544.72934631,-498544.556247242,-498544.329084466,-498544.48826711,-498544.379062009,-498544.64825462,-498544.706728744,-498544.453425287,-498544.544275764,-498544.28824689,-498544.402140114,-498544.607530727,-498544.790322388,-498544.699339744,-498544.349812738,-498544.59173366,-498544.823608552,-498544.564712272,-498544.135050438,-498544.421777124,-498544.824988646,-498544.727227106,-498544.33461372,-498544.667634114,-498544.404301169,-498544.785105321,-498544.296224808,-498544.209131261,-498544.583588273,-498544.112575869,-498544.355272632,-498544.722740071,-498544.462151609,-498544.159283096,-498544.457558924,498254.615676517,498254.833646505,498254.580923915,498254.519492561,498255.051985349,498254.543896971,498254.47976774,498254.952323388,498254.599202129,498254.653601429,498254.884419428,498254.712991563,498255.074330023,498254.780663094,498254.656368002,498254.64818771,498254.54658447,498255.106109769,498254.678235263,498254.605019072,498255.109968081,498254.890453763,498254.711224642,498255.028121344,498254.778718306,498254.760057473,498254.614489801,498254.50283798,498254.680387389,498254.439700737,498254.693274951,498254.966708167,498254.481047993,498255.032306031,498254.613975312,498254.893496691,498254.914344389,498254.495259733,498254.392428779,498254.613790471,498255.01412047,498254.639326363,498254.645648717,498254.997641313,498255.030156259,498254.820779973,498254.948322026,498254.589670212,498255.078920582,498254.818700988,498254.677607464,498254.490027017,498254.439077694,498254.815162399,498254.589350286,498254.837310039,498254.495096857,498254.664889855,498254.85286154,498254.664602871,498255.041494455,498255.089017045,498254.644610993,498254.532176386,498255.072413762,498255.029798546,498254.604618565,498254.414698986,498254.539362777,498254.874958595,498254.845930605,498254.423999732,498255.086355984,498254.437119787,498254.702985886,498254.843316712,498254.61748004,498254.825670614,498255.11005237,498255.070025618,498254.062374878,498254.793494583,498254.932004683,498255.369773686,498255.270180558,498254.971922929,498255.296305468,498255.173972879,498255.21163074,498255.284752557,498255.167074828,498255.018129529,498255.150485478,498255.235913193,498255.0803833,498255.43319071,498255.502802655,498254.882147325,498255.433314836,498254.769032708,498254.984836403,498255.302298034,498254.81898243,498254.972636982,498255.480857668,498255.022282726,498254.911758317,498254.770632901,498254.880851507,498255.254120858,498254.988504994,498255.177513529,498255.06292477,498255.290923207,498255.248867424,498255.412674867,498255.321687357,498255.178924592,498255.166083113,498255.265165828,498254.898168073,498255.33473297,498255.107155531,498255.158697504,498254.872558761,498254.992476071,498255.177601539,498255.015117786,498255.260823772,498255.173882461,498255.244601342,498254.900007709,498255.296443062,498255.505694656,498255.24986421,498254.786199692,498255.482599438,498255.467454986,498255.397003303,498255.016572827,498254.828839607,498255.294347561,498255.061796367,498255.465597167,498255.064922558,498255.497648585,498255.463292043,498255.367649556,498255.495133053,498255.175795718,498254.880178348,498255.092553058,498255.224151497,498254.936824003,498255.37895192,498255.158190717,498254.963817498,498255.16837221,498254.868753215,498255.257056591,498255.352768472,498255.131558179,-498544.584893158,-498254.740693659,-498255.177555479,-498255.09857771,-498254.566592239,-498254.890432591,-498255.146015998,-498254.724407263,-498254.517587276,-498544.240469916,-498544.312780998,-498255.037564708,-498254.750748774,-498254.843842193,-498544.561177974,-498254.806104341,-498255.093300049,-498255.072752528,-498254.918478677,-498544.284750304,-498544.574717554,-498255.102046941,-498544.540410463,-498255.03502671,-498254.771806493,-498254.827455935,-498255.060332258,-498544.742441084,-498544.272320093,-498254.872847766,-498254.588373224,-498255.047128283,-498254.78385835,-498255.023550914,-498544.55766343,-498254.600922668,-498254.499672338,-498254.979324716,-498255.078584161,-498254.78910035,-498254.62915943,-498254.923284668,-498254.710029699,-498254.929804013,-498254.64511822,-498254.881108778,-498544.3628795,-498254.920030871,-498544.717535458,-498254.633490855,-498254.881152725,-498544.108946533,-498254.967289716,-498255.152345791,-498254.810419196,-498255.022881629,-498255.034397773,-498254.590191474,-498254.774433922,-498254.926211298,-498255.017175327,-498544.145316783,-498254.546789457,-498254.831814505,-498544.099759396,-498254.805688128,-498254.701369063,-498254.914272854,-498255.12029334,-498254.760878428,-498254.754094708,-498254.561638038,-498255.181243362,-498254.577041031,-498254.456213996,-498254.452056008,-498544.486719529,-498255.150641863,-498254.837571194,-498255.077772709,-498254.654381642,497674.583760003,497674.699155764,497673.992859446,497673.99295406,497674.597595117,497674.644222824,497674.353136541,497674.510929673,497673.740506881,497674.418124206,497674.075168237,497674.519170597,497384.710731615,497674.212724078,497384.732222248,497384.486609267,497674.106433906,497674.246977192,497674.145219008,497674.544321675,497673.985082038,497674.184911569,497674.414443943,497674.105252953,497674.404546703,497674.703985512,497674.333812706,497674.027929596,497674.365698203,497674.540859709,497384.239936278,497674.232028821,497674.287987888,497384.496171902,497674.294850155,497674.698352521,497674.616724293,497384.470647718,497384.245101352,497384.584917621,497384.240910679,497674.470582958,497964.852818399,497674.716782852,497674.327110252,497384.214607648,497674.142853596,497674.366608087,497674.106980039,497674.356751007,497674.210259343,497674.498166431,497673.817182994,497384.412734188,497384.553055523,497674.383497535,497384.408404009,497674.611667883,497674.312468748,497674.617670996,497673.938659219,497384.448899133,497674.129880571,497674.280108563,497384.440923203,497674.567200806,497384.354874896,497674.199208814,497384.7809784,497384.757931118,497674.454903278,497384.637933753,497674.125568028,497674.423405864,497674.427103184,497674.43656047,497674.230387695,497674.421722481,497674.502204092,497384.452674329,497384.639872442,498255.079291903,497964.639244081,498254.38162219,497964.3094826,497964.321021284,497964.037328062,498254.386971781,497964.661410903,497964.629647145,498254.801666594,498254.377731404,497963.998018118,497964.206681794,497964.12969755,497964.51030607,497964.319584622,498254.771151696,497964.393784971,497964.47820397,498254.971820037,497964.661939306,497964.442967298,498254.600179293,497964.620142254,497964.429663201,497964.351480638,498254.862264414,498254.958675202,498255.089539251,497964.131992074,497964.565932965,497964.088346025,497964.71713203,497964.050772213,498254.715880494,497964.383139624,498254.508959269,497964.683153621,497964.69338649,497964.502988113,497964.195768157,497964.250325569,497963.985403536,498254.577922326,498254.837872762,497964.473987916,498255.025206652,497964.266823682,498255.023117532,497964.090091216,497964.565556417,498254.394845639,497963.99711549,497964.448131624,497964.596369369,498254.61520684,497964.411739782,497964.0859817,497964.598113924,498255.081627931,497964.287150932,497964.146591103,498255.077751697,497964.476537306,498254.954028153,497964.613887143,497963.999180612,497964.134791815,497964.525904341,497964.106048681,497964.183300347,497964.412499839,498254.812485766,497964.693510382,497964.361141354,497964.390495971,498254.830238757,497964.001139202,497964.154944486,497964.673969809,497964.361733777,-497384.507844216,-497384.034522227,-497384.103836913,-497384.403644241,-497384.144612101,-497384.618261653,-497384.440491781,-497384.515677053,-497095.113202406,-497383.998680056,-497384.680307379,-497384.62445249,-497384.703940868,-497384.493655007,-497095.164699007,-497094.908097138,-497384.461213667,-497384.346185725,-497384.139887039,-497384.234684883,-497094.717253983,-497384.229160556,-497384.186216097,-497384.063289029,-497384.556435609,-497384.387720024,-497384.666474789,-497384.622501918,-497384.50361879,-497384.185111815,-497094.80327548,-497384.039042683,-497384.045935783,-497094.96440216,-497384.602871461,-497384.477340989,-497384.610070759,-497095.022068936,-497095.197402987,-497094.670101686,-497384.218781926,-497384.007985451,-497384.263143735,-497384.553725583,-497384.534258884,-497094.865298153,-497094.779616608,-497384.21070122,-497384.376410121,-497384.603657373,-497384.500206946,-497384.311129392,-497094.868006667,-497094.993595789,-497094.511606812,-497384.248763557,-497095.062182191,-497384.010627782,-497384.556700819,-497384.466384265,-497095.165662924,-497095.031865924,-497383.982138161,-497384.393786616,-497094.913664508,-497384.611344593,-497095.052980477,-497384.214002479,-497095.104659606,-497094.657437915,-497384.503134693,-497095.157404664,-497384.362658798,-497384.683661413,-497383.985982855,-497384.174964557,-497384.675509009,-497384.341982701,-497384.238522333,-497094.669985099,-497095.034330279,497964.592520956,497964.802202728,497964.408920818,497964.623977366,498254.780912779,497964.633462345,497964.752158368,498255.055291937,497964.694186621,497964.389339564,497674.259618413,497964.34789799,497964.821659674,497964.804443472,497964.61758236,497965.022447234,497964.439525115,497964.903849578,497964.385967944,497964.496564559,497964.987064267,498255.158249508,497964.824938446,498255.407564605,497964.46169608,497964.36041164,498255.088713613,497964.545065463,497964.476623852,497964.735627686,497964.832478907,497964.536776785,497964.657194932,497964.664477446,497964.81286894,497964.736984168,497964.936197678,497964.309492675,497964.596856002,498255.281654768,497964.765913974,497964.517755002,497964.772206592,497964.78486305,497964.375270416,497964.326337875,497964.882350474,497964.578564061,497964.723691442,497964.869257155,497964.951634823,497964.820836667,497964.70276638,497964.665090871,497964.997037493,497964.942358732,497965.025558806,497964.509443498,497964.471163521,497965.009002903,498254.773216487,497964.51597514,498254.887550319,497965.006853459,497964.605155181,497964.960369287,497964.738997582,497964.466064463,497965.039869057,497964.928892716,497964.395131791,497964.438914675,498255.075668571,497964.61240046,497964.778945109,497964.7781915,497964.97454468,498254.80875039,497964.881383663,497964.444240439,497964.823319948,498254.819031786,498255.329461305,498255.115453981,498255.292080148,498254.780317235,498255.342097689,498255.500191346,498255.175527237,498255.378597492,498255.219512646,498255.195429175,498255.346416439,498255.095940383,498255.277113276,498255.018613828,498254.858672437,498255.273440418,498254.948382864,498254.922988414,498255.095427577,498255.184961006,498255.046782289,498255.30288601,498255.242800359,498255.281395143,498254.973635852,498254.859040915,498255.394233046,498254.987520988,498255.475901336,498255.445276171,498255.136147119,498254.795598076,498255.251322207,498255.462271985,498255.15439388,498255.280183622,498254.943241066,498255.053305701,498254.846739352,498255.206686281,498255.258417271,498254.88973932,498254.937847825,498255.167582661,498255.060378281,498255.487815473,498255.303167229,498254.988799036,498255.147986817,498254.929572018,498255.368454811,498255.186863004,498255.316692907,498255.309274729,498255.280336782,498254.79525029,498255.380740907,498254.77936,498255.314768668,498255.251731769,498254.874633294,498254.956681244,498255.410783441,498255.282323759,498254.82795705,498255.319493358,498255.35270546,498255.322928575,498255.372307233,498255.0865761,498255.098874346,498255.403164448,498254.844924057,498255.39682858,498255.43463102,498254.925717964,498255.133713179,498254.843892692,498254.989691857,498254.464209617,497964.604168211,497674.525083111,497964.887828695,497964.855211553,497964.385703595,497674.808345506,497964.527199694,497964.990342003,497674.301584304,497964.668025824,497674.758504106,497964.472763301,497674.597598424,497964.643302107,497674.451702088,497674.421385128,497964.527250403,497964.703818591,497964.648507846,497964.789179448,497674.254759113,497965.028533178,497674.475553193,497674.181059818,497964.878992196,497674.824351754,497964.650821181,497964.968158851,497964.922938234,497674.474267919,497674.520598502,497964.845730449,497674.648729534,497674.440510105,497964.496653033,497964.748818813,497964.657354313,497674.215428229,497674.556476505,497674.229647041,497674.452150004,497964.950865222,497964.681200611,497964.553370884,497964.727340625,497674.285967385,497964.465422364,497674.60089058,497964.604982833,497964.673102233,497964.986969325,497965.018396353,497674.594653477,497674.59978104,497674.209771757,497964.623929557,497674.169179019,497964.826417978,497674.835280747,497964.420413232,497674.466406559,497674.418102233,497964.376286003,497964.87561091,497965.006488713,497674.221655891,497674.493862025,497964.465970554,497674.266298175,497674.751177799,497965.001558473,497674.242238141,497965.006403476,497964.538509905,497964.456678544,497964.541421549,497964.656214801,497674.231064544,497964.691246852,497674.523440779,497673.830702149,498255.368784752,498255.131851013,498255.018510995,498255.184619012,498255.199522567,498254.830518833,498254.817623489,498254.999413342,498255.380810761,498255.159081655,498255.33902362,498254.888234766,498255.093971402,498255.271327766,498254.802722766,498255.343254213,498255.313676986,498255.054969455,498255.085126595,498255.300192645,498255.507539096,498255.1032674,498255.172659185,498255.179631045,498255.324173045,498254.780667871,498255.0140517,498255.101010624,498255.365670626,498255.47580204,498255.446201759,498254.903846121,498255.080514963,498255.071455759,498255.254734985,498255.443364399,498255.325655053,498254.919459653,498255.035433901,498254.808837946,498255.093939425,498255.434437256,498255.042600593,498255.009797032,498254.891002608,498254.771704263,498255.140899829,498255.235062184,498254.882423533,498255.166047381,498255.31041786,498255.333208268,498254.834588012,498255.380361312,498255.317385707,498255.034192347,498255.467279113,498255.346967235,498255.368533252,498255.187529691,498255.324554418,498255.224700149,498255.14183,498255.413096005,498255.220967181,498255.203852493,498255.315807088,498254.791190638,498254.785267776,498254.867445652,498254.786274155,498255.162892328,498254.788210549,498255.044963643,498254.974928215,498254.841776834,498254.829341801,498254.931537147,498255.057303431,498255.321143776,498255.125587751,497674.638050907,497674.338236192,497964.50850548,497674.285033281,497964.421875726,497674.18890721,497964.748448175,497964.802364576,497674.340191738,497965.02437981,497674.837749208,497964.599220925,497674.706965601,497964.532578053,497674.728300666,497674.412256357,497964.677799112,497964.837124376,497964.735444639,497674.314958566,497674.469358292,497964.758676642,497674.134626982,497674.499422327,497964.456407766,497674.66464682,497964.837918893,497964.714315332,497964.784491108,497674.324499647,497674.655391067,497964.598546038,497674.167038576,497674.159323464,497964.346359852,497964.546320298,497964.482413995,497674.598685931,497674.458947795,497674.48556849,497674.227215254,497964.577327826,497964.844344668,497964.431567605,497964.347793577,497674.223527744,497964.480513578,497674.172241931,497674.456663045,497964.828789107,497674.55081132,497964.682914535,497674.721127423,497674.476808417,497674.149120242,497964.377489633,497674.323258311,497964.868144543,497674.13750775,497964.616290297,497674.399282841,497674.153781943,497964.326755703,497674.135341192,497674.29940471,497674.548085405,497674.362598316,497964.856524371,497674.305867302,497674.490862603,497964.42795773,497674.748941438,497964.497825682,497964.369525249,497964.396625547,497964.390145834,497964.962626499,497674.751353901,497964.649744118,497674.163295989,497674.138597475,497674.461092929,497674.053068254,497964.853996525,497674.497749718,497964.3205919,497674.412246872,497964.588524684,497964.169085457,497384.831974697,497964.192711087,497674.338330842,497964.620060415,497384.155582819,497964.245167883,497384.197125498,497384.374264311,497964.678652576,497964.841224286,497964.508769563,497674.584990819,497384.487093684,497964.764669153,497674.689861833,497674.385480478,497964.700164406,497674.169737953,497964.699717542,497964.428298238,497964.846502067,497674.138924524,497384.435008888,497964.37728266,497674.698273152,497384.797146165,497964.701484436,497964.864008214,497964.221053703,497384.365695952,497384.141738131,497384.12453072,497674.537368156,497964.696321149,497964.376230217,497964.496266884,497964.663688279,497384.291806344,497964.315935051,497674.698418757,497673.998959103,497964.728986001,497674.118623023,497964.847657273,497384.854079033,497384.306409648,497384.133657066,497964.768951434,497384.226310899,497964.453165148,497674.695879836,497964.874915338,497384.749866941,497384.283918633,497964.220877914,497674.538656186,497384.58561663,497674.119930417,497384.610658607,497964.256731179,497384.406787925,497384.231411808,497964.347282889,497384.401458765,497964.823178342,497964.50793103,497964.206504897,497964.724257107,497964.547321171,497674.352477183,497964.794319857,497384.496860203,497384.131012648,498255.335152936,498255.023780996,498254.886191061,498254.788976495,498255.130628946,498254.996100864,498255.299581586,498255.432164093,498255.440620287,498255.371182262,498255.27597584,498255.038860314,498254.810100125,498254.882751063,498255.161167605,498255.244118229,498255.171428181,498255.383547491,498255.138199723,498255.189235021,498254.827878867,498255.199348914,498255.414677666,498255.150378106,498255.36429463,498254.793153926,498255.150013044,498254.903769792,498254.952677291,498254.990305258,498255.242877914,498255.166932575,498255.106737715,498255.456672062,498254.828371807,498255.413207729,498255.452566899,498255.302380579,498254.868645486,498255.415942731,498255.464147114,498254.94244713,498255.11923773,498255.013299638,498255.189187094,498254.776256252,498255.391545972,498255.003647722,498255.163217337,498254.858606632,498255.493773034,498255.26104287,498255.034587889,498255.460695273,498255.476919449,498254.904479017,498255.117190615,498255.24390024,498254.93276915,498255.106150015,498255.354175105,498255.164486788,498255.248161797,498255.218990023,498254.896979344,498254.877718259,498255.440209884,498254.861515347,498254.823054251,498255.256047161,498255.299638615,498255.377134887,498255.283577,498255.230344276,498255.233175192,498255.393519021,498254.848786179,498255.170053023,498255.469278296,498255.356713373,498254.085334777,498254.735040317,498255.06863974,498254.682745653,498254.824619508,498255.309922328,498254.721019681,498254.974129726,498255.307839898,498255.251980074,498254.884692109,498254.797341654,498254.958286424,498255.090582756,498254.650442621,498254.88833532,498255.022372618,498255.228334991,498254.704995289,498254.90014383,498254.664133652,498255.118705619,498254.769268465,498255.235257461,498254.887055302,498254.705313143,498255.305553155,498255.132330897,498254.816195075,498254.672075422,498254.644367833,498255.275224876,498255.102709228,498254.904143061,498254.78512977,498255.027809782,498255.243934333,498254.974091138,498254.803045509,498254.7351443,498255.304785862,498254.874755153,498254.701762734,498254.719161461,498254.780030046,498254.910971956,498254.827523457,498254.601669238,498254.98857665,498254.753514867,498254.779821398,498254.768538472,498254.873732729,498254.977809461,498255.101254716,498254.939076905,498255.293859136,498255.161469564,498255.123777636,498254.70798136,498254.593044167,498254.916776069,498254.746609645,498255.224439471,498255.196287236,498254.937554517,498255.02271971,498254.642818358,498254.894127981,498254.950720123,498254.972488272,498254.636956475,498255.013964476,498255.297938273,498254.923445252,498255.117465784,498255.00561788,498254.638781999,498255.043902409,498255.30417063,498255.20587697,498254.131303193,-498544.69036033,-498544.771434369,-498544.202448263,-498544.218872926,-498544.43262243,-498544.70921481,-498544.291813942,-498544.248649422,-498544.360751641,-498544.751649808,-498544.244388786,-498544.739050428,-498544.692014444,-498544.446104784,-498544.70596907,-498544.617379024,-498544.571828062,-498544.252226758,-498544.206450041,-498544.649409478,-498544.387161029,-498544.79625805,-498544.313675693,-498544.691249654,-498544.340128292,-498544.518907831,-498544.779750369,-498544.110913355,-498544.161243262,-498544.179037439,-498544.716547423,-498544.275095281,-498544.592597897,-498544.794217032,-498544.649767749,-498544.738860135,-498544.830016416,-498544.102331697,-498544.147314912,-498544.524969628,-498544.582859559,-498544.374714457,-498544.206020095,-498544.532766068,-498544.636146599,-498544.503889244,-498544.266951432,-498544.147941822,-498544.433469295,-498544.633907245,-498544.306881799,-498544.221362691,-498544.746283478,-498544.4016177,-498544.577184208,-498544.728216857,-498544.552460963,-498544.345313185,-498544.712859211,-498544.747829175,-498544.763579018,-498544.275602873,-498544.182108446,-498544.276416489,-498544.129804673,-498544.803408082,-498544.241154818,-498544.731911989,-498544.630451612,-498544.801223512,-498544.621477186,-498544.564198651,-498544.199614133,-498544.51559499,-498544.161252206,-498544.10714886,-498544.684940243,-498544.615024202,-498544.149805343,-498544.670353624,-498544.165759033,498254.876278738,498255.091230934,498255.241338977,498254.896519354,498255.012902553,498255.239863192,498255.317107088,498255.291054461,498254.847124102,498255.321688113,498255.023384054,498255.379202509,498255.369189258,498255.007284385,498255.200830599,498255.315481274,498254.839071389,498255.105125889,498254.935936478,498255.245352858,498255.233635552,498255.251184784,498255.136429211,498255.495657225,498255.025991847,498255.486338727,498255.277398797,498255.267721791,498255.038051936,498255.46481067,498254.831238233,498255.312579442,498255.465581698,498255.106916796,498255.471019099,498255.004630759,498254.948017143,498255.198528724,498255.228757341,498255.067605583,498254.813202661,498255.087910406,498254.893888852,498254.987965232,498255.466015616,498255.167475696,498254.802661175,498254.848585192,498255.009381762,498254.948834433,498254.847452935,498255.390726766,498255.285722745,498255.195170374,498254.791170328,498255.133181239,498255.462889007,498255.253769037,498255.378614791,498255.034651111,498255.470551679,498254.818060292,498255.02167752,498254.890400717,498255.259124874,498255.218891897,498255.421708096,498255.030947457,498255.04435257,498254.964874834,498255.136139126,498255.14862995,498255.384455833,498255.37641818,498255.200825193,498254.914400141,498255.125970926,498254.917138974,498254.798316604,498255.366603436,498255.004174485,-498544.405300972,-498544.575774548,-498544.744897074,-498544.216756842,-498544.65419082,-498544.80725788,-498544.563703253,-498544.518368109,-498544.496276717,-498544.552960536,-498544.400454181,-498544.274788355,-498544.640008348,-498544.497648383,-498544.099559918,-498544.767881691,-498544.830626442,-498544.36586193,-498544.586990858,-498544.348934687,-498544.322988569,-498544.290469665,-498544.78960765,-498544.282006981,-498544.395879302,-498544.827843644,-498544.185397722,-498544.100357106,-498544.2179321,-498544.826904264,-498544.288364544,-498544.378662144,-498544.822103222,-498544.512403722,-498544.561051498,-498544.303657019,-498544.670329556,-498544.5903343,-498544.523588455,-498544.410754372,-498544.4514928,-498544.148176293,-498544.156862572,-498544.179656489,-498544.160898551,-498544.274073555,-498544.412439968,-498544.562837585,-498544.397106748,-498544.754622317,-498544.480306781,-498544.414490955,-498544.312184397,-498544.721366026,-498544.661563033,-498544.209533594,-498544.620281475,-498544.55759238,-498544.654992117,-498544.660461753,-498544.716562445,-498544.558048434,-498544.395138295,-498544.50348703,-498544.359298279,-498544.116494325,-498544.28679971,-498544.222306912,-498544.770711463,-498544.630017476,-498544.192254422,-498544.334994429,-498544.676388052,-498544.270938773,-498544.731556464,-498544.269514563,-498544.22830938,-498544.704653448,-498544.215810716,-498544.216508035,-498544.206171763,497964.536322098,497674.281398743,497964.695572451,497964.551697042,497964.285008645,497964.831816778,497964.797557329,497964.308041545,497674.372543487,497964.47550669,497674.611324215,497964.223540051,497674.121522398,497964.464690308,497964.265437869,497674.231611103,497964.505506693,497964.338524024,497964.853890298,497964.17160839,497674.533928335,497964.366756112,497964.391792962,497674.161693496,497964.752982172,497674.246546198,497964.8570489,497964.169072672,497964.506246055,497674.003424887,497674.069021074,497964.556512861,497964.459810442,497674.573705601,497964.638406793,497964.877611025,497964.800580589,497674.66187413,497674.333338988,497674.02933481,497674.632701163,497964.621530589,497964.573803252,497964.78576717,497964.174067275,497674.419111432,497964.179735462,497964.416249965,497964.894297004,497964.476520246,497964.418062973,497964.848113863,497674.647357188,497674.589529488,497674.49879077,497964.32844822,497674.048488015,497964.518528056,497964.697009394,497964.762523838,497674.698829269,497674.613133758,497964.700090015,497964.528000835,497964.391134717,497964.387926723,497674.487791,497964.446111322,497674.550344906,497674.111888234,497964.503558172,497674.393460819,497964.729246427,497964.809204589,497964.262968617,497964.245513115,497964.691247385,497964.504320317,497964.320741589,497674.144286707,497673.893254039,-497384.268693253,-497384.695304229,-497384.679766379,-497384.21048485,-497384.574939553,-497384.235157359,-497384.274032077,-497384.634577357,-496804.771346823,-497384.054602311,-497384.427439654,-497384.570394318,-496804.620064822,-497384.639574357,-496805.061737991,-496804.420452532,-497384.66368977,-497384.314859735,-497384.183939345,-497384.038759466,-496804.608268965,-497384.278407972,-497094.583020424,-497383.997117823,-497384.119710877,-497384.590624751,-497384.697106455,-497384.208698183,-497384.281981398,-497384.332879062,-496804.623492274,-497384.511705721,-497384.331002634,-496804.718707661,-497384.436110955,-497384.095195489,-497384.198010216,-496804.471781843,-496804.983605548,-496804.587183447,-497095.146194271,-497384.497177931,-497384.453754955,-497384.497730641,-497384.646868784,-496804.811591547
   -496805.027801778,-497384.129087664,-497384.51697321,-497384.544301881,-497384.222929455,-497384.019274268,-496804.705586593,-496804.852988222,-496804.573885667,-497384.699777468,-496804.935880783,-497384.652728454,-497384.060853871,-497384.693806989,-496804.6193563,-496804.407227,-497384.322675857,-497384.03673445,-496804.884228641,-497384.625226121,-496804.591004789,-497384.587629348,-496804.545356508,-496804.9366224,-497384.560121295,-496804.905614242,-497384.412559582,-497384.678061294,-497384.106441255,-497384.448770014,-497095.038529077,-497384.313078098,-497384.059741227,-496804.761237934,-496805.338629948,-498544.662721078,-498544.41783955,-498544.571794094,-498544.204651894,-498544.327107086,-498544.272634623,-498544.683942198,-498544.239524281,-498544.570448064,-498544.365242491,-498544.37939634,-498544.133817051,-498544.752099928,-498544.801941724,-498544.701098894,-498544.269204361,-498544.511722792,-498544.819429786,-498544.11634495,-498544.325009045,-498544.130661508,-498544.789658941,-498544.154866306,-498544.818295163,-498544.523242998,-498544.440829262,-498544.489826668,-498544.469436046,-498544.587417022,-498544.260334551,-498544.345691764,-498544.687689514,-498544.505543722,-498544.111980907,-498544.54355898,-498544.576311208,-498544.709618729,-498544.790819523,-498544.404633023,-498544.571916175,-498544.48426635,-498544.567429743,-498544.561832203,-498544.418891377,-498544.400049632,-498544.61930866,-498544.619196621,-498544.095444247,-498544.364079327,-498544.398890329,-498544.241747089,-498544.452385279,-498544.162720953,-498544.283740357,-498544.765191538,-498544.707176714,-498544.357675532,-498544.587613508,-498544.515523473,-498544.7203924,-498544.616922532,-498544.309208439,-498544.486221836,-498544.4048158,-498544.114253013,-498544.525821403,-498544.462387906,-498544.734821308,-498544.353085031,-498544.219489974,-498544.393700209,-498544.555017846,-498544.50949905,-498544.378543353,-498544.674857272,-498544.397346342,-498544.322529026,-498544.570089506,-498544.512947818,-498544.738048916,-498545.507599231,-498544.489084708,-498544.200059006,-498544.28322898,-498544.113289749,-498544.727421063,-498544.619670848,-498544.316505652,-498544.180903946,-498544.670496844,-498544.313337963,-498544.216707509,-498544.369998337,-498544.5183552,-498544.78910822,-498544.269760198,-498544.175910194,-498544.25171869,-498544.399340651,-498544.708342807,-498544.251623041,-498544.71848989,-498544.576473793,-498544.239291641,-498544.099892407,-498544.52084382,-498544.777000806,-498544.618292178,-498544.442997662,-498544.462547483,-498544.479349975,-498544.621700603,-498544.169367977,-498544.611589135,-498544.159347469,-498544.222540111,-498544.20385172,-498544.297695143,-498544.386228338,-498544.220946528,-498544.740265132,-498544.240584541,-498544.64861965,-498544.516702764,-498544.740266588,-498544.271694987,-498544.279721797,-498544.825258427,-498544.42354971,-498544.499799362,-498544.316138435,-498544.165512623,-498544.265451142,-498544.638719588,-498544.581128162,-498544.771371906,-498544.746725492,-498544.794881942,-498544.27803886,-498544.426560506,-498544.784534834,-498544.096080957,-498544.707622567,-498544.55247104,-498544.285849156,-498544.525751937,-498544.142041818,-498544.592523779,-498544.453710019,-498544.661270396,-498544.160610764,-498544.712329628,-498544.699604929,-498544.27309641,-498544.802192252,-498544.105740787,-498544.164572527,-498544.154473316,-498544.33313963,-498544.662311997,-498544.33582431,-498545.21679215,-498544.289444755,-498544.777312877,-498544.241111336,-498544.408539639,-498544.450951749,-498544.364762967,-498544.12516326,-498544.22209014,-498544.309929196,-498544.243084355,-498544.114358571,-498544.793782409,-498544.270526271,-498544.738886462,-498544.367076551,-498544.190850897,-498544.325555896,-498544.309216938,-498544.224355456,-498544.521312595,-498544.466250695,-498544.596393891,-498544.433890885,-498544.437923384,-498544.300022271,-498544.826469308,-498544.670641913,-498544.570089661,-498544.701501666,-498544.686954464,-498544.556444599,-498544.44984144,-498544.185438483,-498544.832792455,-498544.640750779,-498544.764424267,-498544.406061991,-498544.711424094,-498544.169502476,-498544.611393429,-498544.562062807,-498544.326322166,-498544.446043488,-498544.751640986,-498544.692673345,-498544.739937097,-498544.097272427,-498544.158008077,-498544.572778814,-498544.807836207,-498544.663031997,-498544.11862498,-498544.532658828,-498544.648626293,-498544.414308548,-498544.527165441,-498544.43812428,-498544.637302529,-498544.203219656,-498544.458597017,-498544.52823563,-498544.389188176,-498544.354703051,-498544.457089309,-498544.520754333,-498544.498631708,-498544.703046213,-498544.271848393,-498544.19283797,-498544.436766861,-498544.618903483,-498544.448246379,-498544.234416749,-498544.447076604,-498544.793364365,-498544.234630816,-498544.245052691,-498544.516364476,-498544.579364616,-498544.39419975,-498545.477011626,498254.995453448,498254.771364147,497964.415216775,497965.024372058,498255.070267665,497964.391699623,497964.772070044,498255.089603378,497964.934709186,497964.721994538,497964.540122772,497964.540090087,497964.597976776,497964.965136726,497964.875419894,497964.33726312,497964.319928056,497964.817407871,497964.854252888,497965.011403639,497964.483458201,498254.803504888,497964.912282572,498255.319154561,497964.833508906,497964.424674004,498255.422505061,497964.453620307,497964.868616792,497964.766181774,497964.38712243,497964.990356612,498254.959655089,497964.674184386,497964.387982728,497964.751119484,497964.68195922,497964.70982997,497964.320649808,498255.021340476,497964.71617508,497964.550220035,497964.324331889,497965.032529937,497965.032265081,497964.463542581,497964.619485521,497964.779078006,497964.522507077,497964.87998511,497964.8868983,497964.857518989,497964.757673832,497964.785687946,497964.883933966,497964.500830794,497964.447583339,497964.604149499,497964.499745386,497964.494683135,498254.937074606,497964.627331971,498255.26928111,497964.477409647,497964.643754342,497964.598060685,497964.349109992,497964.972086914,498255.345828993,497964.433182645,497964.703598424,498255.118185371,498255.265433058,497964.601587406,497964.604110794,497964.98153269,497964.328262473,498255.38783992,497964.875391244,498255.13864132,497963.589900761,-498544.650480282,-498544.163589057,-498254.300631023,-498544.215418813,-498544.565098846,-498544.601431797,-498544.380527904,-498544.304451867,-498544.207550353,-498544.530578432,-497964.521072514,-498544.624029994,-498254.463296032,-498544.749848708,-498544.745271469,-498254.54853102,-498544.247780045,-498544.445338983,-498544.399910181,-498544.719681988,-498544.44730368,-498544.201660514,-498544.744790145,-498544.657727891,-498544.605608888,-498254.976796303,-498544.678028152,-498254.847097843,-498544.192301011,-498544.661546256,-498544.575166108,-498254.56050445,-498544.273805461,-498544.453502159,-498544.10993697,-498254.641338487,-498544.322140143,-498254.739431056,-498544.7682582,-498544.777618907,-498544.508061203,-498544.700572607,-498544.144112513,-498544.273938022,-498544.517208108,-498544.694688784,-498544.163323186,-498254.820235692,-498254.980689543,-498544.641608096,-498544.661656581,-498254.798285664,-498544.701809964,-498544.57858084,-498544.676324701,-498544.543522055,-498544.25291349,-498254.477017709,-498544.443924502,-498254.811537955,-498544.757518223,-498544.562105056,-498544.206853143,-498544.380118674,-498544.789526901,-498544.485063111,-498544.44492682,-498544.649348033,-498544.734614025,-498544.393195686,-498544.126532746,-498544.537023983,-498544.511195359,-498544.456405851,-498544.306323073,-498254.775406067,-498544.152250288,-498544.56555441,-498544.23522207,-498544.745034681,-498544.484325322,-498544.147055164,-498544.119510586,-498544.384807492,-498544.834004253,-498544.80555544,-498544.498248646,-498544.529339198,-498544.611292035,-498544.400529492,-498544.288566867,-498544.134385139,-498544.195648424,-498544.24598295,-498544.114802971,-498544.780070724,-498544.588421751,-498544.598108416,-498544.318525698,-498544.126847284,-498544.344464252,-498544.348089731,-498544.725175827,-498544.329235727,-498544.609777637,-498544.219334885,-498544.187232174,-498544.3401064,-498544.366960055,-498544.190181339,-498544.485974055,-498544.521473657,-498544.141937508,-498544.533004398,-498544.737477128,-498544.705165346,-498544.537296757,-498544.656160228,-498544.380228999,-498544.818086039,-498544.820929042,-498544.749702199,-498544.132758285,-498544.42878682,-498544.199331106,-498544.826262184,-498544.436077846,-498544.359914696,-498544.436305167,-498544.360366926,-498544.826538476,-498544.388256449,-498544.341731,-498544.203077073,-498544.495272716,-498544.460227543,-498544.255993914,-498544.624389437,-498544.609144433,-498544.709371655,-498544.713025553,-498544.252844533,-498544.25708143,-498544.515812983,-498544.748670014,-498544.601207787,-498544.826562208,-498544.496758603,-498544.342620399,-498544.243752203,-498544.337476254,-498544.766376101,-498544.312581704,-498544.334554236,-498544.140032819,-498544.42887663,-498544.310033733,-498544.391091294,-498544.224606908,-498544.61763003,-498544.617371616,-498545.332527686,497674.080847868,497674.717468262,497674.621006238,497674.626343785,497674.544318734,497674.045788665,497674.686329708,497674.446811805,497384.413933046,497674.07174178,497674.677045596,497674.313791757,497384.758043992,497674.155976882,497384.370483709,497384.506746885,497674.304532295,497674.386525782,497673.984949125,497674.045329857,497384.84581018,497674.531508427,497384.840213806,497674.663899016,497674.648386645,497674.716884627,497674.661017137,497674.657665304,497674.573867581,497674.119746481,497384.463321949,497673.993134699,497674.632061352,497384.811510979,497674.469720377,497674.568275376,497674.406005848,497384.306854356,497384.536341634,497384.809517282,497384.498779844,497674.013980575,497674.284770617,497674.394194744,497674.099403372,497384.316082405,497674.589269928,497674.507403078,497674.143095527,497674.125675248,497674.107789189,497674.192280088,497673.844433623,497384.279754393,497384.313669008,497674.273400832,497384.139989731,497674.681168612,497674.702018531,497674.551495498,497384.247876006,497384.152356592,497674.597005615,497674.139792579,497384.610567396,497674.668559998,497384.544834882,497674.670594403,497384.549360982,497384.526269724,497674.685759341,497384.260413214,497674.713288626,497674.038536321,497674.40965449,497674.677435619,497674.231386911,497674.291625075,497674.549144745,497384.595039515,497383.729644943,-497384.555878128,-497384.19492241,-497384.261299855,-497384.697534896,-497384.577493413,-497384.177778822,-497384.218142142,-497384.211650216,-496804.746205851,-497384.142163456,-497384.245242662,-497384.504287159,-497094.62866072,-497384.147850912,-496804.758102143,-496804.948138147,-497384.56451415,-497384.047409463,-497384.539236524,-497384.198832375,-496804.446437581,-497384.612407005,-497384.214211008,-497384.530163991,-497383.983660835,-497384.491088435,-497384.547194886,-497384.239023082,-497384.472889596,-497384.667478266,-496804.655791537,-497384.57746832,-497384.463470085,-496804.665293698,-497383.999510138,-497384.455985271,-497384.545328006,-496804.961339209,-496804.749648962,-496804.952327865,-497094.544671121,-497384.521388857,-497384.480142938,-497384.134831093,-497384.472631472,-496804.433597108,-497095.070451875,-497384.477833953,-497384.52291005,-497384.173092918,-497384.607732415,-497384.325186648,-496804.548285416,-496804.404425591,-496804.895586222,-497384.65296331,-496805.085236797,-497384.440628051,-497384.683953958,-497384.056484876,-496804.573109332,-496805.083644455,-497384.448252807,-497384.555186564,-496804.985930523,-497384.37726653,-497094.515280844,-497384.563508546,-496804.513453879,-496804.84960906,-497383.97785683,-496805.102733545,-497384.402285897,-497384.691434055,-497384.128625024,-497384.239507703,-497384.102343965,-497384.049459813,-497384.027612417,-496805.049622331,-496805.588708288,-498544.16406322,-498544.442227609,-498544.394498965,-498544.154448138,-498544.769686258,-498544.3569184,-498544.54877999,-498544.603822053,-498544.180661405,-498544.599896259,-498544.199402242,-498544.71646662,-498544.392833165,-498544.31192082,-498544.185790579,-498544.167838337,-498544.759070951,-498544.378048355,-498544.19006723,-498544.122369215,-498544.097261744,-498544.454115569,-498544.109036486,-498544.289938376,-498544.734146655,-498544.757015328,-498544.45793273,-498544.714881935,-498544.355747598,-498544.645321632,-498544.735446063,-498544.507717921,-498544.124067122,-498544.256086833,-498544.39533758,-498544.465708315,-498544.273078519,-498544.620063102,-498544.779948024,-498544.239672807,-498544.420853948,-498544.179011169,-498544.157083943,-498544.236004269,-498544.737191554,-498544.210558394,-498544.228777409,-498544.598837911,-498544.162159122,-498544.290994042,-498544.302009981,-498544.630148425,-498544.796282154,-498544.751544584,-498544.756575553,-498544.544062228,-498544.42789341,-498544.199262876,-498544.25441606,-498544.107373217,-498544.733100247,-498544.668012632,-498544.342776742,-498544.36945435,-498544.698564773,-498544.525798898,-498544.687101784,-498544.231448619,-498544.750697818,-498544.554196841,-498544.728874395,-498544.233710135,-498544.432214908,-498544.784509,-498544.535629844,-498544.752365152,-498544.391733914,-498544.707146794,-498544.386861399,-498544.618290548,-498545.423567732,497674.125554282,497674.171338578,497674.659307835,497674.380749739,497674.618763753,497674.273213333,497674.612126563,497674.485137821,497094.746920708,497674.686246486,497674.650245748,497674.358414349,497384.190529671,497674.478076541,497384.153770871,497094.761961633,497674.197019508,497674.447209605,497674.512668734,497674.461192491,497383.909283398,497674.136509008,497384.515729907,497674.422529453,497674.655761545,497674.526127874,497674.712288237,497674.508146651,497674.71985099,497674.571733076,497094.877449444,497674.172247623,497674.348523588,497095.11376305,497674.68417054,497674.703473859,497674.540740491,497094.666755649,497094.839043502,497094.617947507,497674.045596722,497674.086826339,497674.658753502,497674.302381741,497674.163704925,497094.824835254,497384.478554374,497674.280239528,497674.035975149,497674.642045243,497674.214659357,497674.38846867,497384.406858022,497384.385305117,497384.115115348,497674.713106665,497095.132260107,497674.221427482,497674.449049585,497674.07728498,497094.898533446,497384.010592099,497674.489348221,497674.285702063,497095.020540062,497674.462647226,497384.133582948,497674.275331884,497095.131514351,497384.174358403,497674.331735573,497094.742006878,497674.206362163,497674.492917288,497674.20224487,497674.624555362,497674.201816896,497674.05895418,497674.243473629,497095.042669311,497094.281132511,498255.020723704,498255.060846496,498254.666480742,498254.945748714,498255.203521099,498254.857039972,498255.213268843,498254.895738824,498255.29915116,498254.773435706,498254.907988004,498254.932246389,498254.736886557,498255.047501346,498254.743642704,498254.925565402,498254.961726433,498255.223475923,498255.029144984,498254.805423428,498254.633054398,498255.090359421,498255.111667118,498254.898984664,498254.674874433,498254.770781502,498254.739052642,498254.849772155,498254.896684184,498255.099964763,498255.048433962,498255.306041138,498254.608602228,498255.214306577,498255.196375961,498254.959895695,498255.015568368,498255.272066528,498255.135585182,498254.798308142,498254.713384197,498255.311706238,498255.15092941,498254.671660499,498254.616448458,498255.128326708,498254.662176494,498254.638116831,498254.651303054,498254.891690848,498255.172203641,498254.767591436,498255.146441823,498254.816399812,498254.750712178,498255.258451568,498255.277266663,498255.095583362,498254.859549276,498255.021414592,498254.706662324,498254.952171682,498255.327141925,498254.787861391,498255.053089028,498254.93003415,498254.912319155,498254.850667265,498255.179212669,498255.111834293,498255.238084319,498255.01774719,498254.676565735,498254.819511837,498254.680714225,498254.649435445,498255.267517295,498255.028681613,498254.8712112,498254.874635009,498254.262095878,-498544.733178765,-498544.635645477,-498544.829121242,-498544.166941165,-498544.553272051,-498544.674515262,-498544.302499871,-498544.370520178,-498544.156777894,-498544.412073254,-498544.174717281,-498544.421597325,-498544.719943987,-498544.742468759,-498544.333489772,-498544.110137974,-498544.471046558,-498544.476130816,-498544.408287979,-498544.618107024,-498544.283193058,-498544.635798126,-498544.555233526,-498544.441095757,-498544.679658126,-498544.743088876,-498544.507184591,-498544.698428991,-498544.732837844,-498544.103768014,-498544.585529528,-498544.609742415,-498544.10978802,-498544.509979987,-498544.817063059,-498544.66908699,-498544.100640982,-498544.562689302,-498544.65054307,-498544.652354736,-498544.302672833,-498544.296304416,-498544.181501296,-498544.732996601,-498544.104690259,-498544.817559633,-498544.120982137,-498544.694923553,-498544.503287861,-498544.75791844,-498544.518340296,-498544.75209172,-498544.237992679,-498544.764162116,-498544.537018799,-498544.192082927,-498544.175114238,-498544.482727772,-498544.321397616,-498544.644297752,-498544.262032959,-498544.438185457,-498544.471796912,-498544.147712167,-498544.660658304,-498544.399089443,-498544.406511592,-498544.304666287,-498544.759520277,-498544.498517359,-498544.10419928,-498544.742471833,-498544.659702322,-498544.59004782,-498544.410136478,-498544.821003219,-498544.548999117,-498544.656351501,-498544.431107785,-498544.69621307,-498545.356316852,-498544.646375614,-498544.289843416,-498544.809033981,-498544.419542295,-498544.667552385,-498544.466452023,-498544.179740482,-498544.807075766,-498544.71968242,-498544.588675039,-498544.452027787,-498544.335993973,-498544.100947605,-498544.485024065,-498544.698601953,-498544.658622081,-498544.128491415,-498544.167040584,-498544.539715394,-498544.505750328,-498544.650430427,-498544.769517853,-498544.099472789,-498544.748421447,-498544.609983039,-498544.187091685,-498544.482059437,-498544.448727924,-498544.550130157,-498544.477198387,-498544.352877314,-498544.146322274,-498544.459299123,-498544.761603302,-498544.449771922,-498544.243044328,-498544.496877508,-498544.562284449,-498544.827220496,-498544.766751997,-498544.321473398,-498544.331705098,-498544.134540144,-498544.743956898,-498544.48628607,-498544.501180148,-498544.653457004,-498544.199726042,-498544.545649103,-498544.257083425,-498544.515209989,-498544.584013204,-498544.725506969,-498544.285165029,-498544.161080887,-498544.710972338,-498544.285072915,-498544.155314821,-498544.643673833,-498544.575162987,-498544.818507163,-498544.565127134,-498544.351647896,-498544.33718632,-498544.330500013,-498544.4004078,-498544.710809427,-498544.17345888,-498544.12995443,-498544.550259912,-498544.256446861,-498544.400321543,-498544.173934665,-498544.607077974,-498544.278979218,-498544.413427615,-498544.729679996,-498544.189630468,-498544.356837664,-498544.203505178,-498545.338915766,497674.441727996,497674.081570279,497674.431014659,497674.022660703,497674.215784991,497674.563833795,497674.549927297,497674.123538975,497384.384892604,497674.026677688,497674.382498704,497674.066038485,497384.611046968,497964.210637401,497384.367345924,497384.143634985,497674.187295276,497964.484837639,497674.638183121,497674.194278379,497384.383106354,497674.654289779,497673.98925991,497674.723424826,497674.609172945,497674.313982852,497964.77986553,497674.717875579,497674.236995829,497674.003356759,497384.767662031,497674.186171943,497674.283892736,497384.655690748,497674.282589909,497674.156715365,497964.194983357,497384.582608843,497384.396170862,497384.71762656,497674.282088345,497674.506414923,497964.601841965,497674.226475179,497674.164467214,497384.476095837,497964.331707366,497674.159930538,497674.296130723,497964.559626398,497674.625849797,497674.303177805,497384.686847371,497384.544672308,497384.330643341,497674.511499608,497384.216002557,497964.605884358,497674.137549148,497674.62586353,497384.821305877,497384.695156195,497674.610604537,497674.227141859,497384.261163221,497674.180975861,497384.645250227,497674.67941761,497384.616918836,497384.19527966,497674.707903066,497384.606833997,497674.038125831,497674.044248749,497674.636251425,497674.461709734,497674.211330048,497674.486846121,497674.543606713,497384.395812383,497384.317010536,497674.430350959,497674.406393957,497964.749897089,497674.101568353,497964.484323374,497674.362429051,497964.77655804,497964.483929642,497674.495151691,497964.238638129,497674.31316039,497964.464898843,497674.355325636,497964.794615207,497674.450036628,497674.619871776,497964.359349206,497964.263237279,497964.881785877,497964.729140135,497674.202118013,497964.580349313,497674.224543251,497674.401551589,497964.316941121,497674.249701074,497964.662437769,497964.667672321,497964.628185044,497674.284818661,497674.314174739,497964.786339036,497674.604841243,497674.46935491,497964.410794065,497964.308601386,497964.193822817,497674.110222607,497674.536091285,497674.542608201,497674.627943625,497964.528603336,497964.881018582,497964.890126102,497964.553624911,497674.161774302,497964.58109472,497674.147928066,497674.170863897,497964.740132482,497674.010863076,497964.55672421,497674.56011536,497674.425923685,497674.663101098,497964.183117014,497674.166499807,497964.3329946,497674.682921756,497964.219271401,497674.598285806,497674.09353482,497964.754039122,497674.194982132,497674.474291647,497674.425115878,497674.409885857,497964.78426525,497674.368470242,497674.300317476,497964.759164328,497674.059542566,497964.451207385,497964.323826777,497964.825257901,497964.746042335,497964.597625256,497674.232711673,497964.181042046,497674.704995076,497673.55825405,-498254.846798425,-498254.864499705,-498254.559610143,-498254.91311941,-498254.515979042,-498255.135084452,-498255.008157437,-498254.641408892,-498254.959397943,-498254.479794259,-498254.586834488,-498255.020361854,-498254.696021977,-497964.152747549,-498254.652666189,-498254.673098491,-498254.675271678,-498254.945473673,-498254.493386806,-498254.695774259,-498254.650833234,-498254.668204881,-498254.577116283,-498254.46669455,-498254.496342194,-498255.081558169,-498254.776553278,-498254.672763786,-498255.095783097,-498254.862170947,-498254.513874571,-498255.03512244,-498254.469736024,-498254.969525316,-498254.913714859,-498254.661352275,-498254.479970668,-498254.511285258,-498254.629116111,-498254.798598759,-498254.940755796,-498255.107358082,-497964.680338144,-498254.839275065,-498255.187033407,-498254.53948238,-498254.646390572,-498254.966452848,-498255.055108133,-498255.113891398,-498254.520722999,-498255.180613744,-498255.119191082,-498254.958029755,-498255.141064978,-498254.626256249,-498254.735046126,-498254.540578297,-498254.864439921,-498254.621495867,-498254.806193879,-498254.783056356,-498254.73270079,-498254.544889701,-498255.152994683,-498254.738787043,-498254.998288534,-498254.913571655,-498254.776700445,-498255.178388909,-498254.640790527,-498254.611649125,-498254.764020267,-498254.881863041,-498254.942093458,-498254.730550147,-498254.824348971,-498254.924916213,-498254.466736138,-498255.143934809,-498254.76198373,498254.958574564,498255.151019342,498254.786783296,498255.166639337,498255.435414168,498254.852743636,498255.256968725,498254.940214656,498255.220628675,498254.842368846,498254.829282623,498255.121829657,498255.500467041,498254.776270114,498255.350387844,498255.133429993,498255.022046081,498255.082394613,498255.05984092,498255.227481149,498255.035856078,498255.318334882,498254.89195577,498255.034986413,498254.85960112,498255.091493808,498255.270759244,498255.492150988,498255.097572454,498254.966767716,498254.958545082,498255.434245125,498255.048169883,498255.03000943,498254.959656541,498254.790349287,498255.204940898,498255.012895945,498254.875428423,498255.132894305,498255.208580015,498254.870638672,498255.466508154,498255.443079519,498255.254351833,498254.990946202,498255.199349966,498255.066291828,498255.171355972,498254.860444844,498254.878029932,498255.456526448,498255.197847926,498255.092421316,498254.805738604,498255.148326967,498255.027738566,498255.259884167,498255.075713212,498255.112595355,498255.090071676,498255.272905022,498255.350729487,498255.022535954,498255.391911049,498254.903124783,498254.842334769,498255.239132606,498255.324700858,498255.328713552,498255.436576379,498254.77782513,498254.975641184,498255.4350339,498254.787576128,498254.9338924,498255.359914012,498254.956963535,498255.288721864,498255.376742203,498254.637752089,498254.577142411,498254.693470011,498254.609802604,498254.461412779,498254.614105918,498254.609072194,498255.067835851,498254.596945821,498255.139416858,498254.874698005,498255.057144016,498255.049270018,498254.874920353,498254.415497624,498255.047762278,498254.63199647,498254.816647195,498254.423843465,498254.723902045,498254.521286428,498255.072304645,498254.853678254,498254.954729704,498254.53595575,498254.472879796,498254.853560259,498254.874901311,498254.677520182,498254.983933488,498254.90050024,498254.443450026,498255.083249588,498254.811058293,498254.824451513,498254.48960426,498254.556110005,498254.717601878,498254.537798169,498254.754480125,498255.010139874,498254.490586202,498254.618861779,498254.377958995,498254.430690542,498255.095519648,498254.444642397,498254.816808115,498254.996211271,498254.455901135,498255.017983215,498254.519941812,498254.509795065,498254.757494814,498254.83213077,498255.044013766,498254.835551441,498254.850827591,498254.446521848,498255.100620268,498254.872632944,498255.062258168,498254.762990664,498254.725099618,498254.395591613,498254.803922974,498255.085981713,498254.61088672,498254.423143834,498255.037980649,498255.080327268,498255.026481876,498254.65152402,498254.781450625,498254.825849456,498254.40337522,498254.82611786,498254.848394254,498254.896714157,498254.552523387,498254.400912394,498254.896374968,498255.206777325,498254.810294042,498255.294037557,498254.969233423,498255.261742245,498255.130429769,498255.307014808,498255.108525032,498254.982140103,498255.033369698,498254.859755024,498254.765265186,498255.209934465,498254.752556701,498255.055682823,498255.221849446,498255.310454667,498254.954854853,498254.59821293,498255.161842961,498254.982339276,498255.286317907,498254.919661152,498255.319588623,498255.196505076,498255.056431724,498255.043732642,498255.017430544,498254.8065709,498255.315244472,498255.282200719,498255.222085746,498255.288382868,498255.051880801,498255.183568127,498254.757371616,498254.975149345,498254.970445475,498255.086268013,498254.760226939,498254.847959197,498254.858706087,498254.86051554,498254.635632564,498254.971401847,498254.690933828,498255.115603445,498254.87796775,498254.891779682,498255.148355699,498255.082026871,498254.746534299,498254.758985452,498254.783156717,498254.971175147,498255.248546703,498255.218720175,498255.302536219,498255.100815631,498254.793985516,498254.675372121,498254.878259258,498254.890629127,498254.994982915,498255.079256264,498254.965756563,498254.804969603,498254.746728659,498254.897075858,498254.886986201,498254.835375096,498254.928684187,498255.196674124,498255.166073276,498254.902558759,498254.712308183,498255.014477361,498254.872703583,498254.936861771,498255.094246243,498253.922766991,-497384.543727295,-497384.583841325,-497384.311864697,-497384.476274586,-497384.173825767,-497384.246391894,-497384.204266037,-497384.628786534,-496804.290591681,-497384.431428456,-497384.297466771,-497384.100450054,-497094.921593563,-497384.62463737,-497094.504763831,-497094.506386811,-497384.104547273,-497384.413703597,-497384.703846904,-497384.084115672,-497094.845001274,-497383.989188005,-497384.704698707,-497384.396511585,-497384.556149504,-497384.420219723,-497384.377167721,-497384.089481939,-497384.450625224,-497384.475422845,-497094.867859469,-497384.34381774,-497384.702922799,-497094.949393819,-497384.049147664,-497384.545558786,-497384.065753256,-497095.040785741,-497094.519548922,-497094.560482495,-497094.763395312,-497384.632144177,-497384.336112749,-497384.689244713,-497384.135405213,-497094.743496711,-497094.898159428,-497384.216948724,-497384.365308362,-497384.553935958,-497384.149222446,-497383.981839899,-496804.622483902,-497094.594269038,-497094.902510276,-497384.524619187,-497095.093018679,-497384.624845299,-497384.62961727,-497384.463098231,-496804.834249569,-497094.589247868,-497384.148241207,-497384.269127815,-497094.54241663,-497384.663141218,-497094.611403314,-497384.681691932,-497095.049953476,-496804.419846568,-497384.64574187,-497094.782021464,-497384.368618445,-497384.61782818,-497095.038980292,-497384.417965412,-497094.866951317,-497383.985533891,-497384.231186269,-497094.791500435,-497094.592807211,-498544.254921284,-498544.558288154,-498544.730803843,-498544.420902686,-498544.476337984,-498544.810981624,-498544.707739921,-498544.14158583,-498544.358643054,-498544.791038557,-498544.275022534,-498544.740899175,-498544.386181396,-498544.311496839,-498544.268849732,-498544.578605257,-498544.16168722,-498544.745914242,-498544.306378572,-498544.226795684,