encog,BasicNetwork,java,3.3.0,1,63634102864666
[BASIC]
[BASIC:PARAMS]
[BASIC:NETWORK]
beginTraining=0
connectionLimit=0
contextTargetOffset=0,0,0,0,0
contextTargetSize=0,0,0,0,0
endTraining=4
hasContext=f
inputCount=2
layerCounts=2,26,26,26,3
layerFeedCounts=1,25,25,25,2
layerContextCount=0,0,0,0,0
layerIndex=0,2,28,54,80
output=0,1,0,0,0,0,0,0,0,0,0,0,0,0,0,0,0,0,0,0,0,0,0,0,0,0,0,1,0,0,0,0,0,0,0,0,0,0,0,0,0,0,0,0,0,0,0,0,0,0,0,0,0,1,0,0,0,0,0,0,0,0,0,0,0,0,0,0,0,0,0,0,0,0,0,0,0,0,0,1,0,0,1
outputCount=1
weightIndex=0,26,676,1326,1401
weights=-0.760049689523605,0.489315172074341,-0.333684561513062,0.531138558893914,-0.269015185655506,-0.363831451349955,-0.139753501543069,-0.150864866845792,-0.637186577679218,-0.280808894421716,0.156052524964422,-0.0256700583808993,0.302450957387782,-0.484656658225212,-0.0522202942350941,0.931955177374508,0.322774269060237,-0.439453168148833,-0.0602325662770127,-0.389641178174412,-0.161121218867035,-0.0862156175909282,0.317075261249938,-0.115830363134859,-0.0532945927109113,0.0210399827709367,-0.224644218419018,0.606184970576654,1.04790059903144,0.900362234993941,-2.1784661453289,-0.597948737433717,-2.89498479077194,1.61108400932253,0.488704181911367,2.20625305160189,0.218952465256928,-0.143630661197329,0.30878824248817,0.828913353515743,-2.82288384627263,0.956555692290076,3.8558958767005,0.173526584822271,0.328038524582059,0.759734907239953,0.195018475343881,0.435574687132525,0.497035534339446,0.0866340571701409,0.0529513742469039,-0.124116421186908,5.42125869758461,0.367241295096714,3.20727644141437,-0.0226311442227972,-1.10671386465522,-0.409209825683056,5.25506831596942,-14.2070583684581,-0.669839392476127,4.49148729711562,0.373242731245224,-0.388528638782763,0.316967868042493,20.4920660225504,0.480238470710302,0.125922334376654,-0.400511578704881,10.8132496407491,-0.0997839889401596,0.392717522981731,-0.0292456393117345,0.0123768188705592,-0.658658005527878,-0.00933255883409688,2.46761750058265,4.03910249835371,0.10739235002419,1.15900589665238,0.115099877886511,0.0226488503318285,0.144475036959113,0.4933159573383,-0.0240607707647066,0.128100693205322,0.513568608309264,0.0505281800164618,0.0948595549793757,0.314669354967934,0.216875357666949,0.0215754138142163,-0.579579278477052,1.24356237306203,0.336635875986324,0.00776767220393688,0.163017548172565,0.490782386555766,-0.68944528915755,0.133384795432591,-0.134184631398608,0.175248340122157,0.311198090297179,-0.438608698181564,-10.158060663251,0.233097954481257,0.762291281858355,1.24982200881596,0.0372118549184304,0.331493399656327,1.9410124797461,9.42287798973359,-0.280534913695493,-0.567544660629199,-0.296579964675887,-0.437720284508693,-0.417909530113325,3.16387794520737,0.541814639992957,0.334727689738335,-0.269745699231077,5.78221242018485,-0.0674967596556689,0.178362995867564,0.788261236857097,0.0549534948816086,-0.0916334922727971,-0.408398977911351,-0.167301952643639,3.24923335227285,-1.86832452411404,4.59788127899592,5.71993423110304,0.423089798922985,16.556171113633,0.174839264113713,-1.50445734813981,1.14694976447698,0.404231618730721,4.58910932083299,2.35003444897788,0.176883769658141,1.72841133264639,0.299654973602983,-2.81550888822347,0.0414505549892632,-5.15159216802205,0.395096332375749,10.5693590640497,1.02722002959882,0.489647228883322,0.365317888745019,0.590358234293664,0.918673512528823,0.640971037189683,-0.414395486563699,-3.8505881957454,1.45059292633113,-0.165171580112309,2.90355483888949,0.0615116453580537,-0.0839200054669441,0.514597328458925,2.02064096982886,-0.299045407689361,1.07002801420585,-0.465253716834985,-0.122540276042256,-0.55407344026732,-0.309424902029401,-0.337350928957385,0.502251425913944,-0.320136055252129,0.418086037055713,-3.49393081873717,-0.00942523862214124,-4.15600269237078,0.11091463482291,-0.367923837437471,-0.808381529509773,0.269410436998715,-1.17024345328056,235.660035961779,-0.42902650280027,0.847457851545817,-0.965978102291381,0.444206546852629,2.90194248444618,3.57657403048073,14.2254098012763,0.206299145645568,-19.4927368455579,0.301784033315975,0.11944194404995,0.106594470790602,6.26363562879522,0.0902544081464452,-0.380316529192069,-0.199538337908308,5.13069487839431,30.9760183312886,-2.38326599630069,-17.253350822291,0.561736523887468,0.0938239941586596,0.198873275931829,0.497463640779649,-15.6506563248465,18.0726772930994,-2.99396362725821,0.715147410616904,-0.0347778829469054,-0.124398956027641,-0.211941823118407,-72.3265121915685,189.255740955153,0.0198496392210153,83.6115559396748,0.212924005150375,-0.0800008209377147,0.217078171430522,-27.5456073716684,0.524550022976799,-0.139734351086711,0.221462464960189,50.3993538789292,1.27581975088399,0.105547326165438,-2.38748516215548,0.629564616728843,0.139068297990443,-0.00221933260821953,-1.94441769903437,-20.7767629264461,4.78288249868515,-0.0169707486122844,1.83609381069632,0.81390918816288,0.578048346874793,1.89838615851375,-0.526122995396689,0.599070806172702,1.01549176381805,0.10385528835029,0.225450635976798,-1.07565538030908,-0.149968412350719,-0.931870701376986,-0.265381872833825,1.02931399253393,0.302439781772791,4.75588134923417,5.85416284277327,4.65286040086368,3.95441097167955,0.0449851681334867,0.210181763728957,-1.53511089223964,3.92860744827932,1.02285866161391,13.2976641447805,-5.78622250109536,2.9302146698023,0.0202928992678938,3.00343139103504,1.25755623631922,-12.4178647193174,3.88141854127057,1.73160123106399,4.45642263676543,3.16024887224156,-1.68193859415914,0.704187202325107,-0.383522534825275,-4.62443186378069,2.33453333772125,0.407053316318491,-2.32174500200307,1.29480609356252,1.36955018233412,-0.788642139766441,0.212327083090549,0.184943583073388,5.16694630295563,1.62730002395083,-0.391527300476028,-0.637942538058742,1.74947652563662,0.448616175550147,-0.271764488004735,-2.59809067497851,-0.132146115179294,1.01260372727976,2.78575201966574,-0.347544373125707,1.52197248790281,-0.231095050407497,-0.71694939883336,0.16761163670843,-0.155471158597004,0.0443627100442121,0.160165369022042,0.0826165166502459,-0.152853456127652,-0.461949183477341,0.189887648291763,0.475550296111567,0.155984128904292,-0.228526123913024,-0.261627110123167,-0.012107930638694,1.10485398046662,0.0656044285979905,-0.131475653626717,0.240456057416559,0.073902029530836,0.0904256204222312,0.245155063517152,-0.204664740619597,0.0718579052650373,0.0919984842398799,-0.125997930845258,-0.170676715816952,0.11046802076711,0.0104241714205171,-0.449324443776432,-0.339373749721832,0.0117665999889778,-0.512675102667058,-1.09328853327749,0.0970854896566756,0.360166971258892,0.102885971339166,-0.0993152095358401,-0.0329048441207985,-0.169883017296531,0.101294333317954,-20.8571701875493,-43.9579399359293,3.89381169049171,-0.487488845049738,0.324891749847359,0.031696764803351,0.102251744515162,1.16780774630775,-5.36490656202896,-0.0758421466541301,0.323407011635277,0.0733431624282736,-0.147010259283227,0.0579507650052471,-1.50622079757105,-2.68707925346169,0.0210302949100528,-7.74820896563476,2.53050963437964,0.223979221726604,-5.61898437063138,0.960713746173913,0.330463525246136,-0.204571709432686,0.0357053343259072,0.0370307868674979,6.70970283384104,18.0331451935797,6.03811416844607,0.303508402895741,143.974360737108,0.272132069053074,65.6527806827991,0.487226887857101,0.399976698156487,0.327735663682443,-2.73807154503755,0.0543026450536867,0.104650321854236,0.266641576297122,-0.304512490275917,26.5864686230823,0.255093369450743,26.4575885902818,-9.35354770600811,0.265773084495816,1.30760632462159,0.392963962858935,0.181474407638844,0.414545348523831,0.166436506595558,16.018117603196,-0.175603540007497,140.494623525784,-0.0857189010447189,0.325434750978976,-0.0827594322648672,0.341278714828212,-0.187980156027989,-2.05502362442273,3.72868096440993,0.363737788136671,-0.442810387379215,0.123558518990211,0.399018858938849,0.383349018820118,-2.64952882454575,0.823657998157385,0.113716071273703,0.309895096489809,-17.7263705482249,1.23466585059929,-0.0204933204502567,-15.3286136502717,0.525478868638742,0.216920172837756,0.408742268902253,0.124023483719766,-19.3224785014111,1.24537472656016,-10.1808300788957,3.74108482251173,0.109474768292587,-4.20200112624665,-0.16094641363567,-0.474758238223363,0.369322640748777,0.390404620243043,4.12331283070959,0.148560576468642,1.60887293838483,-2.65832473984778,4.53170973443753,0.446203594069825,-0.0555237819701295,-2.96145250298918,-0.492964122782521,-0.502970715442236,-0.325115995252513,-1.19934271502179,0.389518880391,0.027258533508238,-0.0807343415668918,0.549157036077033,5.32930375287173,-22.0089594180796,3.92480815442738,-8.5680755670165,-0.54506679284001,-0.631144825030231,-0.772872302710247,0.885592667768862,2.54019506712134,-5.1581437928559,0.39313471734348,-8.42304435420237,-1.15396003937992,-8.23007837971948,1.99762548904825,2.5464413971864,0.858810435627888,-0.426150667407212,6.8039198895683,-48.2039851541297,-9.52052767407037,16.3406196114415,-0.660660926440747,-1.41524675705418,-1.13795570733216,-1.0737173322791,11.8400792770542,-0.0780771722640682,0.49487380791908,0.317524065494386,0.234373761731648,0.00881980683767993,0.153513391437113,0.360853739098453,0.0646548859002435,-0.121517477301448,0.192173433717818,0.0756132531573845,0.257689756091813,-0.0050525129636811,-0.146302249213536,-0.206960578664796,0.155541129626693,-0.258576100544657,1.34615102099411,-0.0705847616297757,-0.105479745556458,0.209828758526254,0.212435545673399,0.16017616716558,-0.106645788894004,0.45562856173157,-0.482735171619685,124.393981815596,-9.39741530920685,0.467114190197703,-0.123762788790895,-0.167776626348567,-0.146071862278852,5.30696558291949,7.75047501390529,-0.0753697591673151,-3.01127249213634,-0.0455752351316344,0.0534588865338169,-0.0488137376151318,9.66864095996148,2.03756386146669,0.0387971919662292,0.00995433512822817,6.74616828085459,0.814151798668384,-6.20772850622636,-16.9391421971346,0.393761388040046,0.458927825846676,0.173367965541297,0.12628172774933,-12.0232821413354,-4.29928608661744,1.12580020427064,0.0604520770638218,-2.84789271567414,0.0623308045971574,0.267677342765968,1.18644177404984,0.458371245309471,-0.371963011400563,1.22247001723199,-0.375124222117377,-0.465787604853088,-0.470907985664554,-0.0481078316358356,-0.0784862026713431,0.189780022049864,-0.902908974704046,2.41858227976413,-0.49617088706898,0.0142622192234542,-1.01134453326348,0.204649532451528,-0.354051091372252,0.241226337653064,0.0585962796787685,0.224028922883567,0.446846852547718,-2.74197000129084,0.00714857316497682,0.247866419961344,-0.170313274549924,0.193197906727118,0.373002742694825,0.0229307466899605,0.0329951547691871,-0.218944696482918,-0.150496319820697,-0.0932103910381059,-0.140171554659534,-0.229791631949244,-0.447031061755693,0.0912794786516264,-0.374034853689852,-0.0410258653723691,0.144224759329536,0.550653812019637,0.188902955768065,0.0236049032091076,0.111159535315804,-0.121992608263634,0.327919619726337,0.13900954926173,125.804181137818,-5.35477616402095,-0.0693236366112561,-0.46236794672039,0.18538164795007,-0.0296827958952825,1.16401294050723,4.40193073630769,0.262374745223555,-0.0998118388819979,0.0747846422525217,0.2101399635675,0.0711206423413809,3.14472603585424,0.859320961961485,0.395749033845846,0.455114760686559,-8.93728543794211,1.53336967710439,-1.57901322921169,-14.644833291987,0.279754426715555,0.413235722814054,0.0663218152097616,0.137627204169208,-15.9291475592796,-0.357783656591252,0.408811734203968,0.674953870922336,-0.0625437923921564,-0.308786432887771,0.622375462583361,0.686615122678514,3.08803203920611,-0.307955416187965,-0.28873937903953,-0.286538168719221,-0.310035989726561,-0.307104994936472,-1.92282155656002,-0.234228033712259,0.145651320628414,-0.380939349164493,1.8239077316212,0.0305626117514188,0.203825668001097,-0.0324125042303719,0.455809832602546,-0.283178822856999,0.00784768330927505,0.321321085876142,2.40599646342671,0.113025487307954,0.0417854719836398,0.00550517830744201,2.99361081947844,-0.842298680344644,1525.43673962587,-0.308328143395808,0.227410526956935,0.314128495054402,0.138668272816314,0.220220711412468,0.153407020851118,-0.191034521340212,0.000586828895893189,-183.81464228164,0.970316561790037,36.0936908023094,0.269945015847358,0.0710297653846464,1.41047921349365,2.83021399854504,0.363332508199161,-0.0835820031231279,0.0213906747676449,7.22242573341238,-0.55120832541408,122.592936070717,-8.35699381474305,0.374514112273484,0.0821493012950644,0.507054824119635,0.655934825094444,3.59895404494038,7.8819806689472,0.537596278324697,0.12304660992692,0.563526663553352,0.204636307073208,0.470907110235981,8.32506769685478,0.528194362848537,-0.140758454995552,0.00357333702436118,6.16226482912871,1.52028848305744,-3.48387241982243,-19.0538984464638,0.551245612964108,0.492832655524382,0.412312644433573,0.108084571956083,-11.2356932740199,-0.286477926326315,-0.24840821851224,-0.965413205159077,-0.0761724016315828,-0.118422417542596,0.199595896739674,0.205478216023791,0.165987648404077,0.700375718675562,0.235430761247303,-0.220158365977826,-0.203025497719809,0.201708576433546,-0.244416079988182,0.339579258213249,-0.0685676097598698,0.568645653384892,0.597161893969063,0.0780332915370404,0.105254615656526,0.0283004425836712,-0.301342092277207,-0.242331509318298,0.312767266057536,0.224893494042801,0.273462987610479,0.0109414557396988,-0.240337006348575,0.449782803600115,-0.0600603648700435,0.64491324204505,-0.550272998963849,0.480890304102015,0.221080706539559,0.355244297519421,0.134849829351277,-0.184380801661256,-0.0774284308848172,0.0883245460101966,-1.1761997413989,-0.760028903754463,0.237525347699468,0.771611234090139,1.20529403341862,0.689982200166696,0.313582453745073,-0.0656810649187403,-0.0783322781331999,-0.168719310629865,0.137182783261078,0.37754445472202,0.651244343782622,-6.49503115217797,8.92749477926647,0.618737468318988,0.129708638498064,0.689318194068465,1.34581433974978,-1.015482540537,161.708601186448,0.583728469881119,0.037737862227102,0.183333935581746,-2.24941573405246,0.57555861318581,11.34210100498,-13.8464887529875,-0.0625377121658247,0.494000762805888,0.170635856365211,-6.26190628451664,44.0039345563122,-0.276882367536261,0.0942194701829302,-2.11158215932459,0.270955849987638,0.173670654346335,-5.77769598830923,0.287265357902488,0.0534151276198994,0.243568329565655,0.274614758018895,-0.442969767467585,-0.391673095917634,-0.227873010743908,-0.154124100235699,-1.31832708722411,0.208440069791386,0.145360975927717,0.346361154247416,-0.274567027446188,0.406421381186205,-0.96150509888611,0.234777728593028,-1.74563776458726,-0.497612619111719,0.0176304565233442,-0.0453962629869356,0.329076650850077,0.291622397357969,-0.203763708747272,0.0991304555437131,-0.37656035424063,0.216866339705416,0.219219386398878,12.4081116638867,0.379831204723353,-0.861517324666247,0.588651264535298,6.40470248459744,5.79360563458689,-2.34125891030204,0.431427631075958,0.421552871784513,0.288176226297832,0.220617968322753,-9.44009923115079,-0.799903909780479,0.0823223428523813,0.18182461291552,0.735706560242279,0.564253840043614,2.08273505158717,4.01766113955083,-0.0725569632012926,0.365162096713484,1.10700550652182,0.149624123610488,0.25941959965154,-9.02444593008393,0.678957817165818,0.0839536116538901,-0.265376506311062,0.901071963322959,0.109725023684687,-1.43579589752744,0.04179061716697,0.130652113383005,-0.287404611125263,0.290119031896609,-0.402459410505575,0.472493187978609,-0.199794686453847,0.0757851084434292,1.33774738761602,-0.0312820555476451,-0.50789248131116,-0.877148860126939,0.17753984801706,0.371388861383256,-0.804577910635072,-0.0676957506371346,0.0316940020622759,0.439884670371346,0.237285235217783,-0.413479516627803,0.271569429062562,-0.0142781216447782,0.266938962305613,-0.355703958972336,0.568554700241664,-2.05005630191293,0.129684072421472,0.306674304810652,0.358222503799178,0.385001969680469,0.138661103197994,0.106399220815793,-0.522839734739003,-1.08623288760831,-2.43508145455038,0.254916127809472,0.459103373214449,5.53595595883584,1.10803542967232,0.0758530560901695,0.409686160077818,0.221147500597105,-0.474218508798975,0.235419326071332,0.309326690082351,1.02647574765986,-0.144872469809952,-0.244780537110329,0.628105557670498,0.144651842393619,0.30718035188715,-1.41532949918865,0.218896790088174,0.148083262740824,0.46168327879415,0.367707269943803,0.171407359791568,-0.152806028752352,0.286058124024524,0.0491395808781844,1.75416067218233,0.219462117640703,0.815909134220842,0.657938863145273,0.357306802989938,0.228367417441687,0.262825730110127,-0.108053955771517,-0.0755890316865383,0.343333764991428,0.0631383137267091,0.369850741464035,7.31347680301291,2.96379812629498,0.401360188542824,0.104912048924569,0.301723500310643,-2.98583155269608,0.558877474022087,1.40903154867922,0.15987540152065,88.5220661925127,1.91957081993767,2.0680217919062,0.202463431185029,-0.799368043988858,-55.8588049404842,7.75837795766619,0.17127995288595,0.212012711816615,0.526800534505928,-33.0842387427802,0.196054983868055,0.172870855898364,5.49716887931391,115.923990258144,0.186023852530954,-7.49703789361902,-0.094092518222236,-0.396870638074424,-0.928475006306082,0.848254755688243,1.49563225289843,-1.60860992179724,0.451847976071536,0.0204623375395332,0.207865708308815,-0.277898831821618,0.0447323195947773,-0.322079193030816,0.320908803168584,1.58005142133224,-0.557666093397986,0.38738506581264,1.66564389143542,1.79962431414231,0.645652216545831,-0.0528054061011392,-0.853922293007141,0.852461207921864,-1.64271550120068,0.335443180587503,0.129620506961153,0.918604937365886,0.298226835173415,-5.8135864574199,1.28398911432549,-0.72802690069213,2.1619253368895,-7.24530234002809,4.4203631839148,6.95522828141029,1.12947262820081,0.200380116724127,0.716692442904613,0.0858518344879721,-3.72865513471831,21.9426204351729,-6.97513561234405,5.51128555560527,1.23290443955806,0.400491019220513,-7.09124017763109,49.5676377369257,0.16017762685174,-0.962496993405801,4.04007275406945,0.702853778653595,-0.224938916838528,6.04720824525714,-18.9892029537995,-1.93634211290858,1.09132459234753,-1.99600386186059,-0.868129370418582,-15.4401620898446,0.874967616023449,1.37338310274848,2.17682530589922,0.38574238335832,0.375978998374001,7.41277244678845,1.18222226222477,-15.5734555195635,16.3772130867063,55.2449700451065,0.924712118016277,0.573357298208455,-0.389705268777516,-1.47199342794116,-2.92869217257362,-4.6744199857637,-15.5278750141759,311.505479606774,2.98448329887617,-10.0638686492309,-1.67515990511717,-111.909375874826,1.98652402536942,-1.41335459588427,2.3773711607461,8.39600039657741,4.30870108616404,2.7746637669983,1.77808619505492,-1.08851480311943,-1.22132243798139,-1.57580368343043,1.87968420005202,7.31838513723825,0.7825247140724,-1.54863255273712,1.97266094147102,1.68283507093041,-11.2199671673216,159.213885597124,-1.59629131499022,-1.36625086393709,-4.34025912610814,-1.52841543122118,0.510170766998136,-7.17232339255186,-0.0476075894678455,-0.0640917863335983,0.573094569400531,0.0261808695796398,0.494364767369985,0.0454398436106113,0.187537837536495,0.335543170415271,0.582260822271933,0.189865238396222,0.0328538357047083,0.0995002048661865,0.412152750262397,0.166023824420485,0.695484937227283,-0.112031321744831,0.611757930241607,0.586027227875796,-0.0128566028428977,0.0628163383970365,0.06701683409056,-0.298333354467693,-0.323984442508605,0.135592943346977,0.253625875285258,1.40453128004285,-0.0334778515243031,3.51319690937,-0.425560344793448,-0.698777696488225,5.28986277621825,19.7981286533532,0.338075652100679,0.192169931533927,0.728441606992498,0.427802325154804,0.459478672918891,0.0952786852412539,2.54706690421149,0.655966363806694,0.445724629710845,0.109936641406986,0.526771829525119,0.95687511081319,0.116823328135392,0.319122435943297,0.22951750734616,-3.16102081414508,-0.644274677811577,0.874060424558914,0.282702299687617,0.563067442521985,-102.834533824133,-3.83811951024562,-0.296802165210414,0.446983457613289,-0.856754867481011,-3.2873195826238,-1.0940522685716,-3.56639321369072,-0.107227582622599,-6.04430266120705,1.04328612700236,4.06812181603217,-1.03093913627549,-1.26481289542671,-0.7573658475719,2.57174558674545,-0.0133047807875175,-1.25743689510502,-1.04647492664037,-1.16032434969789,-0.109381417933493,0.452267906108613,-3.57965334284659,-9.61772110325866,-3.65428762908521,2.50174655685144,0.406646790665609,-0.224852712819302,-1.08228637811224,0.179394964077158,0.261568650284543,4.76876359649349,0.253388090536544,3.05027916233517,0.347947022788852,0.417059227055251,-0.483289173586237,0.108316867764102,-3.90744539383119,2.44298366574268,0.721705676212872,0.553485989036562,-0.235834815043173,-1.36528878452364,-2.94254204886842,-0.726904907489395,-0.0554706337938667,-0.325566905803413,0.913236704409007,0.316985435537907,-1.1123027035073,-0.667755255814049,0.223450287713986,-0.356662536710072,-0.151469725864078,0.411543119719671,-0.69906090374134,-0.626653485997936,0.130765909885521,0.172384547862592,-0.107899751237597,0.0548156333428382,-0.347231638221208,0.236239442956899,-0.15112291383121,-0.693573684490861,-0.124326680187844,0.146462179422024,0.425402414923063,0.368149552630548,0.255845179516768,0.243924495560308,-0.0389346378782344,-0.608670350378367,-0.83062276678531,0.299416088687853,0.0661464644866827,0.597789846132099,0.179206727953649,-0.0780183170914599,0.77762357420434,0.213860905171558,-0.198306635194683,1.06290679860469,0.590232929415141,-1.47208096592752,1.22724849213436,0.100413826251167,0.0446952319268058,-0.00156066802683268,0.278797044235805,-0.04477044545492,0.33735067178265,0.14339870590527,0.612138883619944,0.110465392851271,0.165442689642379,-0.518576620433882,-0.0895941843410492,-0.01670871781848,-0.346760246861601,0.424173589455876,0.216854875566481,-0.976602343298464,0.480281719525774,-0.175138124104048,-1.16460287611181,0.607875478111635,-0.738640609237732,-0.952509749407963,-0.862284390047839,0.126442160003875,-1.94533684508988,0.173035848997198,0.19953542818192,0.315982591703068,-1.0093489990638,0.209811902994956,-0.937592782934412,0.781040360795863,0.0844598074389369,-0.983332921399434,-0.849454358331312,0.28143256122756,0.287968368591415,0.797665150980793,-0.150291245237054,0.246166965984238,-0.210924477252365,0.293019613733345,3.79401618798849,15.866715640499,-152.826228864114,16.6880619718379,6.36603456153283,15.5968751467182,3.49410963823866,3.3343264644986,-799.847302814158,2.41717099003907,2.91664833002471,3.48491175695921,3.38648322339788,7.16116483113994,3.541000081294,3.92178192898545,-3.65386722730333,6.42268328912448,3.35754556574115,15.7883103322211,6.69242221453172,7.73902162398061,42.6434673691158,3.92158683875158,3.38008558665371,1.28436606517202,-233.731968140392,1.96871834131414,1.70257450387622,-1.49804968256221,2.07646903785761,17.6648310111208,1.90780176633154,1.99658587723415,1.96571856421117,11.3159720704405,-1.62668849729384,302.320049947054,1.95308677452299,1.85728861475917,100.544477243252,5.84178925322448,1.69803438104013,1.80616688925786,3.83743640262634,2.47204768959078,-7.74751990828909,-1.43462893278072,24.4393745957717,152.293373013102,2.18165142802147,16.476499434339,111.270867717257,6.55080208338841,0.440598676778368,0.426652550504476,0.316989811360986,0.434637955802879,0.107075142035755,0.918675452101943,0.397903859101918,25.4872626739536,0.00758801308244202,-1.39931717154553,0.623036803421079,2.27195810139864,0.667147647085907,0.0430156961656513,19.8746079312806,0.147834263469353,-34.5212226299362,6.4531296681575,0.207635544398378,0.0331032139922118,-12.1863013697807,55.5040063790623,-1.17241474997363,0.064405885975541,25.6959431433474,-0.844948007388666,-1.62564907692948,-0.475745025380372,-0.606228212793783,-0.27869262059272,-1.46795792558001,-1.27804153974776,-1.39960274510559,-6.93407971275124,1.76258887578186,-11.797213368771,-1.43884225277389,-11.3461287725285,-11.0131127792463,2.87462147788739,-1.35568480117264,-0.710017492344757,7.86954845833507,-1.18606101914403,-6.62659228307229,1.83098730963634,28.1032105741498,2.57898534195092,3.01416772525963,-9.67221748801009,0.791314089341455,1.27156669794667,2.87273939416651,0.484246749108466,4.17145530320625,1.73562919519957,1.26639582723164,1.31388531549164,10.0613917926203,3.67967478154995,3.98938315400221,0.484990682750661,3.50871563564024,0.13070188638694,54.3020357163932,4.97390426562685,-80.9217824323081,0.84049937308454,1.33595637984772,1.58122597053393,0.5088903323513,1289.99092975705,0.316081258190638,3.90892726480532,1.35516499429025,-30.6350484431378,1.32295165884002,0.440580272770253,-0.355190679075756,1.55399581205467,1.38643782981094,-1.0201743893354,-0.193791815451558,1.38237245245437,1.93270072147451,70.4092949553548,-3.14894764381775,-25.6996341816432,0.188121971785872,2.28784781337357,-2.12928364027447,0.565253514022706,1.31344338642204,-4.13377555857769,1.01211575442882,2.43577344932833,0.901642351719308,1.29032693955026,1.72027757864809,0.98173658470144,-0.158778749782865,1.62095793096479,0.183196877677302,2.22250953654738,1.15194962732623,0.479563197963649,12.7483064799921,-3.43099828947161,2.80457590570362,2.65546076190666,0.703827749754922,-0.758055308185494,0.360448621393283,1.45503357870359,2.17119383971285,0.374378757387639,0.65973069588094,-0.851350359862684,0.312941956562725,1.11573473256176,-4.61723271428339,4.62283282296468,3.06344491821847,6.61464879516763,-0.409110312840433,1.02884185630963,2.32047238297725,0.248413788829115,1.95060664711251,-0.233804383654042,0.519552093297445,1.72468740583273,4.90926867538344,1.93389535974548,1.7173135048694,-0.821638666102144,42.6235228441601,4.63975212654172,23.3264913226184,1.61341745752905,-2.50200015519383,0.649610157218388,2.55916771562227,1.10016212094936,-4.63331311247083,1.45048060197873,0.45001856804011,0.577682709216323,2.15580951142774,1.4776995876826,-1.32487118323379
biasActivation=1,1,1,1,1
[BASIC:ACTIVATION]
"ActivationTANH"
"ActivationTANH"
"ActivationTANH"
"ActivationTANH"
"ActivationTANH"
