encog,BasicNetwork,java,3.3.0,1,63634098243117
[BASIC]
[BASIC:PARAMS]
[BASIC:NETWORK]
beginTraining=0
connectionLimit=0
contextTargetOffset=0,0,0,0,0
contextTargetSize=0,0,0,0,0
endTraining=4
hasContext=f
inputCount=2
layerCounts=2,26,26,26,3
layerFeedCounts=1,25,25,25,2
layerContextCount=0,0,0,0,0
layerIndex=0,2,28,54,80
output=0,1,0,0,0,0,0,0,0,0,0,0,0,0,0,0,0,0,0,0,0,0,0,0,0,0,0,1,0,0,0,0,0,0,0,0,0,0,0,0,0,0,0,0,0,0,0,0,0,0,0,0,0,1,0,0,0,0,0,0,0,0,0,0,0,0,0,0,0,0,0,0,0,0,0,0,0,0,0,1,0,0,1
outputCount=1
weightIndex=0,26,676,1326,1401
weights=0.128114430643828,0.0745835576807377,-0.185496892504151,-0.240362355634467,0.350936739983896,0.109395178218347,0.148389091920122,-0.265850084777693,0.134562339885266,0.186538989988761,0.0512113816735408,0.0497738811849253,0.255241347248817,0.208271459987319,0.174721373235842,0.345534458008167,0.206803240554283,0.000264113674288653,0.157313930634966,-0.320251600591477,0.235690016674138,0.218717033177502,0.0822383180526735,-0.269493540184998,0.315828013720836,-0.330234504421081,-0.140767764321023,-0.0333531029969862,-0.269725625362731,1.8333461512384,1.04590058983704,0.261625089093132,-0.88049039696617,-0.098712401323004,0.137723526505989,0.0558029687424798,-0.553827365627989,0.0542462483315602,0.109926292950531,0.439444854633837,-0.1957207128994,-0.162226559610094,0.150496920902873,-0.267675789277975,1.26177424502837,0.00653960810127073,0.300528428337905,0.0209933304864627,0.105617251169442,0.920941401899153,0.200607932073394,0.159588567886386,-0.311532672615446,-0.473691449857756,0.152558076039172,1.80458520045595,0.747612898187099,0.2101727470261,-1.16504080659645,0.359557078374109,-0.390179448018876,-0.311831269428373,-1.04992910898905,0.105814999307536,0.101313703373387,0.438871813793475,-0.117907717945414,-0.20081658399519,-0.376195088484513,-0.24108180525876,1.22090148244299,-0.013836459294738,-0.300573358193061,-0.393979145222026,0.135298947423243,0.628451635324022,-0.424910655400514,-0.442261760618926,0.799587978755172,0.0770764758787828,0.0343560264267566,0.144068933858356,0.421827193297543,0.312806585462449,0.742985171698468,0.451808754618436,-0.0927581210221087,-0.047138106498194,0.190402118506425,0.180959685472558,0.566151114510636,0.121926547233387,0.0883992663856089,-0.0113447565767386,0.245789144199385,0.00956583839388683,0.228790413981782,-0.072933484722696,0.24738608573594,0.685185667652261,0.0203037072075468,-0.0718642278112804,0.352773929505872,0.340690002575018,0.310948951197581,0.245638496381776,0.460529064957201,-0.0148159332894995,0.238999331705411,0.267497303523813,0.58359080017512,0.0743383891806893,0.611301651649645,0.251433964033389,0.458102926605035,0.296573050050225,0.375845262351615,0.5871261195478,0.716253450862411,0.056002764394204,0.568883499041793,0.402589443270346,-0.288329382108763,0.704472409578259,0.39149883759804,0.316716919805572,0.385880147895789,0.59857591630484,0.674914027208862,-0.0441467537452728,-0.0826211730903591,-0.260350690195432,-0.328334246936639,2.05824940354264,0.181230429158655,0.660820608025086,-0.707658452732892,0.316536580253887,0.0274091629641426,0.207114679312795,-0.108189004278758,0.0221479415139746,0.158491782761326,0.825404585628895,0.416249337789291,0.251493886742033,0.268007035823371,0.449817886530137,1.49956606425722,-0.247248356970661,0.605668423564741,-0.344833067504885,-0.200503994289265,0.779587291384172,-0.102899969720392,-0.0303531529924042,-0.6821989921802,0.0445754205066774,0.113471767620664,1.92061098946704,1.88894321395589,0.280656003520691,-0.390043929465484,0.238018701647034,0.0863499416985286,-0.293848104807905,0.112074680864836,0.0170041786592145,-0.389773861012044,0.468907343021405,0.233828505920468,0.263870781160971,-0.26795412859478,-0.4126762434026,1.32169608779433,-0.386964130419755,0.297833503672225,-0.526836561980468,0.151125896566438,0.753640060857752,-0.117812808359595,-0.206401285040451,-0.644843550184615,0.0127186007106742,0.128939022189757,1.65349314308329,1.8355474995173,0.455416582754406,-0.440177662631636,0.123367423848835,-0.195585480803117,-0.0710931668670213,-0.490594400108534,-0.0267290570189349,0.147924176883645,0.528063193799991,0.038480214044237,0.152542700132114,-0.459625559422508,-0.00210082008752423,1.4442170555612,-0.489592311141377,0.467891027737631,0.037832513185879,-0.411270149267398,0.663955618395573,0.0652499026489645,-0.626162597833403,0.818944144613326,0.131850837432158,0.750028526903267,-0.355457638233727,0.14137281749086,0.0506149346421066,0.351218460676522,0.307030307798005,0.17451279593016,0.110144509979266,0.688739832301476,0.299396322517077,0.369677115005827,0.0202661318118512,0.064577410175121,0.676235714166228,0.233962135256307,0.341994060348908,0.0312669310970799,0.582170699498677,0.147297901793856,0.80887891630928,0.436999277985266,0.574381651377862,0.0536146128657356,-0.664639435924219,-0.217414735377026,-0.166786308779659,-0.330467816965664,1.61927985345332,0.445973762659291,-0.133282902935566,-0.995893030490978,0.295757480582133,0.154867972872469,-0.127119606614874,-0.460538979865881,-0.319148856350578,0.035211543479492,0.146004276928987,-0.258456623777102,-0.184878121248966,-0.0271986488046854,-0.00280965542688364,0.722271317919571,0.0769175300361621,-0.173649857750815,0.0294586944323419,-0.537439057891581,-0.126466539014453,-0.0242032710521635,-0.996733013751894,-0.760146188804144,-0.452958547519135,0.029894824894753,2.07558642059493,0.563378236548282,0.587616288078223,-0.774295387698812,0.169803771972631,-0.364347139178703,0.123152905959903,-0.0415021325246058,-0.0142685347903428,-0.0838363403831484,0.347054685853179,-0.11837925992695,-0.0698607424295841,-0.360315928707745,-0.158222729760994,1.12294447081834,0.227885338001828,0.411550444758195,-0.444140447537686,-0.274695264835675,0.818918878306696,-0.314640277279322,-0.104090715337281,-0.522100579900717,-0.338125611439607,0.152441159650686,0.969253671824221,0.405954094960806,0.128988266355043,-0.101758249375485,0.216540078608675,-0.570122600367357,0.026526982996736,-1.41488008409739,-0.511602600976231,0.2068742827324,0.400975670673003,-0.465403545536552,-0.508314786893495,-0.495571658644872,-0.115708719070414,0.900090617085499,0.24064829506487,-0.338718459538135,-0.214814161943182,-0.352683986169923,0.73827791347729,-0.122974156656205,-0.0292569933622485,-1.70478082217857,-0.190929683794362,-0.866267753375174,2.57094043013598,4.69282823472999,0.854748468392611,-1.86527851684584,0.916640763645014,-0.141752243151701,-0.0348903786451052,-0.239802262038954,-0.690946568873766,-0.457181456811974,0.580014444627753,-0.119976375377113,-0.128075169541056,-0.320249751161227,-0.084790526243028,1.25138937937582,-0.621375191922094,0.799079743227858,-1.32480773734348,-0.0949302504507539,1.75655435588639,-0.610017146070509,-0.642254042479576,-0.613382204258236,-0.110958750211799,0.085335390703263,1.48305604781016,0.909360690249353,0.256366030085807,-0.465941584286409,0.693919175157164,0.337847035132767,-0.213097631181957,0.148199806259341,0.444535974639361,0.440695258247843,0.202835609048032,-0.0151680292405712,-0.264671461084262,0.171702176117081,-0.204107671891645,1.11130145202515,0.39973638869439,0.144700797046007,0.0243251263398102,-0.209050061010238,0.488023080967246,0.404185643133576,0.164014734240665,-0.615579562243275,-0.103774074246367,-0.436113253448055,1.30656637369251,0.913899243368873,0.395045432946429,-0.709740400714198,0.555030755223924,0.222167743578883,-0.0894493277431839,-0.364609732284738,0.0492389062386427,0.414598942618999,0.414955183392731,0.0134774960125549,0.0365101833550092,-0.146281575086616,0.197119651699329,1.03813818338053,0.0989739391439509,0.694464266852584,-0.117071599787279,0.235354462837792,0.731913998214129,-0.313883611436137,-0.452171882353742,-0.682163066031839,-0.34620261566649,-0.0538654094443486,1.9998195741101,1.20668346139114,0.317532593126896,-0.322966936933916,0.322519156023133,-0.466319223597492,-0.297846138285042,-0.0049181918728056,0.132277390350002,-0.269745453930017,0.0240550209094933,-0.436885566993782,-0.513652342875664,-0.230074922751809,-0.457795037950903,1.47011533654476,-0.464552801286321,0.00251405501219889,-0.00371214524820325,-0.16810080455111,0.544909630191902,-0.288909843238231,-0.276309092417396,-0.668093966094576,-0.0219496242455459,0.0889366773196539,1.89438330908255,0.729543937319605,0.479457112449564,-0.452768967965197,0.087424477416585,-0.269546942226955,0.18169285817061,-0.174507646460165,-0.234457079676855,-0.154039477723863,0.634705918308614,-0.294815378530467,-0.043049970872885,-0.122942798706225,-0.214218526688625,1.3928590344532,-0.0434426282070383,0.294055430582917,-0.399286253919557,0.00529140192660107,0.828098047890417,0.446091823715571,-0.336453334221228,-0.354968093033937,0.435797252382414,-0.147332218922563,1.47572035187759,1.99137421461776,0.804650432889387,-1.1230059117334,0.307773331425988,-0.117030566624869,-0.259633133774435,0.398444333550837,-0.0723856039791748,0.15142605067425,0.323019925690568,0.320464454994219,-0.183734250271289,-0.323516708960617,0.0450275889998331,1.54674578795391,-0.161559759743946,0.711497980918288,-0.22394386112471,-0.327595601871768,1.05792787141353,0.151306789495832,-0.0734596335160227,-1.11692108313671,-0.262599130256341,-0.515753469109512,-1.1309923373412,0.956809835269005,1.42848788276851,-0.557693438267747,1.44114870875599,-0.548069710355498,-0.573074846177406,-0.0865146883819376,-0.012396147088788,0.155011962944587,0.921894318138336,0.0235400173702147,-0.148054593684395,-0.31920945465322,0.194430299994355,0.503601585134814,0.0820293667354175,1.04174057683046,-0.423560474031856,-0.179930415485242,-0.0404300601643927,-0.571706032321117,-0.870471049733479,-0.932480452908263,0.0857414536148451,0.0655243678066534,1.53440086082958,1.94189983275072,0.368914644813807,-0.0743938350470704,-0.0545102883308804,0.131677891377011,-0.21992240254237,-0.182727431236018,-0.328761550044411,-0.396342569079312,0.0438743165725408,-0.0907113034812685,0.105280245568649,-0.365973938265691,0.0958487887274284,1.31917357011535,-0.305026252574276,0.314178720053436,-0.197673245718357,-0.202579529048069,0.341775413529482,0.192569002060734,0.180786663143242,0.665401129943362,0.61080428562352,0.783789926863682,0.10988007276172,-0.122799486041169,-0.0715448663247228,0.207533735958595,0.772701812581084,0.690946784943991,0.0925492604780855,0.145043192829229,0.752706783996712,0.149647646531108,-0.0568126271123646,0.801747168098768,0.466667250126087,0.347259704400804,0.365552042401692,-0.253329267992871,0.113513200910182,0.54082465099213,0.215820519375537,0.322463124854409,0.297195541090518,0.107806550049698,-0.64046916008342,-0.250200445709339,0.242842449356355,-0.0851236900077595,1.65961419220606,0.521690465416785,0.461931243734353,-0.796875214627932,0.663482368403311,-0.266280164466589,-0.307134225637659,-0.0121749371515553,-0.261671779124547,-0.312425670508545,0.432503492360916,-0.161068582563215,-0.194161427156174,-0.0250031334315103,0.0794450587566329,1.45664768320769,-0.0920488749893414,0.536803832561157,-0.0361863032257105,-0.099341509071382,0.211638146852577,-0.241551932856662,0.0662994853726398,-0.485876816117103,0.351914415079375,-0.297470886926372,1.48327742155664,1.69547869784464,0.243554377955352,-0.825819439423354,0.563388347960832,-0.0702412224933844,-0.0855760159902483,0.0569074640276289,-0.108015386714567,0.23615054628059,0.536131616146959,0.137987272720623,-0.114515466885372,0.374532676380242,0.380184287588148,0.920172799224596,-0.130609771414755,0.330068227180661,0.162118363330168,0.321951259819322,0.868844913232879,0.28953527567984,-1.11745601673823,-0.179465414679246,0.0962366978594857,-0.496179791250577,1.3392026449317,0.352586688994735,-0.00550841208707899,-0.406351563123078,-0.165240233651012,-0.217645759769573,-0.217997878912816,-0.0745605428545786,0.142999172976662,0.012354302893028,0.0634262255473486,-0.213797110238901,-0.215249942166081,-0.500775863123776,0.200556076808823,1.03842385932376,-0.476959782429286,0.270936311429887,-0.575090724069587,0.0249660631977702,0.291576872437279,-0.0640175658335241,-0.00733458297188214,1.07062141515685,0.708979135492693,0.584923461157092,-0.181363623595424,-0.407331505954393,0.456191865427454,0.633284413757454,0.426046214282011,0.319166007432293,0.786837502446071,0.4552462983125,0.25713443729995,0.778378207778724,0.059884146077659,0.794505052593911,0.355650593547072,0.129357489547842,0.199068589831864,0.238555908771137,0.0502423463136348,0.161542795290078,0.727204062183246,0.733461443958374,0.573212253442064,0.582273210478858,-0.0602367854009437,-0.668291002497047,0.195085880500415,-0.501528905181362,1.93217389966856,0.315104800550858,0.616993549718675,-0.57350443804303,0.742588801498002,-0.0529602434391801,0.0611954035364502,0.0976097883340346,-0.280379165116447,-0.0228277432636968,0.798903593588915,-0.00408591908672949,-0.238883242081123,0.3669347905448,0.0481071644840577,1.720886044143,0.264691899732023,0.810187744940749,-0.0783365763227993,-0.243215313258093,0.643646304428631,-0.337773780008177,0.334673022274729,0.217468711825595,-0.31035246915121,0.164478914095406,-0.237619422271444,0.862751949644543,0.938023025990162,0.499460928704055,-0.218558243107126,0.176804975015461,0.231785389220976,0.113860581113147,-0.167855831244231,0.544112300178321,0.29584067966523,0.831752460516966,-0.22931364061801,0.197886637388997,0.61880916870117,-0.00100135576459892,3.3477254834752,1.0305979638996,2.56268260052353,-0.120720619877332,0.112422572272683,0.0247773871558207,0.0961832707958661,-0.533404228672728,-0.271644452629564,-0.194860797651548,-0.213054694532732,-5.25076917903338,0.688626875021086,0.275676116495127,0.1491297288887,-0.0433973842059717,-0.149215573892779,-0.320785342404653,-0.110136882366161,0.254897067762516,-0.224038416965464,-1.87788270539104,0.150645620754805,0.640298425139535,0.489469238076959,0.11092853909059,9.05274422010095,2.86460820053092,3.46695488167101,0.681924398806126,0.189215346736846,0.198823949798699,-1.27048229438244,-0.141796338982646,0.0207306097765496,-0.0445885711999823,0.445357741600255,0.718024123348812,0.540623886216121,1.17987728250648,0.364012916660221,-0.271573666619412,0.374695086523581,0.262729437875001,0.0367498844267005,0.492165124773785,-0.236596860005173,1.01330154025248,0.450966962063184,0.23728752837272,0.473337388087277,0.430039177331393,3.42448934153855,0.800185153742651,1.73137887082588,0.245377602241859,0.0790233424719447,0.617303356173688,-1.07986937135619,-2.38156084034608,-1.5585099013661,-1.61040745332209,-1.72808697837945,-1.11083438598895,-1.18318266546937,-2.19462633001005,-1.58179378191064,-1.74976354004077,-16.6846349780324,-2.89306973981489,-1.73495054084959,-0.0445925595930036,-1.94096125163466,-1.51171022555069,-1.55402827348418,-2.23314461377939,-1.66622505815383,-0.259202249976633,-5.05002465588315,-15.1427463006112,-3.51438633134118,-1.68296092480736,-1.62104936429874,-2.69390613515251,-1.92063914580537,0.0589796301427542,0.0748802901352309,-0.222019557881589,-0.418463303172979,-0.279758614206041,1.04453167445683,-6.66085848955871,-0.519374776466344,0.850776209965394,-0.708564928160696,-0.529794505672615,0.0450821753587277,0.469020872106923,-0.00238276617635647,0.658176835773222,-0.509577246219232,-6.87269893771184,-1.99676808373598,0.0715806992784123,-26.4216935572229,-4.60734455407604,-3.30413563410612,0.0136513461295845,-0.339847041163597,-2.65890011442147,-1.4025648293846,-31.730456147179,-5.4972532826554,-3.45608040352061,-2.40714176563034,2.05160956200455,1.28554693134815,-58.6867024317303,-2.23858050672999,-1.71169077321298,-670.591934687091,-147.934666404734,-5.30796139498498,-0.220610921568197,-6.36539033548783,-4.28411283366218,-4.26837441724333,-44.0637515540511,-16.4016174366867,-0.268949403315051,-78.9998539119818,-15.3222218095169,-3.40738390947009,-2.26737950459803,-6.87820929586698,-64.4717552417117,-6.06173572233626,-0.0138494064440557,-0.00998737668387709,-0.225655499434355,-0.0509008570973112,0.240679402962634,1.10501878179824,0.553252787094726,0.0969485134130675,0.198104192962338,0.315996994907587,0.690497526778147,-0.109842375892421,-0.14846373881329,-0.0494251172800622,0.546470709871175,-0.020091856196528,-0.0555461683368822,0.313053219920878,-0.0268336002008098,1.51496320465196,0.695667694701987,1.61562364804387,-0.0144342913057554,-0.0977337734116893,0.11210279934633,-1.02058382919441,-31.4761731952741,-5.85717269918355,-3.44298979560024,-2.49723102415221,3.01264567130795,0.645318194681982,-58.6068051278345,-2.55682766143648,-1.68434300386434,-670.716717068328,-148.3551259092,-5.65467286812733,-0.022094992139213,-6.79124934536043,-4.60818172487917,-4.74640681358792,-16.407068373979,-16.4640252109439,-0.303480852101857,-78.4722674327582,-15.3953735409504,-3.78476061709867,-2.41475903264341,-7.0256510816194,-64.5758808232259,-6.2703217180833,-0.0131764533154682,0.0813773800265078,-0.215396799785684,0.0709293942541601,0.328989818071446,1.14184984264982,2.66191294295807,0.151761913566839,0.0308529814125386,0.447480125829446,0.571109322035492,-0.316534619268272,0.556964570411371,-0.265613751124395,-0.148524943149354,0.270565214368191,0.594935532285576,0.263145074122401,0.496014509872649,9.31409781194366,5.13316815461017,3.11153316220296,0.000651275378586502,0.239050470535702,2.58098548623987,0.301085572144041,0.523501604244275,-0.0674620597043747,0.256020637659169,-0.0121672789710031,0.863538161745678,0.769850588354772,2.10540895824784,-0.151729878179534,0.246325511673028,0.240047534125665,2.56865862755726,-0.264592529941041,0.419953680189007,0.0746233291750274,0.855028630610474,-0.232410674571749,0.997472185934067,0.790905849059127,0.0425513483337449,9.52649381924048,4.90714985807705,3.14986221097093,6.11463666058672,0.18299060009048,2.39093417351845,0.267908465719116,-0.131857384056635,0.0704161376165186,-0.519337086872742,-0.319362149407454,0.333874592377427,0.79177859387157,2.4729318087375,-0.520106776393781,-0.0294349933602552,14.8418622073802,7.63726442896594,0.198590446012997,0.179297202445683,-0.285459968938372,0.699847497445151,-0.0514823564561366,0.318576113305257,0.400614453955118,0.542027751783421,8.88831590902217,1.52598865431971,3.29548381436424,3.68926120555274,0.0342013924917112,1.26686954659897,-0.862852921775558,-0.011209607828802,0.290617608571432,-0.0824059493408272,0.362475967893273,0.0594542670726144,0.57651386308328,1.22664578176914,0.188686741909912,0.167859648257068,0.0510788043181693,-0.166588069722439,0.0779957338533827,0.406008178935673,-0.0270625215756001,-0.0462950676559567,0.162174285664001,0.495386003689655,-0.079102093205198,0.0860113216811376,3.56092867099989,0.96462122101036,3.84689140185951,0.460462037222078,0.397515098848862,0.347923513617459,-1.1139972563293,0.269462600887146,-0.588841298591384,0.0778194451719545,-0.417157969010984,-5.30046960739621,0.678359403007982,-0.386035592632896,0.0826313307568164,0.653146352504129,1.09889970744645,0.205594029755628,-0.688901990377062,0.535907847310708,-0.12487292033567,0.576478559626371,-0.0333581220272046,0.248390796673626,-0.247414118519449,0.171786484761787,5.89417177606322,0.346329934626139,1.1964294757665,-0.615686655211863,0.00226629199942845,2.21621437346415,-0.883909401099161,-5.94084980596695,-2.79305068807962,-2.28540998191534,-2.40638450943042,2.85276730055444,0.819087448323363,-9.30931197080762,-2.51411070938669,-1.97947621705391,-128.105066324639,-12.8908792528919,-2.53813458649653,-0.144279429705356,-2.56101238180848,-2.94116064161294,-2.21893534719791,-7.41259062978941,-4.19290505528923,0.168335338349004,-28.6212626869798,-15.771226212247,-3.23159588468294,-2.02435176155356,-2.75724774716239,-9.75770277965387,-3.88415183128933,0.0225724283017168,0.399394519212502,0.139225638335432,-0.18410175245136,-2.12274679322153,0.591554817285262,0.49507872495839,0.233303656015757,-0.202627969044202,0.254098668129612,-0.107866083751805,0.193312270557355,0.0579172868407087,-0.0452837229373108,0.364235084194363,0.203531788267958,-0.035266044383689,-0.111982555085512,-0.192065158064449,1.16152615655012,2.16442087454909,3.65194424048464,-0.0393387582625155,0.422513867521911,-0.0386092220234519,-0.38125547474148,0.378193724818369,0.319293357178436,0.307939255621076,0.128612399656422,-0.0404366248738148,0.540774747106573,0.515084366205991,-0.0316585966815829,0.24702623297883,-0.153055737767627,0.294915203286969,-0.145352225643997,0.389628141585231,0.123088186373069,1.2419755393108,0.456729003639751,0.258840317749895,0.334810541641905,0.335737443315725,1.30652820857397,3.22363409954268,3.49286364175335,0.442672506211425,0.110531728150699,7.126220604208,0.16235291631164,0.492653775562561,0.199725705150152,0.176401141378872,0.227875738697296,-11.5486068976347,0.980946282758638,1.20253462695073,-0.0740752506456023,-0.308563022409126,0.334278512769885,3.1864518104268,0.142251905024158,0.0548079589228268,-0.353293388294856,-2.73034982773587,0.347695277177305,0.166050010238562,0.382494248576154,-0.1817350019412,2.06303016719231,0.691380057973909,3.43540622007658,0.624939687559168,0.316813154888476,169.46935667046,0.187105696784446,-0.0800807039014921,-0.344507249183332,0.0384621248107766,-0.330000032025322,-67.3221766389375,0.558616417953697,-1.1752497040994,0.00823622369446988,-0.238539167061107,0.540230337044435,2.99648636243257,-0.54162175657066,0.383285728455047,0.00292591158521486,-0.297916534471209,-0.401219787969242,-0.56127222299852,-0.634700261766284,-0.150075024623571,-0.216684454683295,-0.600644844551592,-0.0498071365931626,0.341938422463807,-0.602446558094203,58.2610713166422,-0.501566818270859,-2.95203712319722,-1.94307062845327,-2.01654928603736,-2.10044194474404,-0.142626864129613,-0.795017797621057,-3.99285741496964,-1.40179426173983,-1.56591430493668,-45.6399946569269,-5.58303414886279,-1.50606888539632,0.0148188443492695,-1.79114425836463,-2.03226898716624,-1.80503075109164,-2.66504232731892,-2.36713465870333,-0.390533529819428,-11.2491149611213,-40.9990114046965,-3.732708789721,-1.59281273548791,-2.14138840187374,-4.59155964433415,-2.68033648147143,0.202509657298684,-0.394081822826849,-0.274163616928931,0.134949190590528,-12.118105730568,1.11302658714683,2.10434142543485,0.273008519752808,0.118800322246815,0.183322301387281,0.155856624707021,-0.014466088487355,0.215054961413509,0.295963175036701,1.04101595988927,0.217975801839243,0.442051242228217,0.980185264189003,0.504432445824951,9.09677378376869,1.62806858079383,3.41911397948366,0.576720979703398,0.427886138857317,20.1610427653385,0.00473124531934012,-31.1368294449019,-6.13827105563217,-3.90522092522299,-2.66712524140301,2.49659027722552,0.563544067606161,-58.0427314060095,-2.62779261273725,-2.24496789909403,-670.807118898004,-148.101642875605,-5.37408477810182,-0.139183192493804,-6.43285435669515,-4.10610043576109,-4.70134868869819,-43.5136970653155,-16.2785235597264,0.248258413721916,-222.868459966259,-15.1577624761264,-3.54107730826741,-2.4154663632769,-7.16801898513983,-64.4928421356558,-6.15419928724499,-0.145632250650021,0.354610193542999,0.0964661456840209,-0.0965399611083233,0.409297877764369,0.637947182582858,0.167169465920092,-0.210715000223602,0.361160426604519,-0.182339779514118,0.119134149313233,-0.0547180089538768,-0.138382727483957,0.0347583701391724,0.149941743894555,-0.00208169705058946,0.287599232388791,-0.255045479486431,0.550113437704646,0.659155274116105,0.810506365246354,3.28440421956344,0.11940776350062,-0.246581708900209,0.158148557731885,0.0858741825521004,0.48299329869913,-0.302418010273008,0.0618865699110293,0.102311479665982,0.522046138412769,1.24617538548168,1.17933170887691,0.417301268860717,0.159206682250437,-0.0949207010502703,0.305263752690367,0.304621993317814,0.051901029288335,0.132751016620626,0.308497326770731,0.0964470789583584,0.483076363702449,0.342171685286778,0.231194725802198,3.3024907077232,3.01993890560109,3.49446710990718,0.657803143654503,0.12809802985906,0.955089188254574,0.37114065889249,-0.682850240324762,-0.111254486487111,-0.3625055842288,0.071705424661475,-0.0117181832797328,0.735864851826761,-6.76009390733711,-0.279383978927176,-0.395775963781135,-5.3167388467715,-0.435426927999421,-0.401576876063989,0.199916691098111,-0.291210241823749,-0.919687382969797,-0.774443332310585,-5.11992145952796,-1.87310093099989,0.476866803258138,-26.4151373784022,-1.57527226345214,-3.51295565194883,-1.61141566405805,-0.364650600895349,-0.557996001009545,-0.869533928775952,-0.152134676156547,0.21664588931555,-0.364017074256446,-0.222079312380587,-0.190485938917811,1.14110275594052,0.224504531997297,-0.45986522795912,0.379754177650007,-0.471397636353541,-0.222603764316302,0.141884317855448,0.445805573842531,-0.499126107434713,-0.385744002640928,0.119533694610107,-0.205902187900574,0.154849753452943,0.520224981662254,-0.118107234393095,6.30918399955637,3.85925680580438,-0.420017803752582,-0.090317962743365,0.274701090698404,0.15168669544366,-292437.917119512,295781.473386423,2.93812552654714,-292779.651966964,295560.396118268,1.94000807380852,-293222.694643004,295368.023522403,2.68462394039774,-292781.975951127,295051.018526571,2.67463227288692,292985.851695878,-291655.05068569,2.94208121210546,-294201.443664615,295761.521785885,1.98183034585074,-293639.299131781,296676.946086131,0.395673656543137,-293647.398466162,295364.951312861,2.66319705016892,-290604.860763324,292468.739781534,-3.22425569991602,-290961.257081624,294175.411500723,0.333001429748901,-289560.1163741,294025.130385422,2.01662509169523,-292435.709450739,294896.899186235,-0.244076160269691,-293471.484993211,295177.364807629,-3.7614911374787,-292780.010472475,296387.816931441,-2.6284413934025,-291265.724805921,294906.648937077,-2.13356304678543,-292780.463408385,296097.910480453,3.07382050061376,-292783.516544968,296387.592148867,0.165605367436295,-293643.945530482,296676.230360749,-0.248185097565488,-294352.326995953,296678.016696585,0.961368814947369,-293227.253194643,296905.558834399,2.51017544340328,-293224.487981092,296904.245836381,2.54358010048475,-293225.519344127,296679.078363255,-0.123880050502172,-289864.476580242,296097.616863793,1.9100738109599,-293221.212431775,296679.389362765,-2.90643845270662,-292131.962249218,295651.418497134,2.34873243115156
biasActivation=1,1,1,1,1
[BASIC:ACTIVATION]
"ActivationSigmoid"
"ActivationSigmoid"
"ActivationSigmoid"
"ActivationSigmoid"
"ActivationSigmoid"
