encog,BasicNetwork,java,3.3.0,1,63634439664724
[BASIC]
[BASIC:PARAMS]
[BASIC:NETWORK]
beginTraining=0
connectionLimit=0
contextTargetOffset=0,0,0,0,0
contextTargetSize=0,0,0,0,0
endTraining=4
hasContext=f
inputCount=6
layerCounts=3,51,51,51,7
layerFeedCounts=2,50,50,50,6
layerContextCount=0,0,0,0,0
layerIndex=0,3,54,105,156
output=0,0,1,0,0,0,0,0,0,0,0,0,0,0,0,0,0,0,0,0,0,0,0,0,0,0,0,0,0,0,0,0,0,0,0,0,0,0,0,0,0,0,0,0,0,0,0,0,0,0,0,0,0,1,0,0,0,0,0,0,0,0,0,0,0,0,0,0,0,0,0,0,0,0,0,0,0,0,0,0,0,0,0,0,0,0,0,0,0,0,0,0,0,0,0,0,0,0,0,0,0,0,0,0,1,0,0,0,0,0,0,0,0,0,0,0,0,0,0,0,0,0,0,0,0,0,0,0,0,0,0,0,0,0,0,0,0,0,0,0,0,0,0,0,0,0,0,0,0,0,0,0,0,0,0,1,0,0,0,0,0,0,1
outputCount=2
weightIndex=0,102,2652,5202,5552
weights=##0
##double#5552
   -0.3129212792,-0.2893944875,0.0513861561,0.0306923421,-0.1005443767,-0.3916965968,0.4001154439,-0.3243570576,0.0006700005,0.0176578699,-0.1347171633,-0.0941947797,0.0430203387,-0.339685701,0.0890081101,-0.5997048085,0.0630082492,0.3916029267,0.3128374153,0.242238671,0.4431288916,-0.204087986,-0.2117662742,0.9901023624,-0.1070391285,0.0703364307,0.1906791609,-0.3075790695,-0.3867312398,0.1405185171,-0.0789294266,-0.0050047592,-0.0270211103,-0.1059142134,-0.077364726,-0.8452557702,0.2409164072,0.4043305537,0.2475367408,0.3027815024,-0.0708128101,0.064854802,-0.2092125599,-0.1813361485,0.4844385809,0.0843945151,-0.1850210086,-0.1282227678,-0.1324022742,0.1151870954,-0.3364492389,-0.0750259592,-0.1114468048,0.2487071998,0.5975181792,-0.2956124245,-0.091265878,0.0993526827,-0.0718155083,0.1676710338,0.3584140969,-0.1551132713,-0.2477128089,0.3554934498,-0.0849467607,0.1992316338,-0.0634749939,0.23445067,-0.0698875854,0.1852292287,0.179172863,0.3479559427,-0.1748253436,0.3123069841,0.0598995678,-0.1814749502,-0.2604901838,-0.1805210632,0.0521001692,0.3068554258,0.1422008203,-0.3952817007,-1.4623660257,-0.1714057183,0.2981508875,-0.2360687455,0.0675084387,-0.3627498578,0.3119609968,-0.0793013105,0.1420030026,0.0891224198,-0.1916618467,0.0134585292,-0.2019150108,0.05753814,0.3777283992,0.0423374129,-0.1711249762,0.0966513363,-0.2585720754,-0.422689041,0.087706601,-0.7290044913,-0.2562201653,-0.409895808,-0.0864187599,-0.1232343493,-0.728981013,0.0818120553,0.029179656,0.9558732498,0.2239319533,0.3163081864,0.0535158212,0.0462578724,-0.5803133214,-0.1487420438,0.3196789304,-0.6469545875,-0.4259875861,-0.2315989082,-0.2714519562,0.4218340576,0.3345979115,-0.2151789849,1.376997173,-0.2198429903,0.9405703742,-1.1147947121,0.1953814481,0.4968133188,0.045439679,1.0674717161,-0.5320008625,-0.2483006743,0.6671651476,-0.1899745475,0.5065661868,-0.3822240029,0.2320138212,0.2994424365,0.2045778298,0.3241869716,-0.1426340991,1.8680731557,-0.4846566639,0.2262191921,0.0525673457,0.4902185953,-0.4214738358,-0.0734372021,-0.4060851718,0.3893202579,-0.3980310395,-0.0283669608,-0.3269794,0.4258863816,0.984353314,0.0169523077,-0.0972837946,0.1088710077,-0.0959206325,-0.0662588978,0.3288712161,-0.1081948867,-0.4426327141,0.0771666014,0.6181778068,0.1674313595,0.0847504181,-0.1365609514,-0.2757349968,-0.525317535,0.4737220174,0.6550657409,-0.285931075,0.6762671962,0.0141662584,0.2572093009,-1.1409781781,1.2302592946,0.2066214818,0.1561874629,0.3168849142,-0.2803827221,1.421662897,0.7348882935,1.0783536459,0.1360145623,0.9682844368,-0.5804032408,-0.0579641529,0.3593528551,1.2834362804,-0.1621028178,-0.4375199646,0.3457971503,0.4790501486,-0.7588879468,0.550622656,-0.0174963861,-0.0940293568,-0.6087070986,-1.6664978651,0.0782327157,-1.251263512,-0.2175197195,1.5068123709,0.1112960606,0.0447439407,0.1097034822,0.9025512766,-0.1572748115,1.2030226155,-0.3875115855,-0.0741054501,2.1033926269,0.0422548913,0.3047135101,0.8395745344,0.3715388623,0.4816683106,0.8760995675,0.2296546811,-0.8851050893,1.833610578,1.7082051936,1.1313635284,-0.5994131405,0.6274279282,0.87842117,1.4204661997,0.3361261382,0.2206980402,-0.0917239517,-0.5775225674,-2.0041312623,0.6189579687,2.0292190607,-0.1032425243,1.3142147419,1.0216332435,1.8540983458,0.0440841403,0.261661967,-0.5938679225,1.1390885703,0.0776661075,0.5938159184,-1.2327566392,2.3553002518,4.5601915139,-0.9023683726,-0.0541148046,1.3458888932,0.2184965417,0.0385550273,0.3645917687,0.3008316911,-0.6446177576,-0.0320576558,0.1194367067,-0.2807067835,-0.1723010009,0.5127379647,-0.1071258059,0.3724771338,0.6732216159,0.3484560394,-0.298258414,1.7439563626,-0.040434451,0.5296154779,1.0988091603,0.0115293004,-1.4995521851,-0.2694109955,1.7773958309,0.2960981445,-0.0658457637,0.2358711134,-0.6917556879,-0.7345802202,-0.3540371692,0.2517914326,1.1300197388,0.3404845138,0.1509542086,-1.4468520332,3.9920265605,0.3717448532,1.2247028957,1.225557144,0.431947084,0.8332018719,0.6000948098,-2.1219584593,-0.1685812672,0.6972026698,-0.2640097339,0.0560868003,-0.1052580481,-0.1936179559,-0.5633182685,-0.4147481661,0.6615041871,0.6948118471,0.166364552,0.7734547108,-0.2267835335,-0.0100657998,-0.1661294231,-0.7659315459,0.4179693225,-0.1653162516,0.0699850427,-0.0212502879,0.0064761659,0.4678647693,0.2524702575,-0.1740844393,0.4159703307,0.8308679478,-0.2760023314,0.3748232787,0.6662189138,0.3205172538,0.4128131108,-1.6131752614,0.1276172001,0.2318511794,1.1992125952,-0.2590270798,-0.05828342,0.7361173738,0.5722396552,0.1721572532,1.0364857372,0.7180576081,0.9490141945,-0.3809524999,0.2800676109,0.1364871242,-0.8598441374,-0.765805368,0.0236171508,0.4351725091,0.5562447498,0.2548363711,0.5897242241,-1.0409476375,0.4243435277,0.3449570318,0.5383719538,-0.2169787415,0.2044334224,-0.3672114142,-0.8225049558,-0.0294703432,-0.9460220693,-0.1109982859,0.0506424147,-0.4358447993,0.0518871611,0.2990673789,0.7825299734,0.3232019792,0.1096038836,-1.1748120255,0.2609705068,-1.1982750991,-0.0051099081,0.3465511548,-0.0789567679,-0.5690144132,0.1272655637,-0.5532099678,0.1361077791,-0.2353376598,0.0388329102,0.3043243164,0.2147081405,-0.208057078,0.0343496846,-0.0274909829,0.077076426,0.0782570689,-0.2407811276,0.3382438611,0.0456678903,0.2593218037,-0.1459841876,-0.4954686992,0.0593456871,-0.0779729503,-0.3676370958,0.0270645653,0.3320789406,0.0216301299,-0.8807182143,-0.1505750225,0.0311699633,-0.0788829644,0.0751625533,0.3168400646,-0.1290714992,-0.1167798231,0.2215869759,1.3193408501,0.6065895096,0.3485139249,-0.1945198857,6.5084920648,0.0549899226,0.1377427268,0.1341057056,0.0562378758,1.5990354956,0.2203518553,-0.0950680475,0.2423711464,-0.0368788228,0.0619671647,1.196001247,0.5469568951,-0.2018377173,-0.8275398564,-0.2063946155,2.0878999057,-0.2977285058,0.3453018586,0.0841225644,-0.1127122873,0.1557821797,-0.8324031613,0.1175739496,0.1749550755,0.0765573259,-0.3354754316,-2.7673967026,-3.9089768049,0.6104819711,0.85346524,-0.0229091539,-5.6908628639,-0.4182071775,0.2147968408,-0.0875502113,0.2984315555,1.8422580044,0.6914263736,0.2592851364,0.3900517982,2.4790757107,0.7878052441,0.1718654987,0.0596758971,-0.440001914,1.0625300887,-1.4351835786,-0.6712717317,-0.3434946736,1.1134450547,-1.6443429734,0.1157680329,-1.159435272,0.4861865644,-0.1206510429,3.354572435,2.391532344,0.6048158587,-0.4797677487,-0.1587466847,-2.5012184443,-0.0721220063,-0.40237411,0.0984849054,-0.9208321707,0.9070740681,-0.7332464689,2.0061537134,1.0434788845,1.2549652777,1.1530486875,3.7268854202,2.0923048168,0.3610423543,0.7128790233,-0.072692668,0.2421344725,-2.5303197632,-1.9597429884,0.3392138231,-0.1264454283,0.5397034197,0.394850817,1.0679611908,-0.0277967539,1.2783081911,-0.1671723066,0.5703092905,0.1384694372,0.0572158527,-1.176097643,4.2748241474,2.5564807129,-0.2785334814,-0.0116285331,-0.082254645,-0.405486502,0.24172213,0.2945833085,-0.6244705778,0.2627591467,0.1656439252,0.810234485,1.0912228215,0.3826524861,0.2311260056,0.4750749282,0.9460903886,0.6098132454,0.1032510846,-0.4816901433,0.624094572,0.8415328271,0.4226964034,-0.1088988764,1.4697823462,-0.0018976039,-0.2890620465,-0.051188887,0.0328538227,-1.945471345,-0.7148230333,0.0443344017,-1.3622433132,0.4918011943,0.0414358574,0.9385575819,0.7815438282,-2.467410457,-0.3602229793,0.2432066451,0.1282267881,0.1642493916,-0.0548069159,0.064262838,-0.1259713623,0.0792072497,0.0974415239,-0.1792158375,0.6052288702,-0.6878338229,0.4679633922,0.0334463003,-0.123392005,-0.3229538301,0.6258947788,0.0542486648,1.8695270355,0.0845669343,-0.2891730683,0.1294683548,0.4261299088,0.0887607811,-0.1323784331,0.1725371682,0.8955868353,0.0570939047,0.4103868164,-0.0778777911,-0.0115931998,0.0612631909,0.641528508,-0.3262793074,0.6605280406,0.0061949206,0.2405596258,0.9551768652,-0.0736212243,-1.3374436304,0.3504054376,0.3862914795,0.0182953966,-0.1137265198,1.7976370665,-0.676128886,0.0925244309,0.2601246322,0.3469495167,-0.3158150343,-0.0200854731,0.3380203677,-0.0719127934,0.0697488717,0.2981153008,0.2901340295,-0.0490937767,-0.075675417,0.3100194694,-0.5764379243,0.9016903531,-0.0719655709,0.0030112863,0.0807418156,0.9040716597,0.3044916469,-0.2215693922,-1.0686167881,-0.0144201283,-0.3376627056,0.0615905213,0.0855036352,-0.2118078833,-0.3509159295,-0.2954134208,0.232810852,-1.258459418,0.4075523608,0.5750511599,0.4460973198,0.6914456171,-0.0944969156,0.5555001369,-0.6995284736,-0.5729057813,-0.611326517,0.1411357669,-0.1318756974,0.3663414615,0.1985656349,0.2455243348,1.1415639956,0.037319259,0.3160652196,-0.1265783006,0.017172686,-0.0859447968,0.57066828,0.1301172643,-0.0817855593,0.3792961172,0.0886995835,-0.321524613,0.7666616281,-1.9506395898,-0.3753276379,-0.6484363585,-0.2406290371,0.1579810411,-0.1377641971,1.1172352863,0.5506100052,0.0875696232,-0.3866433886,0.093027041,-0.1432733787,-0.8231906332,-0.8774565875,0.1591636696,-0.1928529201,0.0882597339,0.1191153167,0.335346289,0.1451207304,0.1304993594,0.3923032019,-0.3625694201,-0.2390427826,0.1197818917,-0.0441823511,-1.2693333276,0.003946396,-0.2019763104,1.3384892382,0.1972743069,-0.6507237251,0.83137555,0.4024204403,-0.1825556587,0.389778593,0.1403460576,-0.2762994412,1.2802331815,0.1734247693,0.2872926614,0.3332843344,0.4255715235,-0.0273080346,0.4344383256,0.5128232253,0.7202043536,-0.0434094981,1.344055679,0.1574831379,1.1339552459,0.6995501132,0.0511281283,0.9963626876,0.6009156175,-0.1760436153,-0.2070608415,0.3285672812,1.1686344186,-0.0974180198,-0.0268982565,0.0172079806,0.1567013879,0.5698637573,-0.1753471586,0.273802597,0.0017751969,-0.1489501803,-0.8130905231,0.9288617051,0.1825836751,0.2428224336,0.2054056355,0.2631911838,0.2886499054,0.4606843614,1.5890186735,0.2611435817,-0.0793468748,0.0847915346,1.8960989904,0.2206577778,0.1854412382,0.8303987276,-0.9099179174,0.4238077554,0.9375599961,-0.6167149466,-0.1455247719,-0.176670459,-0.216186245,0.570006146,0.0203696222,2.0376245642,-1.1335059468,-0.0291661493,-0.3222070822,0.9244030106,-0.0012122177,0.6812504588,-0.0035626157,0.1897082292,0.3329679459,-0.0263958125,0.8695728864,0.9790154576,0.0540631893,0.737865392,0.492638302,0.0659565101,0.531512262,-0.6847327262,0.5197344216,0.0312468003,0.3110074289,0.2824071424,0.2070158253,-0.35482109,0.2207887945,0.4999543613,-2.246696015,-0.4478185614,0.8418770236,-0.223865146,-0.4684354154,-3.34903762,1.1752314439,1.3668354401,-0.0739750551,-0.9683831431,-1.1496841359,-2.0288594422,0.0685690266,-2.3692411912,-0.4181730848,0.4777301962,2.5672634957,-1.0357700393,0.9985472646,-0.398461636,1.7321674984,-1.0024453195,0.7430740843,0.3060176774,0.4857301508,4.1999887153,2.1474412776,1.9370594895,-0.1461741732,1.8345323777,-0.8820670849,0.3218214926,0.8676265424,0.0033221185,0.0755544575,0.7393732741,-1.175646999,1.2440138956,4.7967117147,0.032086443,0.6575935687,3.8188803109,-0.1532294689,0.0879713717,-0.1687833776,-0.307892131,-0.30697755,0.420669051,0.0476460945,0.3537323426,0.3273617504,0.4552915201,1.2652906418,0.3430654176,0.1038374022,0.5317649059,0.1642696579,1.0048126949,-0.0733602477,0.2226521681,0.2671230761,0.092915893,0.0222124308,0.2178510968,-0.2128547753,0.9178610444,-0.3083090694,-0.3329398391,0.1364472377,0.2466553698,-0.7644551984,0.2264288041,0.1974766913,-0.0062132662,-0.1045558515,-0.2979413229,-0.0130042173,0.2579433819,-0.6851490274,0.3502452625,0.4199239433,0.2612421243,1.5428209611,0.6851427264,0.0327445917,0.0921463517,-0.5973443037,0.4162662292,0.3384522397,0.2147178427,0.5546889166,0.1064487909,-0.0430706959,-0.521557817,0.9984313283,0.0653128572,-0.0141510353,1.0963949352,0.1343955264,-0.0835400041,-0.1697951378,0.0449699404,0.1209616301,-0.4233904808,-0.4829732765,0.1327030188,0.160558465,0.1977487609,0.2545294583,0.0798332466,0.5881309022,0.4881580555,-0.5997163848,-0.2149705595,-2.2087890433,0.0002471526,0.6533258079,-0.0084265956,-0.010283003,0.0945007851,0.3695071261,0.1518586374,0.7810460747,0.1351649902,0.2332688194,-0.2801627061,-0.0868687262,-0.6525851467,1.034816922,0.3297290782,-0.3321705143,-0.7866405552,0.1609017618,-1.916165143,0.580130552,-0.2311936592,-0.2765466024,-0.1360639998,-0.4453322077,0.8417915756,0.6164226683,0.6677608359,-0.1924998593,-1.015019913,-0.1683684307,0.137510102,0.0574796922,0.1621185419,-0.2270994773,-1.1700369022,0.0198974203,0.2997325448,-0.031532696,0.9908717268,0.9893786072,0.1508140082,-0.0249606834,1.2902424681,0.2001243358,0.5612203368,-0.5368212343,0.3371877721,-1.4149837902,-0.1444391154,0.2537846626,0.5214971625,0.1693011883,0.435802315,0.823759073,-0.1505596965,0.9067893871,-0.4301430955,-0.4156359521,0.379234705,-0.0026537022,-0.026336544,0.1457012165,2.3594973394,-0.2077866557,0.3421768919,0.1625985212,3.1766993745,0.5229483325,0.6165452567,-0.0109615381,0.3547860206,-0.0742646613,0.1480835991,0.2489688773,0.3218797842,0.0052401945,-0.1749961708,0.323323575,0.6250180472,-0.2662113812,-0.8298404504,0.5173097173,0.1641772418,1.104948635,-0.1211842477,-0.2092209384,0.2328984007,0.0149718878,-1.8592803184,0.0149801322,0.1817782661,-2.0846864156,-1.4292423911,0.0132576964,-0.1780920654,0.0220867219,0.1362191564,15.9174805774,1.6114260302,-0.4838505207,1.6888250928,-0.1261338316,0.2049860427,-1.6901272958,0.1334482618,-0.3584689152,3.3588126392,-0.3948409652,-56.8339186348,0.3532871898,6.9277752982,-0.1604478193,0.0007367825,-0.0029047487,19.1641054623,12.5056129665,0.0087423481,-0.0467212513,0.1534318939,-0.282809481,0.4920894176,0.1693113689,-0.1223487625,-0.2400245271,0.7371211647,-4.8977513976,0.1891044699,-12.911070431,-1.2228650395,3.9591432199,0.2318350448,-0.4931746218,-0.5986662831,2.5055347666,1.9768068326,0.1906085471,-0.0722060039,-1.2405355316,0.3489553662,1.0966331461,1.0065446875,0.0433029901,0.4241502991,0.2037736279,0.222967406,0.225929897,0.5403604507,0.0848168299,0.6661654871,0.1050842098,0.2138984228,0.3977189322,0.072316738,-0.0490202287,1.1443959257,0.3086504849,-0.0523444974,0.4019073742,-0.0441819418,0.2510400935,1.0466613502,-0.6311873771,0.394822563,-0.4180929959,-0.4324768114,-0.0750060295,0.4516232295,-0.0347519422,-0.0236072863,-0.4712623373,0.5877297291,-0.7559845841,0.267501135,-0.1221086157,0.0088691233,0.1766519295,-0.2277101901,0.0429133282,0.063741747,0.8410838469,-0.2740731433,-0.4703768858,0.1638748585,0.6037450671,0.9330424211,1.1219654206,-0.0311998823,-0.4587549118,-0.2792473541,0.0422490325,0.6616608365,0.1362774918,-0.3752886119,0.2536568971,0.0496952814,0.3301808822,0.0340275663,0.2399351437,0.3139260073,0.7983475078,0.1146432083,-0.1037791282,0.6811239199,-0.1090785746,0.3129853296,1.0605586156,0.3068929145,0.0083004957,0.2281502408,-0.0946281056,-0.3152235849,0.61453909,0.2643382928,0.2096795999,0.1298910287,0.3956418517,-0.4553937618,0.3900247204,0.2085295485,0.0486255198,-0.164806889,0.9150278108,0.4495787569,0.4749303421,0.3200950444,-0.1157325504,-1.0126417893,-0.5661964392,0.4821213031,-0.0499541486,0.0035564249,0.2728899814,-0.0125133109,0.120155184,0.5869788298,0.2178501953,0.5762461778,0.3180389578,-0.0374361597,-0.4897878602,0.2453732247,0.7053753621,0.6811005528,-0.328237422,0.0223857937,-0.001456535,0.1404992275,0.4754140909,0.7061788936,0.6791957556,0.1709751551,0.6763335325,0.0584376077,-0.1076102322,-0.1154486025,0.2831621893,0.4779242882,0.0484610984,-0.2889737114,-0.3315293053,0.3559236406,-0.3728872835,0.0471089179,-0.1272322517,-0.3874402109,0.2143796328,0.7827042492,0.5220546475,0.0286317342,-0.1005379083,0.1606868736,0.3784611042,0.2596326664,0.2575690612,-0.0847434992,-0.1303899289,-0.2448897673,0.2396531119,-0.2293167713,0.5328365903,0.1406509916,0.0788024831,-0.0796104734,0.1322364083,-1.3416741812,0.5335539967,-0.0450455719,0.1433614091,0.5856660496,0.1953876202,-0.3071929149,0.4329236823,0.8209831244,0.6873707478,-0.3465648353,-0.4765304589,0.3451937762,0.2014792752,-0.6427227596,0.2532267842,-0.1314581598,0.6760299499,0.9555903698,0.2593220515,0.383753427,0.5316671305,-1.5605746811,0.3503528653,-1.3493301254,0.3373261644,1.0305610571,0.174941445,0.3222363014,0.2952311879,0.0901280639,0.8909181547,0.641880592,1.5615988039,0.4622983219,0.9704138838,1.2252710508,-0.9278825447,1.1909968202,0.8577068492,0.8298318358,-0.1238756752,0.1919070735,0.2124460871,-0.6874199598,0.4774173627,-0.0280911073,0.7883428161,0.0203994193,1.0438792458,-0.4559812915,-0.4834810716,0.9357024195,0.2583693659,1.1864739074,-0.1163117053,0.5208875047,0.225530144,1.423310628,-0.835356877,0.1303048753,0.0853568459,0.3031264823,7.547527871,-0.0378896148,0.1260402437,0.2944927636,-0.3156779149,-0.9065463319,-0.4626096003,0.4578455998,0.2446988588,0.1902942372,0.0825082289,2.013045916,0.351849823,0.0438432983,2.0520730133,-0.0679652699,1.504157311,0.4669146275,6.9995034192,0.3449213485,0.2117302366,0.5051054255,2.7670523965,0.1500501295,0.0902919455,0.3905457554,0.0022677435,0.846701667,0.0887709669,7.6448853324,1.3806715795,0.3529977218,1.4771265209,0.8935336732,-0.323779366,0.1300917353,-1.3228125085,-1.7384716331,-0.3363669096,-0.0743999431,0.1138307737,1.3359914348,4.2718081819,0.2889504156,0.3060686814,-0.4369637693,0.4880429294,0.1452465079,1.4785299724,0.1208333393,-0.4851194134,0.6114991089,0.132120567,-0.2805043204,0.0538274075,0.1510682299,0.4351262726,0.2261710635,0.0211117316,-0.1083144856,-0.1215946676,0.2182463443,0.5176480838,0.5612684057,-0.0546558169,0.1904459472,0.2552922344,-1.2588888359,-0.0136557882,0.0340320736,-0.2812604059,0.023703748,0.6900625347,1.5227808723,-0.4298454235,-0.1785306211,-0.3528000242,-1.6939428247,-0.110953638,-0.1552104737,0.2273960029,0.0419883487,0.6563824376,-0.2362267865,0.1424679485,0.4691847495,-1.9715356787,-0.2558378756,0.7145372976,0.5074131659,-0.9519622312,0.0535099358,0.4018385672,-0.0074848521,1.0222900075,0.0721619047,-0.369373456,-0.0457951072,-0.0050039398,0.2386146201,-0.6854480689,0.2278641343,-0.1272596939,1.1369791007,-2.8983048921,1.3253476144,0.7941811146,0.2676284512,-1.7482359331,-1.5008796139,1.3732166366,-0.2718867766,1.0237901894,0.1459877113,2.1129060034,3.2140540853,-0.8700480924,2.2684100704,0.0113126542,-1.9964632658,-0.1244539813,-1.6285130577,0.5189337482,1.1864332338,-1.5929206887,0.2153358608,-1.1694171816,0.4565279075,0.9367936227,-0.0815668403,-0.1027969538,0.2190842319,0.2047163623,-0.74128346,0.171356378,0.3120767724,-0.0078394107,0.0902073743,-0.0018640684,1.3819132539,-1.992576921,-0.0104299469,0.0271732923,0.304621262,0.8146176566,0.0464389699,0.364474238,0.5883265206,0.2963315053,0.201944452,-0.6116654722,0.9521055687,-0.9068510205,-0.3171224949,-0.4691968811,-0.1599379867,-0.1885994111,-2.640005575,0.1740901301,-1.495775463,-0.0896045718,1.293703423,-0.4149667362,-0.1977818516,0.2252102938,1.9377659363,-0.0613289219,2.4661013726,-0.4614581598,1.0009089245,0.6058148154,-0.7330060622,-0.950775225,1.1911446992,2.1050396042,1.82530672,1.3501962504,0.4140917078,2.7917055415,0.7992827591,2.7894765938,-0.3832508878,0.126784002,0.2413707801,-0.3546017578,0.1082105819,0.9169574347,0.6157455507,0.1845988599,0.2142592168,-0.0218522693,-0.073714621,0.5240724558,0.9316900794,0.0072334704,2.9571967713,0.6277159848,0.31385126,-0.2750433671,0.3633089169,0.1036003952,0.1687998811,1.1041918244,0.3861029158,-0.1557499899,-0.1378573867,0.4008751817,0.9051417928,-0.5916747871,-0.2202823219,-0.5641525753,-1.0394104761,-1.189640548,-0.3609259126,-1.0935650623,0.1865921484,1.1080343894,-0.5976425861,-0.8486860567,0.0497675656,-1.1186636957,0.4586426567,-0.2155276079,1.1894506459,0.0644378258,0.6348711996,1.5751530412,-0.3577400857,-0.5709462699,1.9636335698,0.0097299078,-0.3066771831,-0.0282164738,-0.892675689,0.5579325854,-0.4315223504,-0.7508674628,-0.2914534602,-0.2482903355,0.3940337786,-0.2279176567,0.393017508,0.2742472875,2.3048742711,0.8148341548,-0.422300595,0.3527706658,0.3672778999,1.3462747596,0.2085923561,0.4763886568,0.3002433448,0.450968949,0.2049758937,0.0503987612,-0.5140107339,-0.1651651525,0.1127696901,0.2876074381,0.3260634688,-0.1939601635,0.2825873201,0.0122836362,0.1626600309,-0.3939082512,0.0693494421,-0.0642577215,-1.8073293869,-1.7700839018,0.6859898532,0.2956726954,0.3484544847,0.7050540167,0.1078861983,0.9544691189,-0.0209544751,0.4425456184,-0.8628130962,-0.0302502556,0.104274335,0.2660708205,0.6316384679,-0.0970426638,0.4524296781,0.5264916703,-0.2148416559,0.4942601815,-0.0364761795,0.0780413993,0.1969168687,-0.0860673637,1.02198559,0.4176034988,0.7076923499,0.5461195449,0.0205088449,0.1602882755,-0.2846376708,-0.2759011878,-0.3226896084,-0.4616151623,0.4635391428,0.0059518903,0.2201815623,0.0836166701,0.2809090937,0.2399195075,-0.2129889985,-0.1630505713,-0.2697431093,-0.1383387219,-0.3836385285,0.7221202804,0.1516473769,0.0251595441,-0.1586766331,-0.3630625717,0.107911694,-0.2165954005,-0.1182955767,-0.025639413,-1.4991997906,0.7262020975,0.2689503851,-0.3316477834,0.6409032266,0.3715950975,0.273104712,-0.7455355218,0.1747080493,0.0935575631,0.2083228636,-0.1121290389,0.0995377732,-0.185565064,0.3628582562,0.1687646944,0.3153874025,-0.0855827302,0.0831142535,0.216834566,0.1859687848,0.2968448431,0.0258476771,-0.1845497317,-0.1558778556,0.1678176171,0.0422144913,0.0293988704,0.0229805282,0.3468814452,-0.5580018316,0.3151106907,0.1906328697,-1.5196631272,0.8693455756,1.0035115992,-0.1948993124,0.2162164545,0.1315616164,0.1210140366,0.2111286862,1.4363769472,0.320740795,-0.0196697503,0.9354693522,0.0881510139,0.3077124947,0.7566352381,0.1974510746,0.1666125645,2.3304996765,-0.1843644238,-1.2975625606,0.9765072648,1.2718735481,0.1463455931,-0.4789075554,0.4030018899,-1.4421464575,0.1021363031,-0.0791216425,-0.4902108861,-0.1439180243,-0.4819689665,0.4933907564,-0.0303833425,0.3871200069,0.0428259956,1.446063068,-0.0863354556,0.2358046363,0.7741013142,0.4687814156,1.2899718337,-0.3863320343,-0.140580508,0.4795634199,1.0188347956,1.5095338316,0.9301485409,0.1061866818,-0.128316979,0.6218735562,-0.05195941,0.2152839751,-0.0980227196,-0.0938776355,0.2405629015,-0.4574944828,-0.4816317154,0.4096983514,-0.1106093393,-0.2157810605,0.4350874982,-0.2513258103,0.5904461886,-0.1311508754,-0.0740960357,-2.5036068343,0.1570223501,-0.2024115942,0.6241913402,-0.195351889,-0.0413428876,1.0745407855,0.4571632901,0.4672886087,-0.1278776242,0.3432284519,-0.0206345653,-0.2141266525,0.3434910709,0.2415656844,-0.1330402026,0.5438851886,0.3491399276,0.9031563212,-0.4136043096,-0.1451458943,0.2919864866,0.3499032182,0.0157560129,-0.2112895838,0.8912619197,1.0760077733,-0.2480768842,-0.4749057348,0.2734948517,0.289820605,0.1266606052,-0.0193847564,0.3242669986,-0.8012236427,0.1792275571,0.1911712224,-0.2676487117,0.2547816063,-0.2007051434,0.2118080815,-0.7204286498,-0.7631897098,-0.6547871139,-0.067652976,0.2631025463,0.4895443126,-1.7340393378,0.1888397989,0.0787362526,0.0536916213,0.7342253178,-0.1013409052,0.0042080964,-0.1633236923,-0.6360527773,0.3834753432,0.9493606839,-0.3335554288,0.313569386,0.0637048498,-0.0179634139,0.0882389668,0.0602974773,0.1199729104,-0.1431803542,-0.0858453441,0.0509749896,0.1621233077,0.7149911497,-2.1189954732,-0.8474850095,-0.2301882477,-0.022564623,0.3543162828,-0.2787502698,1.292813648,0.5516140203,0.043068693,-0.2422451729,0.0556758535,0.2194981625,-0.1682115425,0.2103933009,-0.1756366887,-0.5074640276,0.368146009,-0.227291753,1.1486131533,-0.0331924949,0.1848517047,0.5924409358,0.2484721355,0.3274862143,0.3966673274,-0.012672067,0.6938233964,0.0862423397,0.1197793831,1.2939544842,-0.1081334277,0.1586125865,0.3828538266,0.0314403359,0.1683189668,-1.235424684,-0.0653780434,0.5210845085,0.54534464,0.3108367683,0.5590955146,0.8821694653,0.3122237677,-0.0595037896,0.2266019527,0.3920577019,0.14245954,-0.0248872255,0.5396260643,0.1753049304,0.7279837175,0.3888658551,-0.1412833344,-0.6094210482,-0.1952161231,-0.0233706751,-1.495515726,0.5867343389,0.9163081584,-0.1613396361,0.1335574449,0.5718021405,0.4002001161,0.3143231091,0.2847672216,-0.095499459,-0.6925602013,1.8160285427,-0.9395449271,1.0889526669,-1.2913560599,2.2673382195,-0.0155359477,0.7772774645,0.3396854394,0.4770671964,-0.0149612914,-1.3065427963,0.5714442986,0.0163927131,-0.2427800478,0.4811905784,-0.4105662907,1.5418082826,-0.107485717,0.0517254542,2.120770222,-1.0109671078,1.2714440122,0.6959605856,0.901604004,0.559935563,0.4644941957,1.8319956659,-0.9676229632,-2.4624959917,0.0011806198,0.169341276,0.0181873372,-0.3823719287,0.3651686686,2.0731603189,-0.910760375,0.0442507995,0.3564277993,0.9301110035,0.1313282753,0.0332799563,0.9847902023,1.0170916581,1.2822381149,0.2368136277,0.1418054941,-0.1860767499,-0.0026938719,0.2379936444,-0.5544705318,-1.1463638187,-0.0957585915,0.24598786,0.126923273,0.1928226707,-0.7461617906,0.2918216319,-0.0438309635,-0.1969763739,0.7135554068,-0.0689727789,-0.1268767026,0.4802621995,-0.0423985712,1.6447905629,0.253171038,-0.5059755185,0.3004647465,0.3943534244,0.0858698744,-1.1549988088,0.1477987641,0.1065704337,0.8863494075,-0.0789090969,0.193766787,-0.0031552275,0.5693589202,-0.8111817627,1.0344699466,0.907013273,0.2112760783,0.1043771531,1.2025701179,0.2101549665,0.589270706,0.3260941757,0.0936732518,0.0820905569,1.5445694413,-0.0890542394,-2.0905585037,-0.0225194314,-0.0513018277,-0.4549244176,0.4054850331,0.1495907636,1.4913282151,-0.049928539,-0.0176399303,0.2374700201,-0.3028162597,-1.0753322825,-0.4600979672,0.0857349525,-1.9490619465,1.4258425124,-0.8186998147,0.4174438359,-2.097619694,0.2544951224,1.938901665,-0.6868256074,1.5976209013,0.9812457525,-0.2973049022,-5.0746014212,-0.9046709855,5.7521210222,-0.3228517249,-1.5047043003,1.1587415061,-0.8223365443,0.7560004892,2.6138094196,-0.5629400955,1.2208048221,-0.6203591806,1.7824703874,-1.2059454955,-3.1910239295,0.65023039,1.2828953878,2.6412105769,0.2661261415,-0.9620492639,3.0462463601,-3.436413523,0.0926724707,1.2721382454,-0.302260023,-0.2727901588,1.0682806152,1.2016020736,1.050733418,-1.5670905714,-0.5094595631,0.0783388436,0.0690387186,0.3200412262,0.2148285839,-0.3806150835,-0.5819145251,0.6943105267,-0.4748163716,1.1057257921,0.0269253663,-1.4924483884,-2.2296357686,0.2266732712,-0.2144899734,-0.1913514118,-0.1605861972,0.3345433146,-0.610193953,-2.0837653966,0.7776898492,0.1329279655,0.1235736198,-1.5126902149,0.0154034183,0.4308296691,-0.2120527288,0.7296001245,-0.1815340182,-0.3290933382,-0.204847389,0.02403544,-1.9370955767,0.716617741,2.4473267723,0.6556420011,-0.239472112,0.6530999812,0.5400441796,-0.4539791913,-0.1829449944,1.0304233324,0.2178764966,-0.6095420569,-0.1259954732,0.0563897021,0.9573797266,0.2495410022,0.3816877299,0.932894233,-0.7722712461,-0.4982271211,0.8878937323,-0.4407077986,0.0088595066,0.9130511327,0.8661854116,-0.2685529175,0.020725667,0.5121102877,0.5166844642,0.2225562542,-0.6357415026,-0.0074835305,0.2669380811,0.3498607331,-0.4908097309,0.3586554424,0.1065490026,-0.1726238784,0.2631107573,0.0795234438,-0.1217144632,0.2176768477,0.4578978329,0.2865876344,0.5853755992,0.1445772009,-0.8999697632,-0.2669505594,0.0842361863,-0.1689565998,0.6233802202,0.182873052,0.6789878249,0.3469619306,0.2204085473,0.1232463361,0.0562920017,0.0998923647,0.1763052904,-0.0803035058,-0.2735207802,-0.0585418957,0.0614119141,-0.0339494181,0.3420719456,-0.0926099665,0.2113790678,0.1617841545,0.4684284748,-0.1196769944,-0.063669545,1.1307669693,-0.1137661719,0.4109911245,0.241895351,-0.5705639001,-0.259918523,0.3051044574,-16.5756871296,0.1882478196,-0.0193101345,1.3995606796,17.4667802737,-0.1033964898,-0.1724163863
   -0.0885225882,-0.2332276962,13.0884473823,2.0608945145,-0.0243628227,4.7390178668,-0.0192072067,-0.1199169936,0.4799072362,-0.2767784454,-0.236230239,-0.8028617168,-0.6997195877,-44.8693150492,0.4800529243,0.7506425123,-6.4734486801,-0.0191452184,-1.451177024,22.6563817209,-1.1278779797,-1.497989871,-0.1039460224,0.1406051556,-0.0194601119,0.1815541169,0.4919156557,0.2205985881,-0.1318422394,-9.4309249877,-5.537482369,0.1703125602,-1.5249106321,-7.5690595537,1.0141966751,-0.1669038361,-0.081521911,-0.3054993022,2.4075805864,20.6869879551,-0.2479062294,0.0839810842,-1.6123580846,1.4514433714,0.9155076243,0.794754546,-0.312078674,0.2375932814,0.0551058522,0.2402290311,0.5777359345,0.1107150646,-0.1098536981,0.45550614,-0.1236703057,0.2052695244,0.4416782099,0.2800990304,0.2285924604,1.4066584609,0.2084743141,-0.1846463826,0.1676961401,-0.2398680953,-0.1329191206,0.3707675783,0.0793927225,0.1339087597,-0.4744054599,1.6670753207,-0.0759046534,0.0217135334,0.0292796741,0.3311330794,-0.5592244703,-1.7865907053,-0.1036600108,-0.5095596652,0.7405290059,0.1886688633,-0.0702616413,0.4404655084,-0.0391459491,0.0153105484,0.3220420166,0.4927378733,-0.2933232469,-0.3316210349,0.2399333422,0.7555618682,0.3397820229,-0.4316897737,-0.1826989048,-0.4311298809,-0.3759308872,-0.4543766225,1.0920540595,-0.0661343298,0.242431433,0.3463997133,1.7476038416,1.8507862168,0.4475098712,-1.7289602617,0.4719197941,1.822910774,-0.1777910966,0.2662362755,-1.1558259,0.5850996053,0.4178024272,1.4266294301,1.2439738872,-0.2204151408,0.2020279475,0.0081688451,1.2069248053,0.1893661021,-0.7953624256,1.4367076725,1.7800798814,-0.3121779776,-0.5406500931,0.2041721091,5.9107041868,-0.659758231,0.7747254514,-0.6404732933,0.3424994628,-0.4589879676,0.102486837,0.1655525961,0.2970579592,0.4863452981,-0.8786980803,0.6082308019,-0.0266648531,-1.9365460347,-0.1363771188,-0.0423521499,0.0596291179,0.0145185855,0.7740609375,0.6205576449,0.0278029888,-0.5567906053,-1.1081389766,0.4327943143,3.222727038,0.8498701626,-2.1846531873,-0.9102919026,-1.8396738645,-1.7592749839,-0.2123854224,0.3160331438,-0.706367404,0.1218909544,0.5549839676,3.571112749,0.3936180299,-1.5937654783,0.1799139076,0.3599890119,-1.0745128114,0.2309083131,0.3729153368,-0.3543708448,-0.2188200864,0.1384066278,-2.4764099438,-1.7400297688,-0.1155739075,0.1966264424,0.373492375,1.3372780703,-1.8678299515,0.6358501106,1.5293174503,0.6556932509,-0.097232224,-1.4822712897,0.1415494546,-0.7902627929,2.9046938629,-0.5630354058,0.0972916865,-0.4595735459,0.4784955173,0.1649653854,-1.6713764965,-0.1764256482,0.6249581883,0.2503611758,1.1352334606,0.2295855475,-0.2673134672,0.2242332779,-0.0014344029,-0.330392902,0.3376144177,0.3391426894,0.5211487018,0.2663184219,0.1798678621,0.8531934424,0.5817944252,0.466438164,0.1673055224,0.1268017433,0.3276330044,0.0174486633,0.3838763834,0.1009413076,-0.8775189364,-0.3217053577,0.8246542959,0.2930922004,-0.0140419315,-0.0992465247,-1.326952413,0.8611508585,1.2210576135,-0.2629382114,0.1969527162,0.6888439852,0.769347714,-0.0204324243,-0.3284037397,0.3237913267,0.2887611324,-0.1390117496,0.0604007785,-0.1542975731,0.622062294,0.0061746779,0.456103661,0.1899153107,-0.0604667131,0.3959904695,2.0194114968,0.1827163551,-0.0771881942,-0.3546792383,-2.3116248248,0.2452131137,-0.0635239595,0.7787608589,1.3267505664,-0.4875703734,0.0048664766,-1.9616678288,0.0761851719,-0.1341101615,-0.2395751347,1.6100032144,0.0037900423,0.5424805765,0.3431467583,-0.3320980982,0.520905394,0.2103453608,-0.1222519884,-0.1333239622,2.4617830031,2.0451153867,0.3120684149,0.1649151535,-0.0374655981,0.4747996163,0.1008569312,0.0936101407,0.6436630103,-0.7225533621,-0.0780483214,1.0495953664,1.1379133482,0.2075515603,-0.5150467734,-0.288027597,0.5891384851,0.5148957862,-0.1273113328,-0.3286326315,-0.2739307557,0.2682510285,-0.5806293103,-0.1102561061,0.2129672308,-0.0953308889,0.787244943,0.6723612118,-2.1847585122,0.8543967928,0.2627623068,0.5251207488,0.1814740636,-0.0447521377,0.2257721918,0.08342859,0.2697816419,0.2046598302,-0.3202382835,-0.2305024611,0.0417556495,0.7263018865,-0.0444239144,0.3821469399,-0.0641726787,0.2402433359,0.1247640308,0.0657035761,-0.8660570266,-0.3557063936,-0.1565789872,0.1220058052,-0.1267195446,0.2616734121,0.2513370108,-2.4807841043,-0.0158540451,-0.0881630443,0.0492765668,-0.3484723302,0.3102145861,0.1664955739,0.1051956334,-0.7214884812,0.0423883714,-0.0020041262,0.1114184755,0.0300054019,-1.6694191361,0.2472941254,-0.0507182314,-0.8114469993,-0.251458209,0.2714927552,-0.2296353059,0.1327202763,-0.1959201214,1.4832965624,-0.1375600164,0.2143534134,-0.3936545402,0.2135244477,0.1203421051,0.1619704761,-0.3359622978,0.7324746177,0.2685062343,0.672576332,1.3842675164,-0.1020691897,0.1949556204,1.0901796527,0.7744269992,0.8245270749,-0.1000371496,0.3269170679,1.0373293849,0.1644582859,-0.1504985977,-0.4577865608,0.079840315,0.3546935552,-0.5331884098,-0.0809413021,0.4865049604,0.7934598029,-0.5587716837,-0.1397872948,-0.4286050332,0.2315923563,0.089256584,2.078853196,-1.0717707107,-0.3012151582,-0.014005662,0.1675045946,-0.5424476779,0.0234227478,0.5909707301,0.1527662949,-0.0353729315,-0.0001393511,0.0013305155,0.1032576573,-1.4520062652,-0.1638320003,0.0742223508,0.0785096557,-0.5052207572,1.1582934973,0.5101225403,-0.2403596256,0.1483501067,0.8096057586,-0.0822803683,0.4532912826,0.0614758069,1.3313392111,-3.5562363543,0.2806491378,-0.7256468895,3.3391330695,0.1425593444,-0.6793507231,-2.0900560526,0.2243662311,-1.6546580105,1.8335027316,-0.2558600933,2.1698033807,-0.290016871,0.1625164341,0.8014855917,-0.0468062522,0.0116408534,-2.0042152644,-1.160526651,2.4752634404,4.6961591979,0.4963236931,0.6107473198,0.4875373552,0.321717248,2.9666665888,0.8379021367,2.0306256326,-0.5615529072,4.4623921897,-0.5860200809,-1.2182480994,1.3621801555,-0.5051793978,-0.3130800332,-0.3996224113,9.5919813423,-0.5599576356,4.2095099841,3.8015606235,-0.4310726743,1.4848866856,-0.4309313671,0.1335096753,-2.2899384941,-4.171170453,-1.0743844561,-0.1314841286,-0.1788166856,1.6993982612,2.0204074221,-0.3998908209,0.823849126,-1.3922566692,0.1133895896,-0.1910058874,-0.1303063208,-0.7398911929,0.0797766085,0.3545812264,0.9942355592,-0.0009329523,-0.5452592356,0.485463235,0.1309570904,0.2475325083,0.3912407322,1.1199599975,0.4701285804,0.2656259437,0.5330022074,0.5625688953,-0.4353333217,0.4932423799,0.2568162642,0.9357446924,1.1991958601,0.8101578335,0.564871993,-0.1074733437,0.1564325423,1.0203750621,0.791313968,0.2023443448,0.0173982851,0.1944189871,0.0789856555,-0.4476158209,-0.2510804549,0.9883310289,0.2931377916,0.0212977042,-0.330130578,0.2096109042,-0.6064328533,0.3280442609,0.6733754378,0.3688029274,0.1301213915,0.1852359365,0.5666976879,0.4727887214,-0.396901599,0.9552143358,-0.0312936707,0.0938459871,0.4470629211,1.555564269,0.19290141,-0.9532861365,0.335999929,-0.3106320395,-1.1612080391,0.2142449239,0.0852923519,-1.1192062853,0.2726809138,1.0734707873,0.1820967216,0.5362810237,-0.7571780604,-0.0315837371,0.5549007635,-0.2171701981,2.3266869229,0.4404584483,2.170448094,-0.7262201942,-0.7246550946,0.4802205529,1.1797072329,0.3507779152,-0.4472857991,-0.3318242133,0.3888909627,-0.5119765177,-0.3280846107,-0.0577898231,-0.0752558318,-0.3558947427,-0.033460635,0.5076546248,0.3126229955,1.2994509478,1.7035513947,-2.8767047209,0.8197244528,-0.2384308372,0.013028899,0.6146569834,-0.379522205,1.9628407664,0.8905741891,0.0944162739,0.7817011738,0.1435656489,1.6914486766,0.3129833421,0.5141266854,0.0941471665,-0.0491642809,0.8086209064,0.6829509663,-0.0032078033,-0.1453751425,0.2785260944,0.7821166731,0.7921842636,-0.1159434833,-0.2867924745,-0.4474301244,-0.2550461893,0.2432590218,0.1797191949,-1.0371034932,0.6220351744,-0.2235488704,0.7836744521,-0.7306809701,0.7852991762,0.2873711202,-0.2086519291,0.0395138797,1.8673659455,0.043336742,0.1617357799,-0.2191830402,-0.0198192812,0.7278924707,-0.33552455,0.0345075314,-0.4363571629,0.7269458766,0.7310102804,0.0636354133,-0.6389688131,0.0871980282,-0.8919591952,-0.5780542135,0.5946612936,0.2682767789,-0.2836067569,0.9098110845,0.3197504459,0.1556580463,-0.4532393762,0.1561862226,0.6260383893,0.2436958861,-0.2933486101,0.0164030918,0.4430221774,0.2667778174,0.4917772348,0.1114783436,0.1270923892,0.3126761738,-0.0712986986,-0.0372634726,0.135003792,0.7031250447,0.6521716397,-0.0645054411,-0.1257188957,0.4673204309,-1.1795177844,0.3444719341,-2.3437407818,-0.2161597251,-0.0500823744,-0.9444637616,0.149442628,-0.8021220552,0.3972584592,-0.4199273816,0.1990208179,0.4388154077,-1.4635869675,0.3986521156,-0.9325720056,-0.618501907,-0.0945170001,0.7383150116,1.2969812722,0.3183384078,-2.3577912924,-0.429910449,-0.2796597804,-0.9229030984,-0.1740314634,0.2134311314,0.1034398111,-0.1052422878,1.1632306554,1.5239255701,-0.2354571531,0.1506167041,0.1268935146,0.1783922895,-0.9520882443,-0.016779893,0.1770618251,1.1046565536,0.4514447891,0.6085265606,0.0741310525,0.3365457295,0.1933948141,-0.465773623,0.114622262,0.3220669085,0.0890925415,0.1994798767,0.0082633129,0.4611136144,0.3238670389,0.1483593956,0.0690527984,0.0216444091,1.6706992171,0.075037641,0.1237316333,-0.1706389506,0.8973163787,-0.0047370932,0.4983386927,0.3388166618,0.1350728734,0.0124432487,-0.0432411877,0.3862388835,0.2268394866,-0.0117347485,-0.1919428136,-0.1341999541,-0.0433398717,0.5905832268,-0.1737723847,0.5089156371,0.2182963972,0.1154568828,0.2959174459,0.2841529095,-0.0559362833,0.3741740918,0.2370513698,-0.1365994488,0.9212116196,0.0714128295,-0.0318390164,0.1879364285,1.0359721027,0.1272142704,0.2390284118,1.1254836717,0.0213829825,-0.0166850004,0.8288478325,0.2788726517,-0.1554960147,-0.519854724,0.4713432118,0.9961893771,0.3884487064,-0.3952557506,0.4760637386,0.0940772209,0.7378161208,0.1294760457,0.4266508144,0.6908657789,-0.0796691041,-0.6950059807,-0.1577363205,0.2850123485,-0.1339163928,0.2736989039,0.0989067376,0.2818276021,0.1218917394,0.5955905835,0.9495406088,-0.8509904949,0.2384186119,0.1805052453,1.6172413674,0.9104331904,0.8962552311,0.3537186003,0.0289405311,0.4678638621,0.2074024757,-0.7084893284,-0.4843352035,-0.1922202077,0.1807942829,-0.857309136,0.0399742755,1.0911789123,0.1692673854,0.0663944821,-0.9788717944,0.0266551175,0.293801174,0.4120183092,0.5402071789,-0.0538932185,0.4411783755,-0.1930984104,0.2570197897,-0.3393001056,1.1763591557,0.4290792642,0.0428871505,-0.2587586713,0.0988719279,-0.1346092641,0.1184075919,-0.1816644816,-0.2270137206,1.2240626985,0.0428017297,0.0627537202,0.265585793,0.2894276689,0.5280410011,-0.0010651118,0.8689964693,0.1064700738,0.5093223202,0.4634419238,0.8656302722,0.1571355147,1.1298890938,0.2842218183,1.1593676857,0.0469823035,0.5671541315,1.9339036418,-0.5040683818,1.0536127113,1.0114521412,0.1132332246,0.8823169554,0.7481012836,-0.1364073371,0.3367551984,0.6821183224,-0.1633486708,0.1587063779,-0.0993391539,-0.2133067729,0.9683618676,-0.5577050985,-0.1904997408,0.2938723376,0.4686595073,0.2853840851,0.4358926642,-0.2205451393,0.2873967514,0.72096707,-0.3258730382,1.0052277875,0.1547964264,0.1052026096,0.6603754391,0.3307844381,0.3841436588,0.0680785779,-0.1995053356,0.1525734338,0.2782417102,0.9873696785,0.8946701353,-0.29759208,0.9860713221,-0.1894404365,0.2386171222,0.3668670908,0.1957525472,-0.4456684972,-0.5151905421,-0.6310308331,0.3557071065,-0.2458174187,0.1330021601,-0.5276089782,0.4920379065,0.2605486694,-0.2101263357,0.5657008501,-0.1264390317,-0.4297196967,-0.0539189668,0.0556471875,-0.4103923211,0.9130694116,0.2066213316,-1.3185749405,0.2315131749,-0.1182007509,2.495403285,-0.1980299867,0.1153049981,-0.0939004179,0.5072731714,0.4426600093,0.1295777897,0.1098234559,0.0230130022,0.1356290252,-1.0483786091,0.1765483043,0.4089043834,1.5245613934,0.2049289718,0.1094681303,0.2418843587,0.1371507763,0.9761895844,-0.100067414,0.0646951138,0.5354232631,0.3849503267,0.0330615229,0.0488523981,-0.1953725122,-0.0982603081,0.1233822684,0.2010131565,2.4586968546,0.0889272411,0.070321705,0.2965438861,-0.0062405328,-0.1778335021,-0.2540162048,0.8835379093,0.0399571649,0.4423877833,-0.1783383059,0.4216642392,0.1745213145,-0.0772936042,0.0753925315,-0.0193581935,-0.4404442936,0.2230508671,0.0690488043,0.2158063608,0.5785822579,-0.0512825595,0.2341385219,0.0553010263,-0.1070627009,0.3604733995,0.5548847666,0.6378240745,0.2353629235,0.2304586406,0.8822678542,-0.1659536565,-0.5731330343,0.4275983285,0.1003225069,0.1033213702,0.1815028625,0.2383526924,0.2312622776,0.2351212926,0.0319638191,1.5090198126,-0.8046924756,0.2812246928,0.3967038674,-1.022055978,0.7467766617,0.7575892597,0.4343774552,-0.9247495035,-0.0076653066,0.1475252029,-0.4350982541,-0.1841222494,0.356260433,-0.900938928,-0.0604625375,-0.0157964615,-0.3643473345,0.1155496828,1.3329518486,0.6293613218,0.2037529615,0.6057583063,0.3903216901,0.7183568579,-0.4175978717,-0.0901900279,0.4640347093,-0.0680001688,0.041003671,0.3234512079,1.1378798698,0.2578144559,0.3775911658,-0.1490236481,0.4296930701,0.5556392028,0.392339989,0.2285276088,0.2637201006,0.0445702434,0.1433233108,-0.2390722074,-0.447142196,0.0235746632,-0.2154081055,0.5341990108,-0.0933376991,-0.8175032332,0.2339989321,0.1853279702,0.1659635124,0.1413210634,0.4348667961,0.2068267273,0.4701065946,0.4102761916,0.71928368,0.4933720935,0.3334166102,-0.005153568,0.2493291929,-0.1132496222,0.6455463462,-0.1271337269,0.7494486731,0.3149049513,0.1515140285,0.5312507366,0.0089242348,0.6790611176,0.1890165618,0.3576588935,-0.0312820378,0.1489852984,0.1680730637,-0.0471832064,0.0007782197,0.8225044154,-0.2570085893,-2.1635334547,1.0420104041,1.8014434004,0.1548123526,-0.0517561437,0.2706352356,-0.0833271422,0.6844421569,0.4485772392,-0.1716759817,-0.4801297337,0.6915633613,0.0640089547,-0.460628697,0.1284873633,0.2199698841,0.1804015644,0.56540709,-1.2385583174,2.4219278626,0.024821178,0.6601439682,-0.2147397719,-0.2982608452,0.0062898609,0.1130805394,-1.945952304,-1.4977055593,0.8093660822,0.2033357862,1.2520616201,-0.0682805257,1.4044116776,0.0778071987,7.4462509113,-1.151409532,0.172183638,0.4389994911,-1.4694567834,-1.1137069894,0.5869491776,-2.2948462747,-0.5374510306,0.0924146012,-0.860341639,1.8973114966,2.0009535348,0.4058470715,0.2278284685,0.2774440999,0.6486436996,-0.5223927991,0.1028581265,0.3091765325,0.0720461648,0.7207027345,0.0800776597,0.5169713192,0.7989970314,0.1770461525,-0.3995829177,0.4017350213,0.6127510651,0.2335916384,0.7508119499,1.1925809769,0.3282245687,0.13467432,2.338262712,0.8339976836,-0.4840908104,0.4460728723,0.1605773001,-0.8316950037,1.4921914394,-0.0129234376,1.3099414663,0.6422951438,-0.0034974867,0.6541919314,0.0081539696,0.0970257524,-0.0434783926,0.3412781698,-1.2697897937,1.1817155395,1.1097801594,0.6870967438,1.2619222605,-0.0405985292,-0.7264055229,0.6105814765,2.0811938652,0.0261417018,-0.828567484,-0.4873564601,2.1460344654,-1.8152637127,1.0097872596,0.1729747848,0.9419037592,0.1116542708,0.3508453259,0.3266195866,-0.2525923554,0.4017646748,0.3211349018,0.239121534,-0.2678779691,0.4424136697,0.6341748979,0.355827236,0.3094922114,-0.2246260673,0.3665081374,0.1558044039,0.244767292,0.908750683,-0.6521125069,0.0394437792,0.3112396575,-0.0722362164,0.3248256752,0.3053300199,-0.2150244629,0.029972326,0.480499618,0.3039363103,0.1903785961,-0.4385705459,1.131937725,-0.290264641,0.1233835913,0.4798954842,4.7765224584,-0.2607166751,0.5062000082,-0.0610500037,-0.1306572838,-0.4784525129,-0.2213411381,-0.0973834583,0.2417487091,0.2508469125,-1.2520224936,0.2205442427,0.1958419131,-0.3902229798,-0.0801137998,0.2488610317,-0.3712709463,0.7735181639,-0.0005259637,0.5578432661,0.3423774713,-1.6945322371,-0.0296955192,-0.2561538064,-0.0593585671,0.0155917363,0.6317247275,0.3121256386,0.8886910411,-0.6116492424,-0.0006113825,0.2102145247,-0.2173132039,0.1605092825,0.2483434671,0.224111302,0.1567122023,0.1164614704,-0.2477300078,0.312576442,-0.0365961783,0.16864036,0.3753995697,0.2026528744,0.476243459,-0.1157464125,0.0683130281,0.4523475759,0.0346805174,0.3988182787,-0.1206034061,0.4551800659,0.0577953194,1.1225711888,0.3444029209,-0.1529064693,-0.1882794341,-0.8586226502,-0.2886969496,0.899424217,0.0313212214,0.4759686136,0.599817126,0.2203326513,0.3011911609,1.7554197978,-0.4722501915,-0.3646870894,0.4010029813,0.3560364946,0.4124978456,0.0538077431,-0.0909964031,-0.3681280353,1.03162163,-2.149383331,2.6505102591,0.3826659315,0.123223698,0.6088660659,0.284362808,0.4061536402,0.1714369349,-2.5914795841,0.147994453,0.1070983832,0.1727809812,-0.5200068424,-1.1905544914,-0.5955247366,0.8447891655,0.0837866272,3.1363874657,-0.5304800626,0.2982654714,0.6470141951,0.4663193453,0.2025604895,0.2506117378,0.696009519,-0.119280068,-1.9808806596,-0.8859682079,-1.1138563055,-0.2935274118,0.0406522906,-1.3776040478,-0.288054445,-0.0175033674,-0.0686722112,-0.8699645582,0.6503322138,0.1706682222,-0.563410097,-0.3545581238,0.6229417501,1.2723064049,0.0225097895,-0.1169336631,1.6617818946,-0.8090555601,-0.0032678173,0.6086168665,-0.2342358482,-0.0469150283,0.4490740211,0.6212626295,0.1066455531,0.3603381645,0.5115602091,-0.0350041711,0.1035067928,0.1555332804,0.1134798563,0.0247584284,0.5724512609,0.4216083542,-0.3114698658,0.2237089573,-0.2820370464,0.1464960363,0.3958077252,-0.5543684421,-0.1024496574,-0.212522177,-0.0141309827,0.5159664254,0.7686101636,0.0536890398,0.0475263858,-0.0724146537,0.2680563449,0.2685936904,2.2901807503,0.1514323423,0.1820695681,-0.1175622735,1.5974678336,0.066143758,-0.1720231055,-0.5660501492,-0.3545081407,0.7013185897,0.048926562,0.0912783366,0.6173207839,-0.0235740986,0.6072324247,0.3314701325,-0.4347085186,0.1015763956,0.3875012299,0.1407321529,-0.0941217532,0.5838887974,0.1320663159,0.1102239047,-0.4449662908,-0.0618609853,0.4514001962,0.2384363839,-0.0611893302,0.1114096194,0.096543431,0.1369652181,-1.0518396551,0.3577999266,0.2240861912,0.3239763052,-0.374862385,0.2102871569,0.2945668511,1.4137090798,-0.0546430137,0.2808489165,-0.2744819659,-0.5237659916,1.0282554308,0.0381205768,0.1113956314,0.0650355475,-0.0750884922,0.0802586237,-0.3591767808,0.3485587329,0.7856295427,0.2427743277,1.1338578935,0.549072515,0.074360202,-0.4228564108,-0.2810488643,-0.1900459216,0.7555615459,-0.0065852753,0.1375323511,0.23788118,0.1145991328,-0.244606978,-0.0641263821,-0.4910756924,0.3588604653,0.1134943695,0.0894525828,0.7260858553,0.5254657007,0.765055527,0.3352562753,-1.6020266062,0.2021962672,0.6513622858,0.4193743485,1.5486740522,-0.2946205765,0.7824598779,0.0411646837,0.3294519776,0.1202671387,0.2282204321,-1.6916240992,1.0664830267,0.4248569703,-0.6008694404,0.1694534972,0.3499674884,-0.7932089566,0.1728449249,0.4427659062,0.9610936213,1.2944519881,0.1272887659,0.82471609,-0.0512287192,0.0789721139,0.1990335821,0.4940858408,0.1812067769,0.4943124872,0.6522724702,0.5030171024,2.0378682901,0.9029694264,-0.2842554756,-0.0672374125,0.8485324872,0.3181641189,1.8056754825,0.080401979,0.0672307373,-1.0100055126,0.2033791816,0.0605560485,0.9786354472,0.2929338128,0.2092474126,0.0412149078,-0.2351512777,1.3334641244,-0.3205062382,-0.1483558387,-0.2502166673,0.350880592,0.7292752692,0.5961568551,0.1566742871,-0.299335792,0.1604352647,-1.7108985837,-0.1460890495,1.5300411266,0.8341338263,0.2209539564,0.2435104941,0.1267446794,0.2921933965,0.9140427296,-0.2402108759,0.3062209152,-0.4435413213,0.2030162385,0.46430011,-0.2406131108,0.9045063724,-0.1447095145,0.6370664196,0.7956936225,0.7934905481,-0.07405429,0.1330601272,0.1554029411,0.0829687436,0.0124312746,0.8340512317,0.5191309636,0.2537965464,0.4619780345,-0.7122455209,0.3466672162,0.1528170977,-0.2129429133,-0.0603321012,-0.0236526112,-0.2257178499,0.3711716995,0.1811868408,0.1451202768,0.4441667921,0.2780832504,0.3280161797,-0.1690737203,-0.2008704176,0.1187140343,0.9497515297,0.481573793,0.5118398765,0.5530372992,0.1612851614,0.06937134,0.0675200552,0.4532579324,0.2234307023,0.348795674,1.0022188911,0.1839855158,0.3224434957,0.3647037099,0.2264492564,-0.0798219109,-0.2022549439,0.2632376474,0.1984984458,0.3249252926,-0.0938161287,0.7329296025,0.2320108526,0.3647021068,-0.0486194807,0.241305432,0.3067798529,-0.0001525281,0.0292687531,0.1651536406,0.0930303736,0.7958618147,0.0487783183,0.2392970919,0.7842043762,0.1373749712,0.7523971076,0.210228578,0.1800665979,-1.3059694982,-0.2216852513,-0.331952314,0.2916063323,-0.1299802667,-0.0762473969,0.1691238997,-0.3377924088,0.3423132315,-0.2351201956,0.1340741497,0.3180395011,0.2232155664,0.392830601,0.1529547197,0.1056977404,-0.0355902391,0.0583046506,0.1477118148,1.0464791432,0.2737764641,0.4538610815,0.8737918288,0.4411002595,1.1286524015,0.5679731979,0.2065879393,-0.249493727,0.6406299494,0.2138866803,0.1085629518,-0.1403718883,-0.1812304684,0.1796696079,0.2444632085,0.003556783,0.1506674743,0.1166582061,0.2407701265,-0.7218972796,-0.1584845034,0.6591559679,-0.0135628803,0.3568341104,0.317097961,0.2717601949,0.2765786694,0.5103212066,0.8527714997,-0.232923706,0.0950056059,0.8327745285,0.3195745719,-0.2470867606,0.6174354606,-1.0215553363,1.0539432583,-0.2754132148,0.3139225284,0.851695584,-0.2794526418,-0.8271502405,0.166384695,0.9772639285,0.3018055338,-0.0784263297,0.1983553514,0.3019165362,0.2958565107,0.3074357256,0.4976968981,0.4637301637,-0.2677915036,-0.0963542829,0.8374363948,0.3814783516,0.0875145673,0.1110896929,0.011251005,-0.9750361996,0.2937794565,0.2218738851,0.9930822978,0.0501961446,0.1934667821,0.2875720769,-0.3563942772,0.0344255163,0.1336129652,-0.3616759418,1.0673539974,-0.0485115398,-2.0861224127,0.3974420138,0.3493249966,0.4765337846,-0.3179202453,-0.5211244147,-1.2328862596,0.0574410008,-0.8599754229,1.312371845,0.8653523882,0.1875604016,0.1977508159,0.290949959,0.040358356,0.0259798027,0.5344884601,0.1056825219,0.5854110481,0.6064966545,0.2380965942,0.280994344,0.3588360822,0.1793889171,1.0437664685,0.0205125655,0.597453497,0.0398571691,0.4413119267,0.2536660035,0.3157435557,-0.5454372799,0.7335658317,-0.1485057206,0.1779855645,0.5460970412,0.316191094,0.3003076932,-1.0404900368,0.3639553261,-0.1344186997,-0.0216543968,-0.6448000619,0.719454759,0.3643002132,-0.0865723338,0.1393173358,0.3417583457,0.4940455675,0.4811552476,0.0038699891,0.2671356862,-0.0807030897,0.5412081704,-0.0203088683,-0.2205386818,0.0164777381,0.0985690106,-0.7763565686,0.3084615017,1.0698682652,0.2036083108,0.3192697528,0.4324670899,0.0768005127,0.8744949239,0.4485447628,-0.0541556851,-0.1109684024,0.0366801767,0.4282162127,-0.1346151438,0.2250545098,0.2261793762,-0.8345325367,0.6972564638,0.6253101815,0.1050275322,0.0487185854,-1.5433719046,0.2855381658,-0.0337108696,0.2163437674,0.1727884049,0.0630572431,0.1543562935,0.6292489897,-2.1892797308,0.1694300965,-0.0307279272,-6.4484388448,0.6750179311,0.0119492118,0.3492734488,-1.0815403529,0.071299077,0.2064154676,-0.0946745226,-0.1375855504,0.3621783093,0.1191530725,-0.0528265858,2.303817236,-0.0593543724,1.7154272097,-0.1494161067,-0.0677358849,0.3042647825,-0.9941661318,-0.0102508276,-0.0237754436,0.0577825937,-0.4272528152,0.1063121681,-0.0947397286,0.4393801191,0.4182842041,0.0371427089,0.3747290698,-1.0893844879,0.7994186938,0.5014546823,-0.0041280334,-0.0186819774,0.7064992948,0.2733975617,0.4346482741,-0.2640504973,0.2814186041,0.3231694748,-0.2671984807,0.2186536448,0.1962571209,-0.0860502259,0.0751670249,0.18535606,0.5011958042,0.4057392682,0.0684176916,0.3036046104,-0.2947197602,-0.1793036109,0.3523681196,-0.0550808817,-0.5827651561,0.0337463854,-0.2473326238,0.0001392391,-0.6588991239,1.3264936172,-0.2596936106,0.2002551839,-0.1418346375,0.488619239,0.0813107154,-0.1935278486,-4.2614640078,0.3022688527,-0.3507479728,-0.1987723825,0.0068162364,-0.0759253278,0.1965084692,0.4452320003,0.0132473227,-0.4749862854,0.5611789956,-0.9130745777,-2.3367723486,0.2645080148,-0.3146882029,0.1780291367,-2.0899958606,-0.3667849362,-0.458442403,0.3068832468,0.5995243722,-0.566543627,-0.5087985979,-0.3618664274,0.2819744947,0.2193620298,0.3193823517,2.9509379033,2.2383277718,-0.1036215946,0.1623861618,0.1468248697,0.5091827811,1.9997009963,-0.2854098809,-0.0639149175,3.8944767742,0.3855819246,-0.2369743406,-0.0505273065,-0.4023479394,-0.2557526395,0.0419082509,-0.1403285217,1.7755794705,-0.5193087272,-0.3662490096,0.239495627,-1.3442239255,-0.0395717056,-0.0871692636,-0.1053122749,0.1043821249,0.3097811443,-0.8030085632,0.3217664808,0.0833276204,-0.4213614658,-0.3835782035,-0.0408953,-0.8661235376,0.7045878934,0.1581433435,-0.2670379607,-0.2614177011,0.090971592,0.0926985936,-0.0879785412,-0.1224747064,0.132770136,0.6387413463,0.2495223681,0.7980108073,0.4674370117,0.2536558054,0.1909411477,0.3310646188,0.0168314449,0.0931027944,0.1152527128,0.466492582,-0.039451121,0.1951178518,0.5909425918,-0.01860436,-0.2330295198,0.3772183774,-0.0334523009,0.4447426599,-0.0077490174,0.2889287015,0.5474047617,0.0656690734,0.0873915834,0.0274296608,0.5125241406,0.1877080187,-0.1137778742,0.0617164256,0.6823911963,0.1527393302,-0.0393059534,-0.2473220372,-0.0494935925,0.5558841761,-0.0280551898,0.0615738447,0.1466221261,0.2290114255,0.1400080884,0.3923659481,-0.2915991988,0.1858289104,-0.8786017934,-0.538983082,-0.2188828251,-0.1757810882,0.2669137355,-0.1274634741,0.1717579503,0.3476858718,0.4962976805,0.3490755057,-0.125036521,0.5509822868,0.2067725356,0.0408234184,0.1653822869,0.6539442519,0.326634205,0.2875411638,0.6042911175,0.4986685849,-0.1334440301,0.175140838,-0.0827894841,0.4390227842,1.6043703473,0.1913067307,0.1313688783,0.7388374836,0.1857397141,-0.0033506661,0.3032078531,-0.0369837176,0.0202301152,0.4380189775,-0.0811595698,-0.5704983757,0.3382976545,0.0412549243,-0.2175255516,0.4273407485,-0.3469003393,0.4471135349,1.1257667015,0.2437494307,1.1007699428,0.3608807064,-0.4168212414,-0.8450764038,-0.3324634819,-0.4533825538,0.362017778,0.2504662752,0.2659401724,0.4377307619,-0.5650410803,0.0995853278,-0.2586177789,-0.0827726686,0.224891664,1.6587038815,0.4217599041,0.177318729,-0.0340011732,0.200669264,-0.1618577873,-0.0012677409,0.3101580477,0.0933779156,0.2522490242,0.2506758173,0.3550520617,-0.7332770948,0.2369853407,0.359108294,0.3179672897,0.5041397227,0.0753001729,-0.0066288536,0.100299122,0.1201285511,0.474698431,0.571139087,0.3229728097,-0.2453199488,0.3399701925,-0.1097961855,-0.7644167913,0.2568163543,0.1421665029,0.2063251816,-0.0363185318,-0.1499957671,0.1675653855,0.0411856795,-0.0480204338,-0.1586596455,0.0167427851,0.5785951736,0.1963627054,-0.881960981,0.1471329346,0.2991966556,0.227214882,0.6626042304,0.540232714,-0.2517969852,-0.3188050578,-0.009603343,-0.2002889007,-0.3107410405,0.1301454329,0.7251260659,0.1277818468,-0.0307857162,0.4268587593,0.1221476834,0.2656134978,0.2318260782,0.8787474646,-0.104229458,0.1619910592,0.2518687387,0.2660190363,0.1888464333,0.0071228831,-0.2913020418,-0.0593703826,0.5623540406,0.4980888948,-0.1685286088,-0.136291482,0.0025878228,0.2722251224,0.1731567775,0.0563666525,0.2942725389,-0.4490915351,-0.2103188989,0.1089339575,-0.0417197745,-0.266291356,0.6532796663,0.3253425866,0.2235976575,0.9180205572,-0.1670781452,0.9421704687,0.3777275854,0.0981524697,-1.4130778684,-0.4644944356,-0.1887612825,1.7857036385,0.461386855,-0.8049857002,0.1290576586,0.0521495076,0.2955134005,0.4789472234,-0.6528562041,-0.238721594,0.3167255346,0.2421223112,0.4460656487,0.1524555879,0.0979742003,0.3846869645,-0.7436710162
   -0.2304134005,0.4758728633,-1.24321251,0.4532579341,0.2193582033,0.2425478493,0.164859969,0.6570351858,0.0189965153,0.7234717598,-0.6354019821,0.3839772378,-0.5340770067,-0.2116874567,0.5279512709,0.0858736514,-1.029681457,0.702471415,3.9338268404,-0.2420515058,2.9844508789,0.0113067088,-0.7908825881,0.0160018634,0.5922805454,0.1243864722,0.4456507872,0.9351860851,0.5495708669,0.4740528854,-0.289680268,-0.3362223525,0.6115047059,0.0428029823,-0.193396462,1.0885515602,0.4540800071,0.0008900095,0.5060082623,0.0688419912,0.4264269784,0.6038640774,0.0223945426,0.0924303896,0.7474813286,0.2304284169,0.443152351,0.4443160464,0.1438818569,0.2647137818,0.5796163649,0.8451721578,0.1842348218,0.6378624928,0.1701862859,-0.308592364,0.0266143766,0.4875252702,-0.0763814248,-0.0747050072,0.5871175474,-0.1337030078,1.0751877896,0.1581571678,-0.1342296598,0.4169085155,0.2803556161,-0.4442120638,0.2101030979,0.7521046693,-0.0114986278,-0.0239143011,0.8632574296,-0.6381403835,-0.124645618,0.0786861739,-0.4743902327,0.6302983463,0.3322342141,0.0906968812,-0.2151730288,-0.1235482701,0.1834647898,0.3720651117,0.3011671779,-0.0358005214,0.7193403497,-0.0016821815,-0.636491039,0.0467478795,-1.0835147846,0.4047664032,0.8352817252,0.2144211599,0.2296925815,3.1376521909,0.4568535528,0.265743719,0.3824263943,-0.7468618377,0.2046344978,-0.1097631483,1.5406542716,0.5503476272,0.5513448429,1.0129599645,0.7563068915,1.065649163,-1.1281997963,-0.3838800457,0.4935980934,-0.774676012,0.16773881,0.8986372278,-1.0552544769,0.7280347445,1.9779553534,0.4795695447,-0.9901697918,0.20362101,0.2221324307,-0.1305816206,5.9755308462,1.074064295,-0.4434439017,0.8878253335,-0.5575933929,0.6099093731,-0.2679708239,0.0974768625,-3.0808911351,0.4499397694,-0.6290813874,-0.5140290828,0.588425986,-0.6616262308,-0.1895723527,0.2612565814,0.455245152,0.1193337228,0.0492223444,0.1943568171,0.0612514629,0.4773704202,-2.1403260026,-0.2175797913,0.3236841074,0.7023785285,0.3854806719,-0.2929179694,-0.8868998343,-0.0656990381,0.214104686,0.0155152931,0.0339197993,0.393365356,-0.6375449765,0.1363097396,-0.4067653029,0.1912385906,0.3505553554,-0.1539073807,1.6890495673,0.3386401045,0.3115517796,0.3645991675,1.9198872287,-0.0658862538,-0.524597388,0.4371828848,-0.1905577529,0.3242037073,-0.1499903795,0.3966303183,0.4195071984,1.2426272371,-0.2807300778,-0.1065353506,0.477233466,0.723782223,2.1514407945,-0.8903587251,0.359749211,0.5631214867,-0.7077420777,-0.0875559096,0.0783736294,-0.0488179532,1.0486140556,0.0371558715,0.0809124435,-0.1931661035,-0.20647411,0.5125280986,-0.0904917148,0.3020982936,-0.0288712007,0.550790704,0.3756779874,0.4869507579,0.6269879505,-0.1905437169,0.20370046,-0.1042279106,0.2559089077,0.3290925317,0.4080385141,0.1238894706,0.2247118709,0.3707443046,0.2603713349,-0.6116957042,-0.0794848079,-0.0585764849,-2.2554593923,0.066882264,0.4301092655,0.0292046164,0.7940768397,0.197652016,-0.071065702,0.1504023706,-0.1678445779,0.0511469198,0.3586305011,0.5401724494,0.1699328566,-0.6737552201,-0.5060463791,-0.523490031,-0.3609147681,0.1843590101,0.3415749503,0.2877792002,-0.2084794626,0.0202071205,-0.1266052403,-0.000251909,-0.3213780012,1.0041126759,0.1756117405,-3.8458963032,-0.0458045365,-0.0870094693,-0.9134797739,-0.2066534355,-0.1365351881,-0.1833946904,-0.2189870788,0.0851428942,-0.3061501185,1.2336776924,-0.1124799769,0.1840947822,0.2930479699,-1.1700392216,1.3308963132,-0.742908615,0.1570798715,1.133398915,-0.447482589,0.0228075258,1.2712187014,-1.391107763,0.5909282016,-0.0323905163,-0.9371538036,1.4581375576,0.9385338119,-0.7483829601,0.6627869344,-0.1956696449,-0.0540930635,0.3758693533,1.4335269542,-1.804700708,0.3305392043,2.1862446147,-0.1596468729,1.325150433,-0.7616640213,-1.648044128,3.3170296135,-0.4891743866,0.3154059379,1.0251660693,-0.4788581176,-1.1206743416,0.2021378507,-0.4442413626,0.5843778528,0.4759321619,-0.5077017883,-0.1852036767,-1.3599678536,0.6791984423,0.6602375676,0.1320249659,-0.0219155698,0.6598079227,0.3604761758,0.4378418129,0.1800891321,0.1568440521,0.142902337,-0.3339732826,0.2793305339,0.5927250242,0.1579348301,0.2656083724,0.2743879388,0.1274954554,0.2137092286,0.0731879837,-0.272302574,0.0609728069,0.1169535969,0.5256031277,-0.3774518124,-0.1880372167,0.3669216107,-0.097108886,0.585751512,0.6551625024,0.9997687696,-0.2155034184,-0.1037299325,-2.0541060581,0.378170305,0.4544191575,0.1262914137,-0.4266682011,0.3980091815,-0.0452025062,-0.1757328511,-0.6041653135,-0.1455224544,-0.0284962635,0.2144981723,0.105796287,-0.3865583082,0.355197215,0.2522311157,0.0806528413,0.4200735032,-0.2704859278,0.5494439741,0.1673224413,-0.503319096,0.7919053344,0.284215705,0.1570999346,0.639223849,-0.2387881083,-0.3502871556,0.2188019044,-0.7293362107,0.1743580693,0.807881784,0.5802144961,0.3859526709,-0.5772118515,0.4433303154,0.6241543712,-0.1043922185,-0.2907044261,-0.0613381509,0.170416565,0.8231438098,-1.9344301592,0.0973738923,0.5913336279,-0.3774451115,0.5368471457,0.8934681043,0.1901570899,-0.0618411949,-0.1254400788,-0.1424637767,-0.3066965003,0.521857969,0.3290709768,-0.1473167697,-0.5655960202,-0.0300263068,-0.3001626063,0.1556493427,-0.3001470062,0.162179622,0.0248539726,0.5189061441,-0.4345903155,0.1974184168,0.3768615667,-0.4232394939,-0.276816973,-0.0175350423,0.020636532,0.1125710399,-2.4143292085,1.1131228511,0.4354851735,0.3951263528,0.3179264731,-0.1538821394,0.2022254876,-0.0963589514,-0.0198708568,0.1384870386,0.238315843,0.1954486121,-0.6212212151,1.0043654611,-0.2352092649,0.7129948917,-0.2015094165,0.9416549186,-0.3556467464,0.3341958631,0.4896947448,0.3882233348,0.4237061955,0.0753440211,0.3902438432,-0.0832684513,-0.5129076348,-0.0072355099,-0.2959043953,2.8882713213,-0.0455187314,0.2225734331,0.16981422,-0.3385473634,0.165745064,-0.3895134066,-0.3578391481,0.0652488084,-0.0951625847,0.5942374262,0.0265975034,0.2472957743,-0.0127075561,-0.0716317337,0.2432433832,0.9523052884,0.5802787186,-0.1728352905,0.0700501075,-0.1566073989,0.6346240625,-0.475729499,-0.2012486134,0.0681946787,0.1189596061,0.2061706906,0.4675933528,-0.1755731261,0.4807958651,0.1077813685,0.6908423094,1.0063190584,-0.0605497315,0.4076456296,0.1454887943,0.0430543715,0.2744063629,-0.0582992165,-0.2707060373,-0.1692483838,0.2278550143,1.1596127514,-0.2627989282,0.0199914486,0.471101368,-0.2908465128,0.1691033153,-0.2189019503,1.0507114489,-0.197235591,-0.3865189082,-0.5148072938,0.3995391379,-0.0894459401,-0.2370042039,-0.806574035,-0.3300289745,0.4579141971,-0.1069124483,0.3892333742,-0.065529065,0.1416300415,-0.3026467028,0.0635858394,-0.696962473,0.4351401234,0.5852371277,0.0092191453,-0.1489898462,-0.6557085185,0.0721514846,0.056722758,-0.3904694898,-0.0291976304,0.242810248,0.0877636029,0.4414068768,0.0699013901,-0.1744132214,0.220130139,0.0768656894,0.1869641418,0.5477081408,1.5929678335,0.2024117691,0.2391229558,-0.0242213709,0.4405717837,-0.1424825853,-0.2843378909,0.0377526868,0.1339526862,0.8953097605,-0.5309286572,0.080868795,0.2403612397,0.1288992259,0.2987451624,-0.0212365425,-1.1025039044,-0.1249156206,0.3074569539,1.3604037667,0.0487186836,-0.1792409168,1.3480073875,-0.1771680777,-0.0388502051,0.1598821777,-0.377921805,0.4602323623,0.0317846459,-0.3202396973,-0.2518871622,0.0570461012,-0.1317871292,0.4638745675,0.43406095,-0.563487888,0.9819241178,0.2291549244,0.3436257927,-0.2119746703,-0.6757014818,0.0128729451,0.9570976375,0.0972521034,0.2063080843,0.4089862687,-1.0843722408,0.1435264393,-0.1905844592,-0.0073384547,0.3019478313,-0.7947723351,1.1454532078,-0.8272933435,1.4327288552,0.6481631825,0.7045751786,0.0658659585,0.3056740856,0.0154375103,-0.9122277719,0.9091257291,-1.9449782595,-1.0234057424,0.3216169479,0.9862774498,0.1110182848,0.4211827302,0.5187392422,-0.9752259047,1.4567105729,-0.289515347,1.1316212997,0.3537160229,-0.5796689667,1.3162048644,2.3360591121,0.6794975167,0.2665256646,0.5770424493,1.2502384677,1.1650290279,-0.6478117561,-0.364882218,0.1882738087,0.8810566089,-0.155979459,-1.1687771187,-0.5422205699,-0.0478065757,0.6249332018,-0.7146037689,-0.2224435615,0.3618330407,0.0728351884,0.5793204664,0.3584094502,0.1162466554,0.0048243788,-0.3645756953,0.7797618634,0.2264582549,1.8862464135,0.0135886194,1.0087611466,0.4198686931,0.4686627948,0.1101311341,-0.1515001999,0.054061519,-0.1050510794,1.1969536075,-1.0067691757,-0.0267894099,-0.2153937179,-0.3008518256,0.2890820364,-0.790174719,0.0336007549,-0.3338613423,-0.3117020922,0.2157720067,-0.5767773754,-0.5259180013,0.0611731006,0.3580665997,0.2688928598,-0.2447529574,-0.2852178143,0.0362270286,0.3405140323,-0.1076147752,-0.0962789713,0.2613977207,-0.2586313055,0.8559284948,0.2386257642,0.9871184649,0.3071581327,-0.4731229009,1.6326023313,0.2748348083,-0.0108483199,-0.4474243783,0.0830225931,0.818787403,0.2826657812,0.3324671381,-0.4315737502,0.5542535936,1.4923680719,0.0300117901,0.042496722,0.4027692673,0.2334709015,0.2640063182,-0.0783521359,0.2347346332,0.1712171893,-0.4089567185,-0.0859431608,-0.2649358315,0.3713326682,-0.2763664938,-0.5030474678,-0.3493027877,-0.2153688087,0.155835836,-0.6852626246,2.2943888165,-0.4903845587,0.0505138162,0.1921723451,0.3493516591,-0.2469030405,-0.3860913909,0.1381580807,-0.0657689267,0.0503489849,-0.5156975551,0.4736754184,0.0241075088,-0.3640185525,-0.0008066844,0.1378579931,-0.7057605021,0.8717960313,-0.0397896686,2.4560324502,0.7854443519,1.0233847369,1.1299537603,-0.6997956482,0.2382076113,-0.1113702849,0.7365510348,0.2071870958,0.9203529515,0.3286320623,-0.2076779141,0.3379075865,-0.812313867,0.1057019209,-2.2360838027,0.379034028,0.4513251051,0.5914825727,0.5576445214,0.2292456083,-0.9067015877,0.404599478,1.110518588,0.0087001503,0.0935492295,-0.1143320193,0.2659226849,1.4916608219,-0.189190488,0.4160380329,0.1790835313,1.9695378736,-0.2999662493,-0.7720970953,-1.8934507318,-0.2015567092,0.1526932757,-0.3753831492,-0.7726928927,0.1487102071,0.6128974575,-0.1078640461,-0.7180401253,0.054057991,-0.2325165783,-0.3294019548,0.4664621503,0.097625113,0.3680140781,0.2420311118,0.0657217767,0.4316755745,0.0051413325,0.2068112839,0.2147025512,-0.2925962809,-0.4420202861,0.0713504649,0.5403403263,-0.0563758031,-0.188098063,0.1285687199,0.0561645985,0.4924129825,0.2315415723,0.4364500835,0.0497031794,0.5784277912,0.0024449966,0.1656869344,-0.1560469839,0.2999993197,-0.2009185408,0.4491079865,0.3250675162,0.5363213437,0.1098285216,0.1177086413,0.2581504394,-0.1709406446,0.0164198947,0.1921239704,0.3998760308,-0.2264273422,-0.1860030077,4.8817823675,0.0589005268,0.0557112343,0.0395546743,0.3314621094,0.0442671502,0.8713516041,-0.1692868282,0.1063994619,-0.0533543417,-0.1697179523,-0.4430551022,0.1282845403,-0.3901923945,0.3906287303,0.2189210605,0.4462134805,-0.5505734128,0.424094325,0.260494737,0.2600963474,-1.0906746644,0.0230647143,0.1637709031,0.3446804886,0.512536817,1.2293941032,-0.9289682115,0.1071562624,1.2272460098,0.4413321658,0.8789630369,0.5452052199,0.053088564,0.0287344773,0.4043167583,0.5407616168,-0.1319177462,0.1731576926,-0.3510944845,-0.3335243056,1.4246419091,-0.7743514581,0.1068191747,0.3262726587,0.0087296561,0.1913453724,-0.340349604,0.2973406011,-0.0713601075,0.062465476,1.540787961,0.2161524963,0.6151247947,0.5365401248,0.163620654,1.2469335239,0.4743364149,-0.008434624,0.9455515952,0.70975759,0.2695596725,-0.1562101441,0.2380644959,-0.3648509094,0.5089003353,0.3742555329,0.2270749554,0.3907101196,0.2531912947,0.138440237,0.4007196781,0.0745683063,0.2456410795,0.7270142836,0.5916698593,0.1830519072,0.2708994505,0.6159956015,0.2922591497,-0.0188147091,0.7737665922,0.3361089046,0.4254287924,0.3734089107,0.2188757713,0.1416537102,0.4297834611,0.2290964877,0.1684486917,0.0385403642,0.5559266094,-0.078100454,0.0264130071,-0.0228063808,0.6694716621,0.000009122,0.3199691062,0.202545121,0.3477006172,0.1073303537,0.1424141483,-0.0581167851,0.0370038117,0.4458686012,0.3388329244,0.3460581603,0.0141719875,1.0356781669,0.3091079952,0.4238231705,0.2762932034,0.0190171894,-0.1947343686,0.2816793345,-0.1905349324,0.5642111885,0.4052520422,0.665508778,-0.3297626858,0.0830543867,1.1633655849,-0.2321785242,-0.1725786966,-0.302386956,0.162651596,0.2613947611,0.190817712,0.5890639834,-0.7136011154,0.4137081545,-0.08566932,0.4657855053,1.5233226761,0.6685574997,0.3952182905,0.0144830805,0.1670743931,0.3649795693,0.6272108015,-0.4184442031,0.2805125532,-0.2939781092,0.5762642688,-0.1863256785,0.132358315,-0.0004672854,-0.5125614112,-0.5481618663,-0.098185943,0.8737593191,-0.3665279173,-0.7883847661,0.56408758,0.4374130176,-0.0520021661,0.6414729278,-0.0044731002,0.2912090263,0.3997499948,-0.4959397509,0.4901508248,0.2987826042,-0.3261804954,-0.2420164697,0.0998112044,-0.5703234148,0.8752351496,1.1607203953,0.6085703899,-0.1056845761,0.1083127622,0.2217024152,-0.6765514786,0.2670667578,0.1917001707,0.9674574292,0.5166429793,0.3602321897,0.3207675649,0.1238208001,0.1141325889,0.054915518,0.0758877822,0.1695152988,0.9307305849,0.1448632127,0.0765188338,0.0955554124,0.5876605901,-0.0380666433,0.2686554476,-0.0434503864,-0.2357077302,0.170315353,-0.0130992864,-0.2728017465,0.5213625804,-0.0060451257,0.7040600364,0.0974112378,0.6851743436,0.1139769604,0.4534024287,-0.2476181707,0.2400996821,0.2549560598,-1.1189607794,-0.5486179643,-0.677184755,0.1837626978,0.2679336865,-0.1649220952,-0.2280055234,0.2434572693,0.0956868155,0.0290446988,0.1484688391,0.2166347828,-0.4608804125,-0.3190472859,0.1780999514,0.3661776285,0.2125879536,0.1167994551,-0.0419874973,-0.2802944213,0.6501351114,0.3316088585,0.2055557575,-0.133100705,-0.1498066701,0.077328921,0.2490117165,-0.3475335417,0.1619126896,0.7482524538,0.8570271954,0.1619121587,0.0695127241,0.2697624429,0.1962986333,0.0930202315,0.3780933176,0.0304991687,0.415241997,-0.0140503284,-0.4495065571,0.3848832694,0.4323341266,0.1450884136,-0.2006940585,0.4242404788,0.328636807,-0.3791694936,0.166747345,-0.1828273819,0.6772477173,0.1823122917,0.740980213,0.4125277402,1.0586690461,0.0207289341,-0.2031959492,-0.5299532393,-0.3329964847,-0.3656708928,-0.5489766428,-0.2448552004,0.0096793513,-0.0861184042,-0.8861869604,0.9783140127,-0.6806834271,-1.2581739578,0.2399476747,-1.4726794535,-0.2581377599,0.3410788336,0.3834446832,-0.133725644,-0.5033993894,0.0295797585,-0.5513740789,0.1895014541,0.1256642484,0.3873703878,-0.4717675751,-0.5476516718,0.8481481359,0.8872159631,0.3044535793,0.5049217895,-0.032900216,0.3813581737,0.2088626465,1.4175409281,0.8206081313,0.4824654917,-0.1614729256,0.3067521886,-0.3765503663,-1.3965854342,0.1007798317,2.4000075366,-0.9917561549,1.000162405,-0.6463353286,0.449624865,-0.2064484902,0.8569385038,0.8453275712,0.9934924879,-0.0277378374,0.8308055508,-0.4785257413,-0.0509342261,-0.3298354566,-0.4899767735,-0.0458984867,-0.2184809358,0.4397460856,1.7884928602,-1.4374591837,-0.0939125581,-0.6025831497,0.4787160438,0.1840588181,0.4380636957,-1.3610874958,1.9044193592,0.1147091268,-0.0062039259,-0.7074570893,-0.0043758067,0.1946615381,0.4616270004,-0.5163482592,0.006543947,0.0118313157,-0.4829031216,0.1910709739,0.1791173665,6.0998185645,-0.1122650519,-0.198402541,0.0843988932,-0.6618548993,0.3489019804,0.0249201152,6.4034501918,-0.2386792083,0.5201450546,0.3397097217,-0.5482231924,0.3833850337,0.6057441067,-2.9130467916,11.4841371154,-0.7577301744,-0.5482317705,-1.910869302,0.5034125538,0.5145817666,-16.6755068801,4.6409643898,0.5794888269,-0.2887528072,0.536841361,0.2532156536,0.7061791743,2.4222277546,0.6924968937,-0.9033508816,-0.3043149752,-0.5696081902,0.109426997,0.5170058482,-0.0932954472,4.5583298995,0.2621813822,0.5163126238,0.2357353966,0.5768377223,0.1472359698,0.1878364097,3.2875172152,1.0553390918,0.5183900086,0.3318266154,0.4480927176,0.4205962674,0.1304136909,0.6795424552,-1.6426226856,-1.9650252487,-1.9938976656,0.3635190119,0.6260771488,-7.3880039963,1.5828265313,0.1095313912,0.0994701644,-0.894764791,0.3264902897,0.5384363934,-1.8841503165,0.7956139031,0.680927541,0.0553492271,-0.4924278684,0.049075305,0.3566321666,1.3052899401,4.5670487955,-0.0176175846,0.2373660103,-0.5044142147,0.146380121,0.2536723942,0.3868509658,-1.5854911684,-1.354195073,-3.7134843887,-0.814120135,0.3162189341,0.0244797141,-0.5718447573,0.3309750675,-0.0892908598,-0.0671968624,-0.2754770889,0.2928244001,0.1747926361,0.6313186918,-1.5192428853,0.0879731592,-0.0139448414,-0.0789501037,0.6551797108,0.645375012,8.8804574767,2.5746529788,-2.269398982,-0.5697470859,-2.4685773305,0.0662381549,0.184861164,-1.1665050161,6.1278330344,-0.1327235535,-0.056607786,-0.4154035748,0.1034198478,0.4530456521,2.5442461146,1.8781202593,-0.0043636594,0.4578608393,-0.4143511521,0.5982251608,0.0384735055,2.9617275077,14.5429807043,-0.4531023264,0.1376892045,-0.5647160735,0.3542677103,0.2774480401,4.4744412075,-3.429955829,0.0558516385,0.3305083627,0.1432674641,0.5861706984,-0.2189190384,2.0075586908,1.5904336486,1.0423603038,0.534625435,0.465518569,0.6320729279,0.074054258,0.4334220827,3.9497346427,-0.2713609835,-0.5029906432,-0.8650930376,0.0660730438,0.6200360842,0.6200557894,9.8866529179,0.2155801889,0.6031797053,-0.6050189529,0.3776614385,0.0040146605,-0.6526362935,-0.8970627388,-0.420474242,0.0630977,-0.4885159153,0.6750319131,-0.1753326571,3.1524032241,3.4505913797,-0.1667925446,-0.6793763097,-1.2320647625,0.6489908597,0.6118134471,1.489145978,3.3853084672,-0.002125578,-0.1079205853,-0.3104088197,0.3316264929,-0.0490257889,-0.3252645905,2.5772298703,-0.0210128515,0.0470089551,-0.22024858,0.4251157695,0.2777593918,0.7600074997,4.2205223335,0.3720743133,0.4434045519,-0.4143997002,-0.0818927246,1.4702835405,-1.1399259258,2.7617133316,-0.2396696044,-0.1517100528,-0.7928603707,0.1719850254,0.5501718637,5.4405869526,3.9646649967,0.3092733152,0.5563759991,0.1046788058,-0.2779538802,0.7344954837,-0.3897677409,-10.3934218861,-0.2449788126,0.0913814275,-0.938000553,0.0807066706,0.5570854322,0.9548511338,3.3863410817,-0.8567931376,-0.5199668175,-1.2278815621,0.5600666949,0.141297759,2.3806267523,-1.4797372058,-1.0508266458,-0.1902924031,-1.6870316608,0.0805813937,0.3003143028,2.7234562613,0.1309121123,0.2906401222,0.2900101006,-0.6805064373,0.0864478375,0.5666464904,0.362643721,54.3040838077,0.6923298113,0.2895616755,-0.2445268265,0.0465035743,0.0131749605,104.8418419626,9.5184905949,0.7324644995,0.1676051847,0.567215559,-0.0282113778,0.5669743663,0.8616057111,-0.6497170075,0.2656394675,0.2575435812,-0.1941252814,0.1174765051,-0.1171157929,2.3323154501,6.7930544582,0.1570651276,0.1312020527,-0.6238606588,0.2971707184,0.0560479758,20.7508307402,-3.3620024987,-0.9244194187,-0.0035205524,-1.9143362277,0.1583356473,-0.0373386192,6.6144219581,0.6328067748,0.0533659422,0.0513416234,-0.4963775814,0.5500944647,0.005911976,-0.7214327857,0.3481968365,-0.0568378949,0.0527470573,-0.390361507,0.0376456349,0.0063432314,3.998481607,-0.4258734412,0.0682513664,0.0361226195,-0.5248692212,0.2059639771,0.8190558483,-2.2733821853,-5.0429599633,-0.0592610576,0.1962706065,-0.1613511145,0.3719168567,0.2583732383,3.9580278895,11.9042312259,0.7866922934,0.1616912845,1.2136859936,0.9353030885,-0.3385564336,5.8227922311,0.7811118146,0.5574129076,0.3543235571,0.841769894,0.6241920009,0.0743420745,3.8568574012,4.9847471833,0.2637359956,0.460826202,-0.7378785676,0.0666913354,0.1362638804,-2.1180169434,2.8085621072,0.2174228484,0.0673226311,-0.5706417993,0.4435921218,0.5091024789,-2.4336342097,-3.8007914265,0.7355744021,0.3109310593,0.3976077868
##end
biasActivation=1,1,1,1,1
[BASIC:ACTIVATION]
"ActivationTANH"
"ActivationTANH"
"ActivationTANH"
"ActivationTANH"
"ActivationTANH"
