encog,BasicNetwork,java,3.3.0,1,63634099428355
[BASIC]
[BASIC:PARAMS]
[BASIC:NETWORK]
beginTraining=0
connectionLimit=0
contextTargetOffset=0,0,0,0,0
contextTargetSize=0,0,0,0,0
endTraining=4
hasContext=f
inputCount=2
layerCounts=2,6,26,26,3
layerFeedCounts=1,5,25,25,2
layerContextCount=0,0,0,0,0
layerIndex=0,2,8,34,60
output=0,1,0,0,0,0,0,1,0,0,0,0,0,0,0,0,0,0,0,0,0,0,0,0,0,0,0,0,0,0,0,0,0,1,0,0,0,0,0,0,0,0,0,0,0,0,0,0,0,0,0,0,0,0,0,0,0,0,0,1,0,0,1
outputCount=1
weightIndex=0,6,136,786,861
weights=-0.229213728281102,-0.105007534107237,-0.0489573504021954,0.102625170364877,-0.0488337279047827,0.0575403555830135,-0.151584210227858,-0.157940738009928,0.104668021907901,-0.0531481586434152,-0.0657216714930794,-0.120272358499678,-0.210067832931438,0.215271502700531,-0.228957216208316,-0.431575787864307,0.116245919285535,0.125261687632496,0.27328742143695,0.0498853740371174,0.217886785559444,-0.335069083851028,-0.0627523914848182,-0.261447770772885,-0.26963028072048,-0.11700529588727,0.00568447901475816,0.180004640272301,-0.360445003779225,0.259932721227924,0.0604602966355332,-0.424142678701753,0.0361961269778389,0.179218293592813,0.237049102708427,0.225146675542967,0.12501873018391,0.0452610877803656,0.300965774143279,0.0526852916449962,0.0366533488843377,0.216627174832602,0.275157775222017,0.101560988054866,0.387094106074208,0.40263651989545,0.374485617324619,0.153537687599663,0.314489625870765,-0.0358630821422385,0.172766915992414,0.236563679411129,0.314586330185579,0.0722901533236368,0.135698241988163,0.18170545197845,0.324665343832712,-0.194485277487025,0.116392058345526,-0.324291134555202,-0.46601903390417,0.10605384857277,0.0884833001442964,-0.189222000247094,0.105362510346052,-0.0280793970006023,-0.216281382352517,-0.0252713722138221,-0.051075014070396,0.0860388073216457,-0.022066658382217,0.00793741744266964,0.111798177637145,0.114831164166954,-0.10628894047222,0.093360378549771,-0.0413552659591169,0.136938884608245,0.00314275347583519,0.109079526568919,0.0961517858610403,0.105899055563024,-0.142464019973464,-0.0546900547455275,-0.0773762663484902,0.193606950122332,0.189716358542801,-0.0825311294707979,-0.431704341768921,0.068391064792477,-0.300557267739745,0.129799454705638,-0.0785603267297315,0.0296778743234813,0.116955093372095,-0.0843982355405041,0.108122909063305,0.0288805432920399,0.0242603069317424,-0.111157027625189,0.119105005372967,-0.107373541161559,-0.0368032954959408,-0.143278215825881,0.0352477716379071,-0.114378429866256,-0.135421601351016,0.0732154989165538,0.116081357943786,-0.530719100071901,-0.00884855879850443,-0.0641727729526039,-0.238200248224635,-0.237265006273393,0.167560840056686,-0.173023894069266,0.0905388341712346,-0.0883817855687174,-0.0474637068736038,-0.279308634744352,-0.0414652248434035,0.20933587376621,0.186833624069028,0.275536185285055,0.137765544361391,0.00334721246007353,-0.00773129020259884,-0.155139600911336,-0.067131865594133,-0.0212788757087877,0.264281664884394,0.227579492105772,-0.195940891623498,0.0200707467260246,0.204976785343881,-0.183170512650288,0.370180711008434,0.0924855726377435,0.02355693711531,0.133051733625042,0.111996861513425,0.104559367115417,0.186409290755979,0.159195614544019,0.0669346750142851,0.265312441689887,0.133878580720085,0.359269636849759,0.249624100129983,0.327179275382179,0.25920503131533,0.0533447303115814,0.241258220626136,0.337270860799258,0.0622441121294668,0.333334657238279,0.19126563459668,0.376031194834627,0.0541381366988749,0.042841461017156,0.348920052293169,0.331265907905269,-0.0778898947252417,-0.0112847539387522,-0.0204620883170693,-0.252621792248781,-0.193288011946665,-0.109742289444819,-0.291153674379887,-0.0966428483118306,-0.320619328746534,-0.024470221849949,-0.145894926940777,-0.258325662912413,-0.0664319305131318,-0.047480650262922,0.0286604064339118,-0.0757697657550943,-0.230793915597681,0.0275401873074487,-0.180572640566818,-0.0734505715794774,-0.121520371506827,-0.139264052971239,0.0453867939585229,-0.174069501154592,-0.0132428743743571,-0.290352668463708,-0.0054415012974048,-0.125236044136095,-0.16908903723674,0.0448649653884167,-0.309031126461131,0.0314309253127642,-0.165152869453517,-0.074598042047416,-0.123964251344731,-0.108719468490658,-0.126755810324302,0.0131429540776758,-0.245907071163448,-0.0627926430204852,-0.054084213570354,0.0398534352564237,-0.056708920671287,-0.0227382600201105,-0.107173855933032,-0.20492364126145,-0.30080473348761,-0.196688750793001,-0.00173926238102241,-0.0393781128336158,-0.0976824143676922,-0.647272717872781,0.229956088298584,0.0308185989726461,-0.0327213006177219,0.0269510957459971,0.306999401217335,0.119184350337523,0.124292031240187,0.0705675598824201,0.259370160967195,0.197753318870818,0.0380231264249097,-0.00181334502034021,0.250137842111182,0.186345096861069,0.270498155655714,-0.0262569509657157,0.0420605385818089,0.10295681242457,0.0165629820692074,0.119734079439253,0.239024195970896,0.245890951568278,0.344304591105487,0.202297142351359,0.281115816814658,-0.297391076902538,0.0825788970930498,-0.0569387024129066,-0.246093370141475,-0.0573722198044035,0.0259777605595374,0.0197636179114855,-0.106072089543891,0.120258979647442,-0.134189132385819,-0.131635437826163,0.0224592891703058,-0.086579316490728,0.0467111725066168,-0.181604130061824,-0.0468130465625108,0.145955411168742,0.140267238226929,-0.187501501841172,0.0661663394315141,0.00944045494905311,-0.208540071531293,-0.229182922194101,-0.012991754702554,-0.210211751921894,-0.17441325877481,-0.510463372957343,-0.0903615330028232,-0.251836931906946,-0.15516618625025,0.0347832103449159,-0.26276791851823,-0.184300369354471,-0.203446647454051,-0.0740785282612985,-0.126872879940917,0.0177524004677031,-0.244911414776105,-0.244829964028401,0.00829722512589029,-0.145218824671966,-0.059219588661839,-0.0335994707216501,-0.241038115553112,-0.159438751318124,-0.212194573321412,-0.0348384781128532,-0.107232693267437,0.0346887789456417,0.00306879281637421,-0.0704095483832356,-0.0578546198440417,-0.328951099425795,0.208007442109455,-0.0545420105593949,-0.0839753094150737,0.199740853662151,0.242126098279257,0.250191427770029,0.00502007334540669,-0.04568316085987,-0.100652283410691,-0.0650125919619455,0.0646477315726927,0.0183442345588746,-0.0796449536329325,-0.00401777580022336,-0.0939101033616767,-0.0899877335570846,0.132585327168703,0.122751130259396,0.180089391619847,0.174319767930331,-0.0084821496774522,0.000607729778479875,0.255976620900502,0.0123759764799672,0.199171770648621,0.125104395053707,0.0475398336141271,-0.094017768447347,0.112429661276454,0.019263168966145,-0.11059224380871,0.0595568430475953,-0.161142700511042,-0.088688185750279,-0.0126393581743157,-0.167330195219656,-0.00852877717122485,0.0530547196865422,-0.242799256136554,-0.115434389256524,0.129818415915802,0.0355548276607603,-0.0629920995862744,-0.0126325550248935,-0.116672760619343,0.120286103177624,-0.0982193560101911,-0.226602355846188,0.0406460669238235,-0.0356705180353521,-0.116322106548061,-0.556493486483471,0.383856293986528,0.00408683460062787,0.214977120199111,0.208305962330975,0.088481630154713,0.302648975719569,0.00147533301353008,0.307362785988688,0.0617982790809021,0.356278538332364,0.0991278744032858,0.137325244162774,0.302820348386374,0.262331585064707,0.0386336199949171,0.266283928656956,0.265862278913702,0.33066078839759,0.17578174015375,0.33677130402177,0.22469707132095,0.154670465801371,0.301742048554138,0.213203719201397,0.320840525904364,-0.165842491750654,0.16600265293892,0.115839583310607,0.0708428341403707,0.0547616587603152,0.0440496455434395,-0.0712803513881937,-0.083795255185794,-0.191864878740688,0.109100810675678,-0.12992328511167,0.12973495566522,-0.185639070505291,0.177588436240241,0.122222508723816,0.0868856366730122,-0.116761780510632,-0.141926418337426,-0.191153872416562,-0.0282667967425254,-0.165011093749048,0.117947358203342,0.0543959159305599,0.116958733182707,0.0688969769474624,-0.0590643731452805,-0.363775320613819,-0.821885477489102,-0.665432618255221,-0.575144174774362,-0.635934171814843,-0.7646812023389,-0.863346599002287,-0.579560551958779,-0.506300219081073,-0.550666446304741,-0.801677019382466,-0.848886828851683,-0.680276148764803,-0.773177887911076,-0.51690454329391,-0.864286281351432,-0.590721553572937,-0.53408199469636,-0.518755863978802,-0.550763796093654,-0.633905431281007,-0.534240416928041,-0.633753537655456,-0.835521113351242,-0.743947928868418,-0.788809896561203,-0.537681869932922,-0.287453448756077,-0.0430723450465878,-0.121021450438336,-0.19703044699164,0.0883376777425099,-0.306691326807092,-0.194811152094404,-0.00987906698279449,-0.203771527199091,0.0253547213840373,-0.173003345651716,-0.209341670809479,0.0784752755418402,0.0387049013675071,-0.162361160231901,-0.270487997978687,-0.281487698271443,-0.0658139972445213,-0.222251604958949,-0.0179329112580127,0.0257413738091243,-0.0676448951340049,-0.255101465697616,-0.24570774152372,0.0321952689415301,-0.16151291507321,-0.579504684644274,-0.624324399549663,-0.919633512231115,-0.741557928219037,-0.781431504903979,-0.782716245905944,-0.798644275253639,-0.72559633099499,-0.5728363226316,-0.931525390912191,-0.780315952642736,-0.748673183313101,-0.886957869510366,-0.937232686044591,-0.880502180670399,-0.760241993313671,-0.708170200094819,-0.88658417512086,-0.812755391921221,-0.719777507886881,-0.594174311906033,-0.586411869846551,-0.866581455049105,-0.658789602949354,-0.747303023384013,-0.573475732662371,-0.916733507909469,-0.767820157688581,-0.615195405923814,-0.773234542007462,-0.739490879348972,-0.826833708914616,-0.78265170431856,-0.94261427773361,-0.923495446548208,-0.766795556930131,-0.68464837075168,-0.658522403365445,-0.787616589711983,-0.586595904131161,-0.60700619994123,-0.79033120946317,-0.584767580386283,-0.82523858531971,-0.68648084972134,-0.729123319343732,-0.773258943734155,-0.879421734914358,-0.731833546587614,-0.808419448877204,-0.555783499424576,-0.979874588598831,-0.0585707939878888,-0.271739679171589,-0.350106188617848,-0.373922454797723,-0.138572584500558,-0.24357953766715,-0.375084544835024,0.00248315520274113,-0.246812377996476,-0.0135597459504485,-0.0931365534565658,-0.180431420624137,-0.174770139948609,-0.33431188372812,-0.346851118994541,-0.325173231776757,0.00352713211822698,-0.0964422521256581,-0.0583292509473817,-0.0323834251147643,-0.0817032137942663,-0.20889511617545,-0.0955069363310408,-0.184672742442863,0.0156200821543423,-0.00553584153890162,0.011003246771986,0.363226307574329,-0.0100793447579558,0.344094238619499,0.345419400513643,0.17653604295339,0.163954969031724,0.206741227227784,0.183833456687883,0.0430903348530291,0.359588282498848,0.00442936824951466,0.323873399185037,0.112933526915471,0.270564501469579,0.161996626699886,0.214218833865314,0.358649917623828,0.254901715608006,0.149666200237854,0.301627926243509,0.20183339400678,0.17173015965081,0.105916648042602,0.069147504582025,0.298720272155819,-0.732825826315213,-0.904229714309811,-0.863952521167879,-0.801195677812439,-0.729658731225938,-0.718859434560375,-0.942968525337455,-0.667920074771162,-0.841961144439137,-0.927595200794743,-0.574815860039303,-0.780190965001365,-0.946357506464091,-0.857050956409956,-0.931764749655861,-0.570795715561783,-0.707429688801393,-0.57922580223296,-0.874045862660995,-0.588280596131288,-0.609599999696085,-0.758641137862852,-0.890326286584343,-0.831078200494152,-0.612398298426154,-0.682827857309302,0.370461193563741,0.277895521916488,0.0862352156417051,0.255063864379816,0.239296147923519,0.329898018814052,0.322746734037474,0.0765143233609888,0.420423880883213,0.181152683341535,0.183661748395663,0.0979971345003214,0.283811077693577,0.191415717059223,0.0603658935869697,0.104761473956199,0.0678626713546074,0.311127702264322,0.247874498353799,0.10737779886668,0.41797542408792,0.224920672017962,0.194398949893715,0.383485653419902,0.420325094422782,0.265863583704872,-0.174250019996403,-0.0986904183720773,0.170186557763349,-0.19356521915236,0.164810053189142,0.145839160240882,-0.0100838984716742,0.0924959520289311,0.0887128527904947,-0.0428305663393332,0.0257841788871326,0.0810084720956571,0.0111421321963478,-0.124774409553355,0.0750957818757702,0.15516165108953,-0.0994413563785585,0.0651160479172139,0.0254820053425542,-0.025487354001714,-0.0830974106265378,0.112571901194392,0.131292979581743,0.0655779956477155,-0.04656433991746,-0.18903859531785,0.262675400266659,0.223757990207166,0.280211472686431,0.0897546090457787,0.027710659522773,0.045057661336413,0.177046869071644,0.31958627353975,0.181181595610455,0.0984707092095517,-0.0185446659877506,0.291022656835573,0.0914701985670034,0.112950156569391,0.183208601386606,0.266442694079256,0.177830432683338,0.178324028340913,0.154104863483677,0.0619817676735604,-0.0229808731320261,0.0496824647071539,0.10740958540552,0.337941341413,0.00139558519652051,-0.06195987858272,-0.217840310622652,-0.130031510275504,-0.230728574575082,-0.197391337576185,-0.14055281433921,-0.204054865884366,-0.0575702956202902,-0.120432866876803,-0.261905049825777,0.0191833131357699,0.0653096811571101,-0.146110566055284,-0.215610035662106,-0.16434229224928,-0.241107206775987,-0.0554189395287916,-0.0529308033492002,-0.168443737133781,0.0286375072772804,-0.137438811399521,-0.171422960449789,-0.232536961026837,0.0443292464262903,-0.096514902891184,-0.210327341288946,-0.186364673832387,-0.233595677635961,-0.25361491739102,-0.145508444602029,-0.0956704924404945,-0.192315023198354,0.031700714888041,-0.220304404150742,-0.0872692272537283,-0.298642971540935,-0.254462564152852,-0.0112260953851683,-0.18296801031336,0.0755765916633716,0.0220632680112255,-0.212947991044137,0.0484561335584167,-0.186685737104832,0.0005783563654457,0.0376860810367562,-0.237599944761378,-0.167606879496981,-0.243093787767043,-0.258451969050453,-0.131008865488624,-0.060833663829036,-0.473630300732951,0.0976695186357195,0.325294092710652,0.164199115340901,0.0559398504041844,0.264976454912816,0.305123539930712,0.0541792037127614,0.0927902442199604,0.0707840117515952,0.23728782177073,0.0663187777252255,0.273102654229328,0.252741536334124,0.074852166269069,0.115437038095458,0.310996403206232,0.175543879291654,0.0545985573768651,0.395144367470987,0.17128040696416,0.195316882817457,0.047817439266055,0.116752379644615,0.219458117606404,0.393485987692606,-0.310899197536008,-0.11719905231333,-0.353819476527569,-0.00749104744757946,-0.371593969868918,-0.376255028340568,0.00250235250120555,-0.0178348969968485,-0.287719482237655,-0.0971542557476785,-0.178689937246784,-0.282653794594629,0.0123257376694906,-0.152530459451058,-0.34753508731588,-0.268332666026122,-0.0483991045565889,-0.0799061957403698,-0.083327253200257,-0.049048096166809,-0.09287983171955,-0.283348631968678,-0.0683515372323129,0.0138715767577745,-0.111694723088603,-0.0517291074440874,-0.691684311492921,-0.660552593345001,-0.764607442793196,-0.615403864163546,-0.832547920630335,-0.673858286933963,-0.539564990650893,-0.821852125673811,-0.702417635148028,-0.484318676141348,-0.49864258814506,-0.80635997671785,-0.862357298379486,-0.691192429888702,-0.84282484316137,-0.615703717159214,-0.764274261428222,-0.734634846368642,-0.612514293043148,-0.711085082199139,-0.743423126763226,-0.699512251557466,-0.562055825213133,-0.865122207009718,-0.662925281011344,-0.778917633378965,-1.20678180846925,1.6135725857986,0.681494194749507,-0.928946752184512,1.68164023462759,0.396803914172018,-0.835727413923353,1.39848717390489,0.418342242910686,-0.736343079007391,1.10312457131367,1.67325592363405,0.205947737887477,0.157725551471918,0.452941177390954,-0.678584472243015,0.937732501974205,1.27986190411256,-1.06692368645078,1.00107509526474,0.730544696902179,-1.35046699973776,1.58038538034558,1.48509010171289,-0.833075844255777,1.74714387475846,0.411693567019745,0.797276865945793,1.29755624281129,1.40446334921497,1.40439641436301,1.5741938046758,0.682615229246493,1.66282800860369,1.34746491808792,1.12977643328708,-1.27324947855587,0.20119386722855,1.37425880209741,0.526084878610487,0.352089355048765,0.898862201789796,-1.31826019942214,1.2166859829876,1.42439730240702,-0.501940614195513,1.29767389423106,1.74491841438921,-0.286775280272949,0.640603066371103,1.1530843323111,-0.148769671050259,1.02853295592523,0.89614734316531,-0.584046146289467,1.70206454603563,0.0331872054530248,0.117806588703676,0.933497860065427,1.68449635986914,0.142808186073232,0.6796302533148,0.100930931093605,1.72022069430455,1.02155986464189,1.27893076663787,-0.222242212608569,0.297332503156426,0.560260633383999,0.231281388775111,0.953495717469368,0.736538634745655,0.396329488207739,1.73389659984219,0.648985740215977,1.56120620403029
biasActivation=1,1,1,1,1
[BASIC:ACTIVATION]
"ActivationTANH"
"ActivationTANH"
"ActivationTANH"
"ActivationTANH"
"ActivationTANH"
