encog,BasicNetwork,java,3.3.0,1,63634100677920
[BASIC]
[BASIC:PARAMS]
[BASIC:NETWORK]
beginTraining=0
connectionLimit=0
contextTargetOffset=0,0,0,0,0
contextTargetSize=0,0,0,0,0
endTraining=4
hasContext=f
inputCount=2
layerCounts=2,26,26,26,3
layerFeedCounts=1,25,25,25,2
layerContextCount=0,0,0,0,0
layerIndex=0,2,28,54,80
output=0,1,0,0,0,0,0,0,0,0,0,0,0,0,0,0,0,0,0,0,0,0,0,0,0,0,0,1,0,0,0,0,0,0,0,0,0,0,0,0,0,0,0,0,0,0,0,0,0,0,0,0,0,1,0,0,0,0,0,0,0,0,0,0,0,0,0,0,0,0,0,0,0,0,0,0,0,0,0,1,0,0,1
outputCount=1
weightIndex=0,26,676,1326,1401
weights=0.183560714270726,-0.041067349302299,0.115041519954365,0.242652043397456,0.0485255570507367,0.322015890446113,-0.135339275108729,0.303159251487968,0.0403146135007671,0.234400426848592,-0.0812495597517483,-0.15395072803217,0.208041992707208,0.00487478675905184,-0.162621820045379,-0.144761222339044,-0.344339931494169,-0.237061738329888,0.296875873908422,0.177423634279796,0.00587206835222993,0.248427138224057,-0.048088747206871,0.038905967653765,-0.0315005995723533,-0.581388973525826,0.325832046245676,0.0845667716244066,-0.00257681674903034,-0.0946977314401714,0.136944349728784,-0.0711696612408088,-0.26669149569254,0.393153407447017,-0.174002215951221,0.179358872765029,-0.0369654304065722,0.291513135757318,0.149981983951753,0.375104709205144,0.305696046613373,-0.0298074898686095,0.2624831872625,0.0805746659697302,-0.153379646085063,0.0988087780571233,0.172524369511129,-0.221840314407198,0.344011904635778,0.396196407114278,0.0750403059774214,-0.576161697454025,-0.509501059910223,-0.574731205580115,-0.780101561011541,-3.76158262885335,-1.35064942620539,-0.739809123559836,-0.741021204182908,-1.16950754222315,-1.13080153662369,-1.08101334093124,-1.49120589226163,-3.17883554559996,-3.01707707383812,-1.30939280327483,-0.705831727607209,-0.711113983015013,-0.906926250881639,-1.06644875939061,-1.16147001706067,-0.647498959645763,-3.36782286927403,-0.786001428959682,-0.73465712612638,-0.969318267533001,-0.939870327712804,-1.6016175634498,-0.124937841144007,0.220283984191835,0.260947332035036,0.320481719874162,0.186100255738624,0.0304795119677227,0.256717951788511,-0.102231098958998,-0.0489802761333926,-0.165407586649631,-0.222228608642434,0.0627178966044997,0.0795999284868961,0.201978724772296,-0.248408590789246,-0.0877646155594923,0.219616944094438,0.103204849512584,-0.166976216346051,0.466404239794052,0.36897724673944,-0.225125211163,0.327672340771649,0.358981914020963,0.197947696062844,-0.911157188892439,0.274166726142921,-0.0316055660240461,0.267989661763374,-0.083774315642107,-0.196657535539346,-0.0331386756538636,0.119559492970684,-0.094233694741444,-0.0332804717885488,0.376572114476829,-0.0199647577988809,0.0335996247633899,0.148299938464929,0.203767634036566,0.444692740170403,0.183066937716135,0.215036528683034,0.041171509669703,0.109315778712785,-0.123269289454112,-0.252153829845481,0.0171192557259079,-0.346849584614033,-0.182145341119289,0.372961857141177,-0.191365070832582,-0.220751240559669,0.00664305917000902,0.140661416301476,0.0242189216662236,0.34028293673933,0.330860940260385,0.430336414982689,-0.2920638598868,0.201541525351649,-0.0487713876242155,0.107723308147083,-0.0497515167889123,-0.0445722636918996,0.255287747782565,0.099587681192689,0.344117599052814,-0.118489690843902,-0.179747125739228,0.39379726708851,-0.178788236966579,0.712447377979248,0.0774710970820345,0.43838281851384,0.356194284847779,0.00518791781564089,-0.946157469946969,-0.101293148394196,-0.0400809680955413,0.0812144608858144,-0.111902969582987,-0.0354915492297232,0.0834727251235206,-0.0167801835771796,-0.297325401450043,-0.163346718796568,-0.224178471636098,0.248736596674235,-0.142044949752399,-0.302055902082701,0.0808436198476792,0.051292487339574,0.0520597509469824,0.444665244509391,0.142509684092245,-0.258612998847483,0.19158248917432,0.0011982170639759,0.31501561415944,0.232578556824903,-0.188387453073821,-0.215313505485333,-0.574496711952695,0.140694359603794,0.474966770745271,0.0230252945723148,0.375652609822948,0.284985275324003,0.483507153890798,0.465676656861861,0.323103687354828,0.352603033236955,0.404721025926204,0.353076407693955,0.120448938637009,0.60809066907016,-0.0732423922622764,0.394856492631887,0.694445341867364,0.323333807459133,0.24421993741116,0.0318253106567678,-0.0744902973891293,-0.0423367799541533,0.236202315525577,0.48372600668617,0.305882127912266,0.349215263031908,0.38237378676752,0.263847999992888,0.261485822088483,0.386584616645521,0.0109288206755841,0.172792930489065,-0.0970692264359386,-0.24337149812077,0.131459977056881,-0.136772689897901,0.238754391754742,0.406617581732709,0.126143138312077,0.217763548344389,-0.322707033507632,0.12228125661496,0.0811229346716913,0.442087950719945,0.363203589224963,0.409616535026395,0.152010749574755,0.147061481953679,-0.265871046585206,-0.285587950930337,0.0319450793058323,-0.0878324170700891,-0.555690884219837,-0.299763819148216,-0.230354759743434,0.168269180388223,0.624680507307437,0.439123279660935,0.168035959939238,-0.295463483711457,-0.282079788107145,0.38867868602001,0.373210366895479,0.143073453930447,-0.0237295720210028,0.680900054617044,-0.150449138116628,-0.176938308912567,-0.0502733553914684,0.238309433460098,0.329937132119245,-0.318544388156649,0.365264907793903,0.485590627713618,-0.26485325670196,-0.0126804841586798,0.145824261198629,-0.0317775879328419,-0.627671874829076,0.0700957841279707,0.373869781518524,0.250115402985815,0.170218606578095,0.196333508382063,-0.012031603055886,-0.248020796277442,-0.0871248497976251,-0.148264690990096,-0.350111643814109,0.447615912947039,-0.0471107302737445,0.284908704514912,-0.125564061902344,0.0653478763531876,0.138539289046788,-0.268946583703169,0.194304469246328,0.40028087555393,0.379651966443321,0.439846001539512,0.224865233143023,-0.0247634372701938,-0.145069210059599,-0.0589149088712265,0.143552904113562,-0.170560928835145,-0.175191965877256,-0.0436008834860942,-0.0863799117986495,0.0563718127185403,0.274754554691928,-0.125404070474695,-0.379014767648781,-0.42311022048636,-0.380340940032788,-0.264970883858291,-0.637925476855712,-0.670785354068198,-0.398687918299506,0.21061970922006,-0.0279702555853306,0.257203576102688,-0.347872221396085,-0.20638325608464,-0.257225392563784,-0.765457128693294,0.0849250327324308,-0.22406921897254,-0.44895350133317,-0.51728594712806,-0.955970802462032,0.462180353456292,0.294763561118378,0.602879118533976,0.518918134214168,0.319037970495767,0.304731542691019,0.162975067096552,0.286922880716016,0.705075180995599,0.487571723081754,0.480195828689252,0.0624176877401467,0.0432051414520832,0.702089883566803,0.644539449980517,0.376926860448439,0.0451143868687618,0.196041808373095,0.130242011138505,0.794781360084134,0.193204267016899,0.533577462138182,-0.070457313341628,0.185630304529589,0.514199833407039,0.302057712959707,0.336451672956634,-0.338521067954673,-0.236988412419903,0.181170510014413,-0.302080937954628,0.0712861929000306,0.392740246650555,0.435163285388971,-0.0968760615867376,-0.343472592681047,-0.0844727617560587,-0.0608947751736807,0.22463270905811,0.348261590433604,0.417442319276956,0.255814289325005,-0.201275735185885,-0.186407116684067,0.372628794672035,0.179711444660168,0.437556216678678,-0.0226944438269696,0.000749233212149124,0.0711482149674869,0.130418646335757,-0.84117022716478,-0.407315677335357,-0.933995006244995,-0.603542244493622,0.61595935454733,-0.538572651429629,-0.638088522587831,-1.13306965172723,-0.820128878420359,-0.577558523414043,-0.840530281326422,-0.182999413092058,0.135118886398813,0.409564615817352,-0.791509951035296,-0.789751206622062,-0.837532093382942,-0.537300867521733,-0.349198874596083,-0.859473237772615,-1.12677423131071,0.424711337961832,-0.534860187625178,-0.039867904276039,-0.50818397175416,-0.235859790032326,-1.81892158430688,0.253429270264401,-0.0266186524034941,0.112743936367509,0.266645676783604,0.377369565323523,0.392787666367435,-0.0154065846741135,-0.0523642966832189,0.480380912776453,0.546180970472995,0.480076672072948,0.202975050797525,0.315957118640175,0.538102961509931,0.125495042868826,0.213007843087941,0.128621529457118,0.463568459915224,0.25899709870181,0.823915845346894,0.319838734430174,0.500593173992078,0.185229146891703,0.443324885671093,0.516390986235829,0.40575087562625,0.136212472051947,0.529839945513204,0.198973300536699,0.256442032285796,0.152348217236993,0.37970511937923,0.186611269210383,0.441102326285416,0.0151973052854155,0.711368531337327,-0.0378374738201371,0.006608168775255,0.44951599716607,0.5115747203521,0.105070859357672,0.411663641665318,0.300158968582217,0.36696610427181,0.379500903096585,0.325036450653642,0.103156375736643,0.304378417501949,0.38355132698521,0.161438224038637,0.0218275402097412,-0.0132409304074597,0.264534027681677,0.603170491504017,0.238413448436824,0.600743309501542,0.629746405233982,0.516778953156822,0.60966118206174,0.0711515641723086,0.30203381889786,0.291579778504276,0.579109425468386,0.259422595908284,0.435679100267522,0.15066500550811,0.109577169871889,0.759445544748726,0.569313225389262,0.255768319343092,0.290347118969347,0.12355957609949,0.823224201396001,0.58811084157893,0.56274815515397,0.792765845158823,0.245887989992234,-0.444808668644494,-0.0157173928431192,0.313354295582187,0.0680121906606072,0.551460017779219,0.0667089669894656,-0.0363562456588822,0.172819561511166,-0.000585914795704029,0.160629716279926,0.420267086397959,0.237044129826699,0.24940698443072,0.0840791228209309,0.292018738773366,0.286348398227481,0.459267162158508,0.255948470618987,0.65513288866499,0.668660972145918,0.0927200880915605,-0.0397917805780855,0.273336337588476,0.0593624499465,0.280801583381883,0.57670699992428,0.353167413051379,0.441329524596137,-0.32862710532486,-0.160863064822241,0.103661649331967,-0.310344343116894,-0.103674658343228,-0.0162183478762918,0.415128057611757,0.0565467422975676,-0.184453376342819,0.333836444429547,0.0652455397654882,-0.240758024606091,0.147835882989875,0.408668397626338,-0.0361154840567735,0.311222653337403,0.00954366300077642,0.0407877574673117,-0.179167543623832,-0.355764588060212,0.317607735140455,0.15842525362846,-0.114976279882507,-0.143760961095199,-0.641576931647357,0.444343292539752,-0.319240766384073,0.22733379637108,0.193534732797626,-0.0968152037723487,0.224121360844788,0.403148623698559,0.338744510412722,-0.303855579012919,-0.125721824271094,0.366575034030011,0.336552305594806,0.232195365465539,-0.273185386362477,0.438554609865885,-0.114264958966352,0.410251132300272,-0.15155121741682,0.315246592666877,-0.224422830499655,0.407637128688708,-0.0987337799074153,-0.145632582063073,0.169252981037562,0.135970347140403,0.0104632325048076,-11.4372573024779,-11.7277554443712,-3.20128048178887,-2.24282329054432,-6.06852721497222,-11.4674721170932,-19.8425184556125,-11.9442429734759,-11.9538905309907,-11.8851738065636,-3.32029361967307,-1.66999016356846,-1.65785267504691,-5.61186172077666,-11.7490751260088,-11.995719878829,-11.7531587450366,-11.6676655414396,-11.7918178374789,-5.59331163095503,-1.66925387553317,3.34792749233089,10.682178889611,-11.638816972904,13.717884314255,-11.8490475027858,0.015005866977463,-0.0545416590135552,0.404916814613109,0.183586431668455,0.271839774271464,-0.32326428028071,-0.344567448365893,0.124632563272336,0.269360781480563,-0.0572921570015799,0.106055860032667,0.351965538462992,0.371648586737369,0.414238274002217,-0.0526470164795908,-0.149367028097902,0.27204296081813,0.121672653092504,-0.318600013853285,-0.29646890042889,-0.0267007154383132,0.235371451043533,-0.0969615198829734,0.077551640478301,0.248579417447327,-0.527252628135495,-1.15967550088456,-0.895026610281452,-0.669135315348682,-3.35178608667312,-1.02568305787562,-0.761596738528535,-1.0272290204116,-0.488089378277725,-0.914876362468114,-0.518274741119601,-1.15166724897637,-3.29855013609299,-3.30936341055285,-1.20452018853473,-0.607186915202572,-1.05038506005365,-1.0277473583624,-1.12417650740464,-0.721617708707539,-0.318173296933351,-3.18148730161072,-0.839934815999272,-0.691088911120641,-0.787796349169667,-0.797626197126081,-1.14550705861353,0.179925076881525,0.28793952279592,-0.303290805902995,0.49982199916315,-0.306243271005924,-0.0392971036243347,0.374963003427232,-0.195425924470779,0.349099545801048,0.0770118653783516,0.264318161134809,0.0962843518560534,-0.0680066062278153,0.419633353143422,0.152251628145119,0.362071846509914,0.0428253347359307,-0.0216887901627965,0.332978766299744,-0.226429419386503,0.702361570576948,0.301124416105495,-0.166280760665782,-0.297160117119064,-0.0202279788440349,-0.122748081988649,-0.62068273994662,-1.20951205159621,-0.820563201644154,-3.32383725470839,-1.10619265271986,-1.1057076462418,-0.489332636711875,-0.713844814345671,-0.536184926888141,-0.909841334685601,-0.856009933821135,-3.21083244037002,-3.07704341560422,-1.28940067124646,-0.725816996291006,-0.948564987816471,-1.01071109284096,-1.0351435442833,-0.852471826375773,-0.670650132186426,-3.6484920031448,-0.682313306433193,-1.26773224023583,-0.58200830662581,-1.23980261480822,-1.89039683817167,0.23027361502065,-0.283174160150787,0.212273750369525,-1.90039908008191,-0.0982086845097917,0.00837369403608055,-0.163906817179908,-0.24590671227222,0.391175716736583,-5.5432040822362,0.158643734695416,0.0818290670291069,-0.203844216262243,0.33861440411435,0.18378838666032,0.430720396489083,-0.245831025450644,-0.334170113304418,-0.0236725736654137,0.416418715262368,0.134207966117578,-0.343489710233186,0.225553797981572,-0.294764927126569,-0.692190531090429,0.0634405832886205,0.120296970436309,-0.341899587493801,-0.293515374136674,0.259745852715776,-0.206075357587254,0.226111004322387,-0.0268146077684911,-0.465989128979766,-0.227545616251659,0.574032570849313,0.266410385233859,-0.207860974141625,-0.219249646957664,-0.017227062147477,-0.178013210197919,0.023320968230647,0.14994381762937,-0.316664910910954,0.0416853507405093,-0.480332209703684,-0.457011285617819,-0.352957256648093,0.219172361019054,-0.00330866523168091,1.17071151680948,-0.952421276908162,-0.517287895925471,-0.493158538795123,-0.952603342815546,-16.6751255286697,1.31630961933305,-0.558768851476807,-0.791367970382939,-0.908138934387254,-0.537784036473563,-5.90286299296936,-0.378252098208881,-0.576584345384121,-0.775086404239352,-0.493328029700306,-0.317217085275737,-0.959916470585032,-0.655888762936545,-0.756274867193921,-1.05773877204733,-0.463830811382354,-0.540798666420088,-0.432306271591271,-0.627616857842268,-0.314973762186403,-0.629326758962989,-1.44116206675435,-0.979998366999538,-0.863854735716399,-1.16512297740249,0.578662597772402,-0.409328603615308,-0.7775135437078,-0.999088716496514,-0.631923094026559,-1.08485793045944,1.78217090830058,-0.545454593642301,-0.767570220010676,-0.535724313050355,-1.00307759399663,-1.24474983446599,-1.13935010327771,-0.511511833151995,-0.962214027916557,-0.630495741038554,-1.10172866769381,-0.573634714149682,-0.497055427037266,-1.19518393190603,-0.529163622510868,1.0045911568424,-1.3077279721355,-0.437903523891651,-0.77100965881309,-0.465975754631735,0.94621476958302,-0.395679159284528,-0.78901321543195,-0.520321573815201,-0.249901024268818,-0.744029471568421,1.87090838622355,-0.908274944075914,-0.892802392617091,-0.364765633534933,-0.765997541592234,-0.742754615978759,-0.512246874074727,-0.573729086332015,-0.91675119591544,-0.783532840804663,-0.257389506787802,-0.589638958005499,-0.423732141912628,-0.384339964007519,-0.566707550233529,1.89424897573082,-0.882389170185845,-0.423215746504602,0.239884677630388,-0.048745062387879,0.306234100866948,0.0594485151022437,-0.360821727960032,0.194034297173597,0.0795684461102574,0.271450807115445,0.442816686316576,-0.35107453569245,-0.237431844390843,0.0622486662358059,0.0584314254920218,-0.432375842493101,-0.470933045079164,-0.44417531872584,-0.337104809005921,-0.416202355499424,0.196163363167469,0.013594992549969,-0.049625395743947,0.252086775216541,-0.246515036372582,0.804769659294749,-1.08341873749652,0.0692468619961688,0.139317872529766,-0.448293000786454,0.775005658850197,0.137642487336262,-0.420313760695833,-0.467545413133425,-0.503497078265646,-0.460321763490574,0.797475577518031,-0.295680256444166,0.165439570128251,-0.201404732983703,0.154210512550111,-0.385172961124695,0.257347089020803,-0.335784620041685,-0.424072656560935,-0.255696632945503,-0.430821536504399,-0.277348733485252,-0.140300537630691,0.0804620411420726,-0.213230207489561,0.839137238547612,-1.20225265150802,-0.0749383767020788,0.38572607579257,0.0274980316944147,-2.21259443511287,0.345697655238286,-0.15318446971767,0.345881803499045,-0.0771157115221538,0.0151698295706463,-5.41701900430977,0.176911843194338,-0.340469881539499,0.143576833419774,-0.28171037869899,-0.120836034959791,0.214808740799078,0.167803585280223,0.0714050998133412,0.269985630891849,-0.164376469327245,0.309520903504628,-0.125174448522688,0.23038672058979,0.201486323056013,-0.779979935702262,-0.388570253465988,-0.511859119724706,-0.198672716796105,0.0889361081286299,0.20253641722686,-0.213020009699693,0.0400796736347007,-0.185993353595041,-0.490813334606781,0.0998581955330926,0.447980190898479,-0.0857615304332135,-0.0867314127299196,-0.0463578651934425,-0.493450230428869,0.264791346156053,-0.475226025163922,-0.211913760722909,-0.439894225768526,-0.270519197875909,-0.34626918220456,-0.122398470453862,-0.324940697948886,0.135248077982239,-0.0469238947574837,1.05034781291356,0.035094964028105,-0.0379870988545634,-0.260663932125143,-0.00605161354260562,0.043225089420609,-0.116541325884607,0.101149335569995,-0.3846167881268,-0.413228742432036,-0.332466858885845,0.761033755219896,-0.0610053053144439,-0.364473522651467,0.270990460187731,0.241878683895977,-0.0494300136081175,-0.0567687808663248,-0.276522059895743,-0.403939634453524,-0.390571237660589,-0.436606510882738,0.222792039343123,0.0722943524278374,-0.324121301146957,0.0936054197756707,1.10500902283419,-0.958942311678877,-0.763893120636233,-0.95441983876823,-0.78829034303919,-16.6396192524701,1.49111678268706,-0.929947526086787,-0.71824711903038,-0.389911728279972,-0.987745596483637,-5.8499487704235,-0.754386066807856,-0.495139848962791,-0.311938614047982,-0.45653521174689,-0.767926993576021,-0.698924051734307,-0.430607717286705,-0.654434034219118,-0.68384506559316,-0.913252607044342,-0.980521631699937,-0.782022227515567,-0.566463514340123,-0.335254035331219,0.127444545176077,-0.861615884675996,-0.939852215071235,-0.709763590475669,-1.05200107646189,0.791314942634819,-0.538273021468919,-0.586963728063396,-1.1499068457587,-0.832157173305403,-0.963209394443386,1.08944684468616,-0.65700222681324,-0.907992758786739,-0.575093075496099,-0.95930962987727,-0.678290231041481,-1.16733706218191,-0.59862757027,-0.886540073814932,-1.13063456470808,-0.813446038353346,-1.12405224782594,-0.966099853334093,-0.700743344727111,-0.906535759572183,0.756668960268488,-1.00131699633203,-1.05081682914993,-0.723228880937857,-0.868606245353387,0.123537477567334,-0.409188081468299,-0.940358466322237,-0.625817102336942,-0.564237802599152,-0.695104658631257,1.63441823239307,-0.839108022663012,-1.09516679807182,-1.2722892123352,-0.872431686360165,-0.846430374049017,-0.980991411587503,-0.994523188148428,-1.01067556441276,-0.746931172536772,-1.02381232934489,-0.784332866338723,-1.22573280656081,-0.939971723618566,-0.518193917133731,0.845339776982214,-0.916210957820494,-1.52070430454502,-1.82068177936536,-1.71865724263309,-2.56962057293714,-15.6161805287611,-1.44767493858093,-1.3706360100129,-1.82049587629552,-1.63456000770306,-0.889130542100767,-2.06196403674161,-1.79624142826883,-1.68541284252618,-1.8150568692806,-1.58440074201017,-1.31309779845732,-1.56643005680639,-2.06321046366066,-1.63045412507927,-1.60187388098777,-1.71265137026933,-1.56042796390829,-2.06542877309392,-1.44528592179881,-0.349992129054811,-2.68980692720293,0.27175883035669,0.12982596580192,-0.282242833846631,-2.46027613017056,-0.221545427724072,0.0809665530415905,0.0544018111583665,-0.0589668136402309,0.19683725640707,-5.51973587651842,-0.025277165010999,0.197348742981397,0.214245849453656,0.225058334102204,-0.10803936987464,0.164685482144606,0.37861973952718,-0.297223928712737,-0.0987239798908281,0.418209658304685,0.291211256297709,-0.11157090830111,0.177079830849565,0.145256350302884,-0.830546189602169,-0.541163653564185,-0.223672811429045,0.173724879981133,-0.00821443724615554,0.0327126769632689,-0.0271288473588276,0.00177114609731235,0.272982234249263,-0.0437945346334693,-0.506890822282772,0.619696874657658,-0.325710095794041,-0.232123896491123,-0.368311244439103,-0.134199619899133,0.158087730456873,-0.413885642231106,-0.00316315580359969,-0.387025867338811,-0.0752776867914748,0.244952170096284,-0.268707903230249,0.15321851070259,-0.281291564458286,0.131394117470134,0.982901622746223,-0.700531025596581,0.0360769573421221,-0.309372509800623,0.0991347770776691,-2.25186236892364,0.310650727776793,0.0177392353773318,0.2981565865399,0.353629985242422,-0.202546653561391,-4.9511117288768,0.238249628803118,0.170973135309401,-0.215706783479471,0.261953694088882,0.213368513929327,-0.249163073944901,0.224763138352949,-0.327306358746698,-0.0167904400933799,0.103557617986276,0.36007188092356,0.324477645205498,-0.247064090184214,0.197910880496788,-0.621000143597943,0.376005736669422,-0.414987933532921,-0.127097449064486,-0.423271932399871,0.819672808679024,-1.3109049491558,0.177293912215304,-0.234102696451361,-0.199922221140355,-0.343495414947183,3.91472536559874,-0.452118915413511,-0.0522725377113517,-0.198922604112323,0.143549088355474,-0.043282063504176,-0.234925370154679,-0.240842570040115,-0.320780809619927,-0.165136851507377,0.312862128413846,0.315691935667507,0.14976703864649,-0.277605947535417,-0.328734432987721,-0.0206486750551059,-0.4597350118094,-0.16100504613886,-0.343063955240053,-0.428735359123052,0.908163442947284,-1.03204178998241,0.218126363512474,0.168688349187336,-0.138220681974776,-0.174894339982627,3.45919275196273,0.169280408749414,0.0460087159749906,-0.413690900660245,0.249522230924153,-0.202545677132118,0.172769351997224,-0.00217239985681539,0.128769887918154,-0.40466566742427,-0.330585832828579,0.0601653197019645,0.0282269858874856,-0.460781827402428,-0.0126242578146417,0.317784262650359,-0.843252085759516,-1.48041578968871,-1.17954337417782,-1.30604775397482,-5.31021568047121,-15.8961957898406,-1.01347704528056,-1.39438219294494,-1.47622187154187,-1.37682861074346,-2.30373474991531,-1.48631443111493,-1.29093673988381,-1.6965739160653,-1.58918482479439,-1.13990043276709,-0.979624028005953,-1.39668414075952,-1.57604215931331,-1.3231453247725,-1.20579083188351,-1.62223491805731,-1.33359862829994,-1.19971976355166,-1.57220498542734,-0.364700561496694,-1.02817801218749,-1.20756408024895,-0.537455689980434,-0.810647420572207,0.712364361890874,-0.574630432954524,-0.903418392764692,-1.21269224197002,-0.494996477913149,-0.820795174284312,1.17679063728516,-0.55532223225624,-1.21053714942031,-1.1370706901473,-0.54039185022631,-1.07894641856557,-0.660600893374652,-0.892986485817885,-1.11571669430868,-0.860253544373347,-1.23057298745851,-0.694010963502049,-0.538630146886158,-0.913834704317766,-0.683359956548363,-0.057426886152989,-1.30005896236342,-0.87289260387417,-0.223736109366562,-0.298895519002666,0.884379232528443,-0.509961088957832,-0.681414426579499,-0.868078045485524,-0.390687324107525,-0.321852368651506,1.59081470139684,-0.385325831360348,-0.420040667651517,-0.160157688176489,-0.302647418740919,-0.594183901533692,-0.92131137854283,-0.488141030900762,-0.484734232266653,-0.940241199369615,-0.702086394959117,-0.158707809556689,-0.50250485493687,-0.642783816937839,-0.681385405073337,1.73510573515929,-0.392546996581046,-0.431702821444678,-0.848554546755713,-0.35105579821061,0.362262460554426,-0.153758463994342,-0.278671098826651,-0.529684780676163,-0.709272104980532,-0.642173790269075,1.36307647399924,-0.807748960289036,-0.33805435624206,-0.855375776840709,-0.485555807055293,-0.157919082084119,-0.561858384189107,-0.830187482953357,-0.317728513359724,-0.886923063392857,-0.2884057963157,-0.771036424281528,-0.37306610378176,-0.451849064074149,-0.384347586337771,1.52197726066808,-1.04850131092295,0.0717545031770999,0.218721477705694,0.161880120796356,0.41878929189192,0.14716702648389,-0.138560510226955,0.137300353612743,-0.0523151688637127,0.0254260217967726,1.16323487201941,0.235506101034678,-0.0225851967835323,0.269639787271106,0.168482894397896,-0.411406283272981,0.028081460506416,-0.181524024769472,-0.310818187078533,0.161575208677799,0.125050952272891,-0.150426291723572,-0.179547765382729,-0.269029685943405,-0.117899821665209,0.719855428016487,0.0887839961363177,-0.742033999712507,-0.81952938458906,-0.776477706613379,0.972559676254302,-0.130654937784017,-0.914279869904866,-0.309564085604458,-0.478015828297058,-0.871475998301377,1.69422395330176,-0.596014598845295,-0.271786041331775,-0.427293235094842,-0.394050823130487,-0.200217082923209,-0.527905541045403,-0.235844201920472,-0.934583606583528,-0.522226858292193,-0.532464659238231,-0.312243273699237,-0.780268330859159,-0.398049909340346,-0.52398025785635,1.18287678272211,-0.801494241959036,2997677.31405128,-2998251.47077827,1.05184719199638,2996254.86709507,-2996541.22327026,-1.4079674523167,2998257.58425433,-2998253.6584825,1.77784500840972,-2997674.15349477,2997386.43218055,0.048929605825728,2992247.9643932,-2992096.16890486,-0.451009791146473,2997965.57895072,-2998253.59745596,-1.87693566836928,2997964.78053233,-2998253.31289932,0.117381274534478,2997675.81431444,-2997963.53940402,0.114064989109168,2997677.27045498,-2997962.86800601,-2.93315329727626,-2997674.25474337,2998256.5419863,-3.13265903963327,2997676.39101885,-2998251.02593675,1.98123949337211,2997677.39298091,-2997963.83756125,-3.56932949869063,0.815717944017244,4.07175247271051,2976638.30646835,2997965.82898334,-2998252.50417013,-0.704343244432651,2997675.4554727,-2997672.40197516,1.88220838760502,2997675.68550457,-2997961.00847654,-2.51887571611987,2997677.16788739,-2997962.54081869,2.05516285955083,2998254.96399514,-2997963.03472041,-0.582909601698843,2997674.39078987,-2998252.96293815,2.1411380689108,2997675.00150267,-2997961.33717647,1.14588258273576,2997676.28573557,-2997961.24320863,-3.14049503967786,2997965.96932318,-2998252.83869041,1.1317660370086,2997674.81165688,-2998254.04157677,0.361745789919476,2997965.77671,-2998253.66806024,-0.0829112484943835,-2997964.58114239,2997967.44355123,-1.95502963390389
biasActivation=1,1,1,1,1
[BASIC:ACTIVATION]
"ActivationSigmoid"
"ActivationSigmoid"
"ActivationSigmoid"
"ActivationSigmoid"
"ActivationSigmoid"
